49 100
BB -0.10587536 0.12380293 0.070960775 0.059009876 -0.02295335 -0.19067344 0.14097257 0.28064686 -0.20535864 -0.28042692 0.122283466 -0.23198077 0.04062875 0.104344055 0.069702104 -0.09761286 0.28289717 -0.06230756 -0.13723227 -0.4579458 0.07371407 0.080237314 0.3227371 -0.08900892 -0.06711071 0.049558558 -0.15993848 0.08220441 -0.14015396 0.11695665 0.15438464 -0.15099593 0.10696328 -0.35768962 -0.027069012 0.1516293 0.14015433 6.532356e-05 -0.10991791 -0.0015914456 -0.0064992155 -0.1477174 -0.16801478 0.07384988 0.122929074 -0.15913056 -0.10611342 -0.024462972 0.10627605 0.09204782 0.088215455 -0.07328637 -0.078830115 -0.03459733 -0.027583353 0.027226508 0.2085238 -0.03332691 -0.043104716 0.048882768 -0.12560612 -0.21892604 0.25135615 0.061396353 -0.1394422 0.3156982 -0.080666095 0.114718944 -0.27559602 0.08846853 0.07542388 0.24135868 0.15065336 0.07704309 0.14678532 0.04177133 0.11746063 0.07679059 -0.029002411 -0.02298689 -0.26557264 -0.023634626 0.05970579 0.12982893 -0.04538628 -0.091069885 0.12748325 0.020167056 0.20725675 0.19451614 0.19551219 0.07392682 0.083609805 -0.11915074 0.28113255 0.05325965 0.13282314 -0.081936374 -0.0116430465 -0.012473346
CB -0.14572328 0.13104375 0.05280968 0.09347711 0.113610476 -0.038863987 0.19996755 0.14364988 -0.36276928 -0.34036285 0.15930997 -0.26801708 0.021343898 0.14013463 0.11136652 -0.12950917 0.3271992 0.15023479 -0.38046965 -0.5254875 -0.06323859 0.03556089 0.41285786 -0.042221136 -0.12999472 0.057453535 -0.12590043 0.024268698 -0.17701645 0.1859585 0.27958083 -0.18235643 -0.044228315 -0.2977254 -0.034116197 0.20212471 0.17420436 0.034757312 0.035462074 0.03505829 0.2516321 -0.32391933 -0.20741323 0.041628353 0.17123213 -0.006712333 -0.109015085 -0.037255984 0.12323619 -0.016378347 0.18054087 -0.306731 -0.050721385 -0.061164368 -0.22178143 0.061533276 0.28525275 -0.08077715 -0.09779225 -0.038450215 -0.08207699 -0.17942488 0.34187108 -0.055286154 -0.084344685 0.36096346 -0.015499033 0.14062433 -0.39051473 -0.035829343 0.019153954 0.17608085 0.18655665 0.19709559 0.014544231 0.059974253 0.034317408 0.16798802 -0.0057042646 -0.03614976 -0.20634994 -0.05909433 0.09951717 0.00717847 0.013596743 -0.18381505 0.14948343 -0.01239683 0.202405 0.14048977 0.13689837 0.06178112 0.04862815 -0.17421511 0.3566928 0.061855722 0.38020667 -0.21087031 -0.027322782 -0.048104346
BA -0.19112913 0.1935719 0.09042933 0.082366034 0.022739971 -0.18063748 0.1772749 0.32299027 -0.2512652 -0.28610668 0.102547966 -0.21907811 0.1108551 0.043550532 0.15741535 -0.12715061 0.27282876 -0.066392355 -0.22259074 -0.4547735 0.05906379 0.085371226 0.3185094 -0.07911457 -0.13337615 0.07828516 -0.08913886 0.070763186 -0.14151056 0.14856726 0.15179081 -0.19558464 0.010189337 -0.309133 -0.013326016 0.21003179 0.13694867 -0.0045969873 -0.12875612 0.038684357 0.0596962 -0.13823012 -0.15209512 0.1336373 0.17608315 -0.14672069 -0.08451913 -0.052148513 0.09875181 0.03162388 0.10315576 -0.07674196 -0.08534138 -0.09804195 -0.0855427 0.060796466 0.18216737 -0.021763928 -0.016344175 -0.010969317 -0.08116684 -0.19459075 0.28326407 0.03304281 -0.11117125 0.292784 -0.050789937 0.18755376 -0.2852443 0.02864695 0.058560476 0.20932512 0.14391592 0.11735851 0.05378965 0.07835395 0.12489739 0.11448052 -0.042292107 -0.025122795 -0.2640805 -0.016682524 0.06123011 0.107316695 -0.036168393 -0.098387256 0.110822015 0.028692672 0.20239852 0.11561597 0.13575877 0.09043793 0.09233929 -0.11935967 0.32025692 0.054550562 0.16045588 -0.08326124 0.0336735 -0.058510195
AA -0.313252 0.31965685 0.13538161 0.14118028 0.071673036 -0.18541433 0.25563714 0.37750486 -0.2870426 -0.31965306 0.13764095 -0.22311777 0.1788856 -0.010024617 0.2465297 -0.14733702 0.27571714 -0.07352021 -0.3473818 -0.44214964 0.062811024 0.09788313 0.36583138 -0.028869564 -0.24105507 0.13637 -0.018535892 0.05045881 -0.13248284 0.16100278 0.13861468 -0.2569154 -0.0667396 -0.27869898 0.027544258 0.31751376 0.18652764 -0.035670362 -0.1938978 0.09888424 0.15213305 -0.12039059 -0.14864703 0.18419404 0.24184449 -0.113237016 -0.06547127 -0.08466832 0.08937288 -0.04151343 0.10913898 -0.08962858 -0.10345687 -0.1724356 -0.14153545 0.09831281 0.17212462 -0.0015509429 0.037051518 -0.0643084 -0.044451002 -0.16322598 0.3038754 -0.021247078 -0.047606643 0.22511663 -0.044984143 0.30243826 -0.2962698 -0.053227764 0.030213539 0.15950386 0.1352448 0.18805616 -0.059840217 0.085898995 0.09250232 0.1621994 -0.059307817 -0.055846404 -0.29101184 0.009841085 0.115445495 0.06172082 -0.04575522 -0.10366867 0.13569528 0.02318705 0.16183761 -0.003907341 0.04974025 0.09115097 0.06728967 -0.11588586 0.3615313 0.05424469 0.18765889 -0.10189263 0.0533697 -0.085098654
AB -0.19510898 0.18685882 0.08694217 0.09274878 0.03002009 -0.17290755 0.17705767 0.31676346 -0.25193602 -0.29055163 0.12453159 -0.23408072 0.08353513 0.069085695 0.13698684 -0.10925954 0.2568756 -0.061411526 -0.21358296 -0.46714374 0.06169015 0.083365284 0.3438544 -0.045257445 -0.14636305 0.091682784 -0.106581524 0.069196925 -0.13811159 0.12845674 0.15647729 -0.19256142 0.03386821 -0.3210683 0.018633895 0.20648664 0.15770712 -0.0062990673 -0.13358141 0.045572072 0.072745115 -0.16122453 -0.19153568 0.1269716 0.17456888 -0.15087846 -0.08811564 -0.03966638 0.105532065 0.027401391 0.111822546 -0.09415193 -0.071005136 -0.077569105 -0.06633575 0.050852627 0.18551603 -0.0396 -0.00052984385 -0.019662613 -0.11149976 -0.2041446 0.28836638 0.030202068 -0.12387404 0.2918034 -0.06129724 0.19156718 -0.29642704 0.046394877 0.04694125 0.2283033 0.13902384 0.12600936 0.05288352 0.06721368 0.0987059 0.107165515 -0.029398592 -0.03996489 -0.29900178 -0.022947662 0.09302299 0.09926693 -0.05347445 -0.09967966 0.12586442 0.027674321 0.19073959 0.1342845 0.1469071 0.07952222 0.08670201 -0.11149371 0.32212028 0.047102857 0.18354231 -0.07949899 0.008105839 -0.033331268
BC -0.12200701 0.09301744 0.029072413 0.06371113 0.053432636 -0.06570586 0.17307447 0.15282325 -0.32253927 -0.31941593 0.13426256 -0.23672235 0.021816805 0.118676506 0.099095635 -0.13293706 0.29613775 0.08487766 -0.29681116 -0.49568385 -0.047973584 0.05223047 0.3764897 -0.02362902 -0.11425787 0.033636566 -0.13313164 0.026411286 -0.15245265 0.16263293 0.27244005 -0.17517804 -0.0059407735 -0.2947625 -0.04184687 0.1820586 0.15933533 0.031061323 0.017222961 0.00727651 0.18513565 -0.29072282 -0.17726478 0.043270644 0.16175263 -0.052569225 -0.12461433 -0.016897948 0.12629141 0.0016148859 0.15644091 -0.25206527 -0.048188627 -0.034444332 -0.18572602 0.0643283 0.27489752 -0.078098804 -0.08271688 -0.034076925 -0.07046772 -0.17819199 0.35433626 -0.017193772 -0.11121613 0.35113105 -0.042120796 0.12706684 -0.36985627 -0.013675727 0.04447867 0.20142932 0.18477304 0.16276911 0.06849166 0.07794277 0.043952145 0.15361288 -0.027304597 -0.01458852 -0.19131726 -0.08279181 0.072504275 0.052604876 0.007237527 -0.16209494 0.12105691 0.016989006 0.20781197 0.18155493 0.17366551 0.08245893 0.043033116 -0.15454172 0.35262766 0.053988513 0.32936826 -0.18852419 0.0031732565 -0.06312609
CC -0.11724276 0.080101475 -0.004001116 0.07340402 0.14711146 0.038804524 0.21503724 0.04603174 -0.42388582 -0.35869727 0.17771947 -0.2618214 0.006866296 0.17603807 0.1113252 -0.15837422 0.3545904 0.24037443 -0.4418232 -0.55751723 -0.12887858 0.014096216 0.44785494 -0.0025023534 -0.13647676 0.030704016 -0.12325912 -0.01281675 -0.18988198 0.18503526 0.36094654 -0.16458297 -0.08800798 -0.26324305 -0.05928948 0.2053324 0.17032121 0.042987857 0.097235665 0.009648251 0.3297471 -0.39981538 -0.18316072 -0.0013172702 0.19000608 0.05037223 -0.13646004 -0.03262916 0.13632853 -0.056662496 0.2155507 -0.40142444 -0.04944685 -0.047667526 -0.30620217 0.060663052 0.32282278 -0.11951483 -0.13737373 -0.09518617 -0.04646036 -0.1705931 0.4128493 -0.07862049 -0.088655755 0.39296025 -0.022270551 0.12110394 -0.46034154 -0.082671225 0.015577043 0.17398238 0.1979446 0.24182646 0.011305319 0.066994056 0.010508561 0.22144908 -0.017127896 -0.019843299 -0.15000272 -0.1060639 0.077192344 -0.015774967 0.04645625 -0.22751144 0.16322987 -0.007638644 0.19647884 0.159464 0.1340928 0.06333646 0.020089887 -0.18579891 0.40290332 0.061732575 0.5018305 -0.28584033 -0.021728875 -0.081973664
CA -0.1615902 0.18458255 0.107256986 0.11427249 0.035490658 -0.13713437 0.19244705 0.24808675 -0.28143504 -0.30970892 0.11576683 -0.22852065 0.118059345 0.07320997 0.1430584 -0.1261599 0.30032352 -0.007261857 -0.27503675 -0.45809677 0.031218065 0.07534906 0.32520866 -0.078549124 -0.1605888 0.0865763 -0.1145619 0.049169227 -0.13089596 0.17018113 0.1965072 -0.18059762 -0.022520777 -0.31024736 -0.0180116 0.20743997 0.13762446 -0.0014141285 -0.08968869 0.03075066 0.14887355 -0.2045131 -0.12841314 0.09947793 0.18201877 -0.108664826 -0.10520737 -0.075190544 0.11655348 -0.000841395 0.1127991 -0.13902356 -0.058156323 -0.097095385 -0.13947046 0.094137214 0.20120905 -0.012871649 -0.036551833 -0.005693207 -0.056071978 -0.17931232 0.2728644 0.029627077 -0.07293854 0.29354313 -0.04990902 0.18379848 -0.2933935 -0.010815654 0.03624996 0.15448913 0.15930972 0.14505106 0.035929546 0.059858955 0.08809719 0.1388219 -0.026562503 -0.027660606 -0.24905942 -0.025202839 0.06579686 0.07975555 -0.012492321 -0.117084205 0.13047682 0.036598284 0.20368326 0.106757075 0.13960224 0.056940738 0.050075646 -0.13515316 0.29523644 0.044951577 0.212079 -0.12202289 0.017068366 -0.05463125
AC -0.18897834 0.18062074 0.07933606 0.106628485 0.049727626 -0.14027129 0.19310112 0.2632535 -0.27084097 -0.29407948 0.12766293 -0.23742011 0.10662967 0.07509962 0.15435289 -0.11438822 0.26808637 -0.01619346 -0.25565833 -0.46068996 0.037365034 0.09249912 0.3497215 -0.050987583 -0.14561972 0.082071945 -0.11024786 0.034824274 -0.1269258 0.12608914 0.20910293 -0.20048873 0.010882351 -0.28589347 -0.006304983 0.22138873 0.15601112 0.0071960473 -0.09653875 0.020963956 0.121149376 -0.18809396 -0.15788732 0.10005497 0.17576931 -0.11833903 -0.10129735 -0.052055053 0.10969917 0.0009656394 0.12070644 -0.14454313 -0.07240611 -0.08115317 -0.10830305 0.08079598 0.21122745 -0.035727985 -0.012025508 -0.03657786 -0.08868854 -0.18026334 0.31989992 0.022793425 -0.11505588 0.2923607 -0.068386294 0.18951222 -0.31247196 0.013819754 0.039776646 0.18536688 0.16301182 0.15470377 0.036462083 0.056543514 0.07127123 0.11648525 -0.054170553 -0.029971397 -0.25623652 -0.044389494 0.08404562 0.08402447 -0.017237876 -0.10704506 0.12157991 0.018789008 0.1841626 0.12691852 0.13275237 0.07511677 0.06443708 -0.119930044 0.32855836 0.06210684 0.22564563 -0.1055354 0.022115782 -0.060568947
BD -0.121065155 0.09223284 0.04774528 0.07976489 -0.003037636 -0.19772688 0.1217104 0.2719755 -0.21506396 -0.27862006 0.10265156 -0.2120154 0.07821774 0.10695415 0.089744925 -0.094744705 0.28826368 -0.13018417 -0.12071493 -0.4532086 0.07169712 0.10626309 0.2841859 -0.08124811 -0.059201114 0.03642442 -0.18004611 0.10287093 -0.12402542 0.112885326 0.17154643 -0.13517871 0.07264885 -0.32062942 -0.022063874 0.16507235 0.11412076 0.0014268453 -0.09554944 0.015324075 -0.009869093 -0.14160843 -0.15425074 0.063761756 0.1154772 -0.1699512 -0.11728158 -0.014443313 0.11481137 0.08963024 0.1139176 -0.05710439 -0.09643666 -0.01637445 -0.012566781 0.04737448 0.20931737 -0.012501913 -0.017300623 0.02310242 -0.14759098 -0.21150877 0.2829983 0.08499538 -0.16563298 0.30311725 -0.11067696 0.074946776 -0.2734301 0.07870989 0.08914401 0.24249159 0.13093397 0.04987285 0.12266503 0.011012655 0.114415154 0.06737906 -0.029420571 0.012493556 -0.2778513 -0.0142608145 0.044501554 0.16191258 -0.025167827 -0.07758394 0.090384044 0.05785018 0.25376612 0.22069523 0.19225886 0.08916889 0.08368226 -0.09371772 0.2834846 0.036760908 0.12675533 -0.07535074 -0.0003748969 -0.027098706
DB -0.07420558 0.090990975 0.05268085 0.053492542 -0.015844584 -0.19380133 0.102469556 0.27128696 -0.18326204 -0.27433264 0.12650976 -0.2291627 0.09902726 0.123746574 0.07714814 -0.07813579 0.29386008 -0.11367195 -0.08826636 -0.4507352 0.090413325 0.07927852 0.2954731 -0.093312114 -0.0799716 0.04996148 -0.18179502 0.07373326 -0.09054534 0.10787535 0.16118278 -0.13818549 0.1184707 -0.34494466 0.0024607875 0.15885419 0.12177621 -0.004751191 -0.12438836 0.00020984208 -0.0127867805 -0.15999256 -0.14860056 0.07308103 0.10051515 -0.19358614 -0.120937206 -0.04663625 0.09670998 0.088310644 0.09067768 -0.070702784 -0.09996161 -0.0045315768 0.005462712 0.05312364 0.20897485 -0.012012015 -0.018021116 0.0362752 -0.16576399 -0.23117281 0.25897887 0.11799229 -0.18753044 0.334558 -0.12464192 0.07566707 -0.26196665 0.10711237 0.10102513 0.23009637 0.14772338 0.09295027 0.15977183 0.01210507 0.118787035 0.060532868 -0.046617214 0.021732816 -0.3133008 -0.0061319466 0.056763507 0.17121692 -0.04751825 -0.055406112 0.11561378 0.06906003 0.24892314 0.23798342 0.23549888 0.06543907 0.07493563 -0.094635 0.23949422 0.047882766 0.14217885 -0.07832448 -0.02346513 -0.021297667
FB -0.046671882 0.11905779 0.13354395 0.07053099 -0.0808687 -0.24995998 0.099340245 0.31460857 -0.14174677 -0.27916226 0.07723508 -0.21308342 0.10887267 0.10688968 0.08222639 -0.07126073 0.2819795 -0.1559656 -0.03216568 -0.42361075 0.14221165 0.07895086 0.24068014 -0.13670585 -0.10455838 0.05618929 -0.20631132 0.088055275 -0.05121858 0.12008102 0.17459463 -0.13371164 0.10277142 -0.38340145 -0.006044781 0.11508969 0.12990585 -0.01678182 -0.15851095 -0.021814356 -0.041741367 -0.1392845 -0.06035677 0.08465502 0.11103962 -0.21355425 -0.10119159 -0.07384912 0.10436213 0.094458155 0.08362917 0.0027873865 -0.058745116 -0.01952295 0.007856143 0.088032365 0.18604654 0.056726992 -0.008240056 0.09168724 -0.12638235 -0.21004775 0.20553847 0.15108202 -0.13418986 0.30227482 -0.075018734 0.07868939 -0.19309409 0.13116047 0.056943156 0.1838943 0.14475086 0.058178805 0.20509274 0.02630282 0.117930815 0.07872359 -0.03593522 0.026228566 -0.28492072 -0.003023785 0.028276486 0.17476572 -0.041172735 -0.03703159 0.08662195 0.04766342 0.24098466 0.2280798 0.24982506 0.036847033 0.060945906 -0.120656885 0.19842884 0.016478434 0.050154544 -0.02950581 -0.0032515994 0.0066943024
BF -0.040104095 0.07005409 0.12205518 0.0514808 -0.090948656 -0.22101745 0.06391366 0.3058052 -0.09322139 -0.25481397 0.05112062 -0.21310765 0.082387984 0.1080763 0.045288693 -0.05697664 0.27594978 -0.15353541 0.012704262 -0.40510437 0.14771812 0.10284989 0.22212338 -0.10529105 -0.06865324 0.074498326 -0.22050303 0.08460085 -0.053171813 0.12324034 0.16537182 -0.1221071 0.12948075 -0.380468 -0.026016418 0.08266262 0.105886646 -0.028419742 -0.14664657 -0.030410696 -0.053936273 -0.11779727 -0.06460762 0.062155046 0.08787975 -0.232956 -0.10832371 -0.08373837 0.09654258 0.10579108 0.064171776 -0.007253191 -0.072041444 -0.007947987 0.028819798 0.07787224 0.1715555 0.03817388 -0.00048084118 0.109084256 -0.14132373 -0.21088825 0.22261871 0.17978868 -0.15227827 0.2985727 -0.08084611 0.057786476 -0.1867828 0.14363022 0.087607905 0.1899037 0.14258204 0.0193504 0.22789276 0.012387519 0.12727715 0.042436354 -0.052663703 0.033288077 -0.2868998 -0.026227383 0.022982301 0.21256767 -0.06535634 -0.027713077 0.098023616 0.05237635 0.21623531 0.23915337 0.25468698 0.04263194 0.087485805 -0.12893547 0.1756556 0.029568654 0.05231111 -0.007348963 0.006597031 0.042082954
BE -0.04723267 0.1155606 0.07369898 0.091273904 -0.097610936 -0.21306689 0.08426019 0.24415773 -0.1243729 -0.25472292 0.08500115 -0.20792158 0.098535284 0.12677225 0.060703084 -0.06669037 0.3237219 -0.11908634 -0.020490533 -0.40098637 0.14202529 0.09014147 0.2611447 -0.09953055 -0.05305137 0.068851545 -0.2289917 0.07634948 -0.050583035 0.1305672 0.22843918 -0.14262956 0.15896554 -0.4064645 -0.029556192 0.11137668 0.11155813 -0.0025982037 -0.13999325 -0.037898075 -0.030616717 -0.15989706 -0.051158767 0.07437895 0.11535796 -0.19740824 -0.14782327 -0.09717994 0.118524075 0.07316761 0.059418794 -0.017116513 -0.08597335 -0.014228872 -0.016985012 0.09557338 0.20557186 0.028809953 -0.029895773 0.114411555 -0.10452614 -0.20315912 0.22412835 0.18245846 -0.11917782 0.28276178 -0.086398385 0.101116195 -0.1833772 0.13963826 0.06768449 0.15301405 0.15854524 0.060710385 0.24063632 0.020630833 0.094546966 0.09439377 -0.033461127 0.009729796 -0.27949435 -0.075076304 0.03752468 0.18525796 -0.041165367 -0.04434335 0.12402499 0.03411795 0.2202226 0.20248097 0.25692675 0.04813479 0.05000525 -0.14146112 0.15744208 0.009389087 0.079990305 -0.031143548 -0.0020789325 0.02953823
EB -0.01247461 0.11891019 0.088886455 0.080597766 -0.07999242 -0.21802272 0.107660435 0.2721826 -0.10714801 -0.27295527 0.10405863 -0.23218997 0.09895143 0.12852055 0.04464309 -0.0576654 0.3256497 -0.12805179 -0.010610823 -0.3936377 0.15044142 0.087561175 0.24749361 -0.11441041 -0.07521995 0.06711844 -0.22028893 0.07266544 -0.040970966 0.10559959 0.20455968 -0.15002987 0.1432932 -0.41225454 -0.036267795 0.097887255 0.14285296 0.006481725 -0.14174834 -0.030323938 -0.032713674 -0.1481155 -0.052486204 0.07275458 0.110425115 -0.18281168 -0.14063132 -0.09205632 0.11175328 0.090326376 0.060015988 -0.0149568 -0.080158085 -0.028864956 -0.0021053827 0.08330291 0.20499651 0.033306856 -0.02410445 0.10395733 -0.13254485 -0.21823198 0.2183292 0.18331338 -0.13048546 0.307208 -0.10429306 0.08019261 -0.18732715 0.1372787 0.06857052 0.1528682 0.17456014 0.059883453 0.23185126 -0.0059072166 0.10537967 0.0842255 -0.03581838 0.011838051 -0.3007725 -0.05797076 0.03869982 0.16107719 -0.037599888 -0.048622917 0.12755512 0.03535416 0.21237405 0.19856639 0.25790802 0.03159509 0.061073367 -0.11434453 0.16807213 0.009903411 0.06029976 -0.01579359 -0.018754026 0.031305194
AE -0.073525764 0.16952804 0.12446157 0.13994981 -0.124440946 -0.25330505 0.094372086 0.3158266 -0.08673466 -0.24310578 0.08070059 -0.2400816 0.14666787 0.123420216 0.064913675 -0.06863954 0.30829495 -0.15795302 0.0102118645 -0.3694368 0.18653971 0.1115399 0.2347504 -0.11515551 -0.09403989 0.09888108 -0.2188628 0.09209224 -0.023510074 0.10812212 0.21114577 -0.1864289 0.16474304 -0.42421192 -0.03148526 0.13972922 0.1505553 -0.030779632 -0.21693705 -0.023085296 -0.025722135 -0.13042131 -0.040461317 0.10788217 0.14183994 -0.20836464 -0.15546438 -0.14559309 0.112735525 0.054199226 0.028695336 0.0221119 -0.07116242 -0.029885205 -0.0047255373 0.12451101 0.18467294 0.04943678 0.010665787 0.13033986 -0.097122416 -0.20356975 0.19640595 0.20409551 -0.09521759 0.2438892 -0.1002387 0.16056712 -0.13887247 0.16113473 0.054791108 0.12736328 0.18021677 0.05574187 0.24477108 0.019495685 0.094178796 0.08495128 -0.043852907 -0.005587283 -0.32164317 -0.08093542 0.037952606 0.18827927 -0.07278094 -0.023612745 0.11214184 0.009002586 0.20547178 0.1773319 0.23576927 0.03718175 0.040053677 -0.1474507 0.12806778 0.02209247 0.01779052 0.029601837 0.020315314 0.046284948
AF -0.086111486 0.13775937 0.14576925 0.0899059 -0.07829056 -0.25117007 0.09487325 0.3546568 -0.10461609 -0.2690764 0.06874425 -0.23722275 0.12524287 0.109255865 0.080246575 -0.048451956 0.28536165 -0.17556685 -0.023023268 -0.41795355 0.18803655 0.11750672 0.24746378 -0.1126118 -0.112565085 0.111689314 -0.19205241 0.06149705 -0.050192017 0.11492998 0.18376254 -0.16612001 0.11240204 -0.41842 -0.000780045 0.14525928 0.14804184 -0.030542372 -0.20960805 -0.025142513 -0.031494107 -0.123787075 -0.06789186 0.09884639 0.13385886 -0.2296071 -0.122994535 -0.11448276 0.113167495 0.08410749 0.056917667 0.0047483062 -0.08301234 -0.03134436 0.021993581 0.106391996 0.16784495 0.03952754 0.00076935947 0.0887679 -0.12420413 -0.20029105 0.21991085 0.18521278 -0.12342831 0.28689757 -0.10482475 0.11976353 -0.166207 0.13729116 0.080161795 0.17355369 0.14863048 0.0560104 0.2019899 -0.00054778374 0.12777272 0.061747584 -0.038491186 0.014302502 -0.3168664 -0.03492563 0.03423845 0.1777145 -0.07648971 -0.027297037 0.097946495 0.046626817 0.20286877 0.18903808 0.23978418 0.046980035 0.086743444 -0.11562666 0.17476882 0.040640295 0.021519192 0.00048757275 -0.009219976 0.03224086
FA -0.08276908 0.15583825 0.13845302 0.07208244 -0.079723746 -0.2755843 0.12248471 0.33838615 -0.13289587 -0.28657782 0.06568098 -0.22371495 0.15826592 0.09162272 0.109645985 -0.091129676 0.30400407 -0.18382743 -0.014684747 -0.41261864 0.17730021 0.09438428 0.23032701 -0.14664356 -0.10995176 0.07209304 -0.20021233 0.07658628 -0.05278588 0.1209753 0.17763813 -0.14083105 0.09001112 -0.40547118 -0.0013128321 0.15078634 0.11458881 -0.012597228 -0.17845291 -0.018049877 -0.034069628 -0.12468468 -0.037134912 0.09875443 0.12926613 -0.23771104 -0.11450663 -0.09929119 0.11281188 0.083169125 0.08301804 0.049655836 -0.06792193 -0.047292504 0.030912912 0.10949674 0.18445659 0.06969039 -0.0006149932 0.0930702 -0.1215053 -0.215083 0.19102313 0.17294641 -0.10614141 0.27929333 -0.092581324 0.09953218 -0.15934984 0.11718585 0.06920841 0.14782126 0.1525919 0.06942057 0.20730206 0.022825047 0.13583678 0.08347193 -0.033423208 0.037731074 -0.30598512 0.0019882433 0.032616112 0.18177594 -0.03590928 -0.025349703 0.108080015 0.066067375 0.23942123 0.19435528 0.2472613 0.044223547 0.07499209 -0.12632154 0.19080845 0.030615468 0.021344183 -0.010184078 0.011994813 -0.014142772
EC 0.07725586 0.079924874 0.08193286 0.14139338 -0.12689382 -0.19900611 0.0939152 0.22340572 -0.08554731 -0.26141313 0.07658872 -0.22217366 0.15772712 0.19938533 0.03629526 -0.049288027 0.36133134 -0.08859868 0.042208992 -0.32854408 0.17899263 0.057119858 0.19428995 -0.11729021 -0.05478966 0.055157404 -0.28235394 0.0655866 0.035036214 0.10621075 0.3321179 -0.15700407 0.16120993 -0.44206408 -0.05640798 0.056979697 0.1536716 0.017146833 -0.11222371 -0.09870202 -0.025176564 -0.20048754 0.054965552 0.058673277 0.09491129 -0.16932352 -0.18934155 -0.14582302 0.14572397 0.05349553 0.029904954 -0.039696705 -0.08843128 -0.017998876 -0.027430225 0.16699022 0.20758034 0.06545627 -0.024152499 0.1440301 -0.08656662 -0.16847415 0.2230683 0.26212162 -0.12885141 0.31447127 -0.08998333 0.09258792 -0.14284682 0.16962384 0.07733945 0.06411809 0.21488492 0.0725437 0.31857893 -0.026368318 0.05476164 0.13763802 -0.059165463 0.013984651 -0.29124525 -0.12899262 0.016159331 0.19272558 -0.009159232 -0.044532105 0.12696142 0.018446803 0.20756344 0.19832031 0.30994427 -0.022076355 0.027654463 -0.13172188 0.09650242 -0.010727136 0.060532704 -0.020953523 0.0009987488 0.04378989
EA -0.06465711 0.19248794 0.12077506 0.13516186 -0.10381011 -0.24231975 0.14519922 0.32064855 -0.107718214 -0.27138007 0.08990643 -0.2123384 0.18462682 0.09873494 0.10442247 -0.07575266 0.32919767 -0.18181266 -0.036059435 -0.367078 0.1810383 0.0998907 0.22416463 -0.115391575 -0.12282427 0.09505051 -0.19518195 0.06880132 -0.01940763 0.13034455 0.1927864 -0.18862073 0.1289313 -0.40496057 -0.029119486 0.16074972 0.13327926 -0.021896783 -0.20207979 -0.0199761 -0.034879055 -0.09824747 -0.01598387 0.13026197 0.13561408 -0.19918507 -0.13408406 -0.13109666 0.11159267 0.059571665 0.026580524 0.026084527 -0.110935815 -0.07468132 0.002482615 0.1359957 0.18096802 0.06422491 0.021912917 0.09656462 -0.100973815 -0.21511169 0.20457223 0.18431847 -0.10405282 0.26885247 -0.10556501 0.14374697 -0.16813803 0.119387716 0.058000233 0.12138356 0.17133702 0.06794598 0.19731873 0.008964843 0.10999412 0.11151791 -0.054659013 -0.0035612797 -0.32596713 -0.046947807 0.047804933 0.17619345 -0.03835221 -0.034890886 0.12142099 0.024905799 0.2072884 0.13080902 0.22321337 0.031238189 0.040758487 -0.10727052 0.14406247 -0.007958665 0.0023552547 0.010308149 0.024610939 0.023600783
DC -0.10421599 0.099670395 0.03899333 0.07404307 0.027170163 -0.1390666 0.1256067 0.23040223 -0.21769394 -0.2811503 0.12189043 -0.22494477 0.09567782 0.12349081 0.103306964 -0.106895864 0.27862456 -0.038269375 -0.17162205 -0.44620067 0.04776958 0.07681837 0.29697084 -0.05783509 -0.10428014 0.040937226 -0.1476159 0.049616877 -0.11471202 0.11425926 0.19798256 -0.15989229 0.054316923 -0.30839148 -0.01184681 0.17655675 0.1281253 0.011737743 -0.079649374 0.008101988 0.07266792 -0.20097373 -0.14641558 0.07066017 0.12960374 -0.15543233 -0.1201665 -0.055068135 0.11597773 0.049150046 0.12328604 -0.13795 -0.074343085 -0.025846172 -0.068125345 0.0809596 0.23052315 -0.024488833 -0.04190355 -0.0065115914 -0.117207065 -0.19173002 0.294868 0.06824343 -0.16011351 0.33270502 -0.09460887 0.104044065 -0.28701535 0.057764128 0.084888816 0.1931555 0.1536615 0.12054082 0.12091101 0.037900485 0.092042774 0.10576154 -0.054067574 0.0068888795 -0.28744823 -0.028411781 0.04852099 0.12761755 -0.026238983 -0.073342465 0.12308196 0.056566376 0.22351895 0.21458396 0.19618094 0.066768296 0.06171093 -0.107992776 0.2838165 0.050019495 0.2067905 -0.111772776 -0.019981472 -0.043593366
CE 0.048212804 0.100606985 0.09466253 0.161936 -0.13603392 -0.187138 0.072616324 0.20267345 -0.087285794 -0.24523064 0.09758633 -0.22760288 0.1678851 0.20087521 0.009251662 -0.06605369 0.38666695 -0.10685371 0.021555725 -0.34929913 0.16463973 0.064302646 0.21437065 -0.12276297 -0.03298041 0.07031355 -0.29474223 0.07790177 0.019077677 0.12568216 0.32082754 -0.15475513 0.18433672 -0.47111392 -0.053094372 0.059639197 0.13170145 -0.0077328184 -0.119433776 -0.09218333 -0.021852175 -0.20556815 0.024122274 0.038222097 0.09031287 -0.18659258 -0.19496596 -0.15630552 0.120181374 0.060199495 0.049774874 -0.026823495 -0.098433025 0.00072958646 -0.042368673 0.12903342 0.22088608 0.054481454 -0.05932246 0.14634441 -0.10031371 -0.18687804 0.19635753 0.2646091 -0.12177341 0.3013747 -0.090793855 0.091855206 -0.15228462 0.18041897 0.07843563 0.08895725 0.20715885 0.060726255 0.3064986 -0.042096082 0.060439106 0.12901658 -0.031170418 0.034820482 -0.31028634 -0.13203032 0.032034017 0.1941271 -0.03633111 -0.04293267 0.14307505 0.016586486 0.21675919 0.22493064 0.31697848 -0.016470255 0.02143008 -0.16058989 0.08150061 -0.0045797913 0.051733904 -0.011299219 -0.024730675 0.058761276
AD -0.15547232 0.16233905 0.0716105 0.12178701 0.01304081 -0.19542213 0.14878199 0.29582256 -0.20900472 -0.28357545 0.11580397 -0.23851842 0.12031517 0.10686643 0.12171479 -0.092869885 0.28034535 -0.11206107 -0.14463092 -0.43103477 0.09198192 0.11174684 0.29729602 -0.054819554 -0.09562308 0.08415559 -0.1596629 0.08538431 -0.102331005 0.10915398 0.16248323 -0.17184678 0.06005354 -0.3466037 0.004759031 0.20636299 0.14820737 -0.0147317825 -0.15008706 0.033259902 0.027516924 -0.14637093 -0.16537987 0.08846111 0.13764793 -0.16657239 -0.11490732 -0.055086806 0.103812456 0.04676537 0.10929614 -0.07808689 -0.107614346 -0.041636467 -0.029113706 0.079664886 0.19833718 -0.018934317 -0.003356205 0.007861632 -0.14392923 -0.21084332 0.2771511 0.09262922 -0.1361914 0.28958625 -0.117695294 0.14456952 -0.27226546 0.08307523 0.071759716 0.21359745 0.1471933 0.08901913 0.084660314 0.017951354 0.087931044 0.08295483 -0.038809936 -0.004696727 -0.3274446 -0.022407386 0.08100631 0.124752596 -0.04568931 -0.0679268 0.12483695 0.041351642 0.22895172 0.16718367 0.1773452 0.071973376 0.06020772 -0.0948085 0.269527 0.04140028 0.13260342 -0.06724282 -0.011260028 -0.013953613
FF 0.024056666 0.07037103 0.22260578 0.043532886 -0.206555 -0.32288602 0.011565865 0.35813093 -0.009987463 -0.26825178 0.000121492616 -0.2153814 0.15227762 0.12999201 0.05858145 -0.012132211 0.32010037 -0.26426256 0.1629199 -0.3908101 0.27671587 0.10932305 0.16241978 -0.207135 -0.09994922 0.10550057 -0.28458977 0.08912079 0.036412932 0.11937565 0.2163891 -0.098557934 0.14109631 -0.48477697 -0.011074578 0.028665941 0.13321847 -0.03601419 -0.23314448 -0.056249004 -0.09886032 -0.09967864 0.071221404 0.0482194 0.08503506 -0.31407025 -0.12773044 -0.13741 0.104861274 0.12537017 0.047777593 0.11799447 -0.045864984 0.019883553 0.07435559 0.14702705 0.16527861 0.14977826 0.014531322 0.19022734 -0.13625821 -0.20962873 0.14126004 0.30579585 -0.116235144 0.28886172 -0.07888859 -0.00028497382 -0.052468803 0.21979287 0.06451371 0.12334126 0.12987588 -0.010754152 0.3513187 -0.009427285 0.15562083 0.04517001 -0.047345772 0.08651866 -0.30028787 -0.02018509 -0.008183997 0.26357463 -0.08408441 0.031142114 0.0600979 0.0903705 0.22210605 0.28485632 0.33392704 -0.0049469383 0.06524792 -0.1579691 0.069762416 0.017409202 -0.059811313 0.056888048 0.004501534 0.0821989
FC -0.051996134 0.11035056 0.12981446 0.0653683 -0.090840235 -0.23059537 0.11190181 0.28008512 -0.13991995 -0.29006875 0.06800364 -0.21476337 0.12904845 0.11804623 0.08452713 -0.06704806 0.30871138 -0.107203364 -0.049278453 -0.41018373 0.13313942 0.08501699 0.23163617 -0.120107494 -0.11944081 0.063174866 -0.20212184 0.050069652 -0.037987217 0.11866362 0.24938664 -0.13298018 0.083724976 -0.38572222 -0.015870498 0.112974584 0.14642002 -0.019244703 -0.13255072 -0.028632605 0.011650806 -0.17353763 -0.013503814 0.06255699 0.1382121 -0.20391642 -0.11637452 -0.1073812 0.12844484 0.055235486 0.09404677 -0.014497696 -0.05559306 -0.029895969 -0.019826507 0.13668694 0.2110588 0.069414474 -0.0081592705 0.0964409 -0.09033437 -0.19198497 0.22625303 0.1740222 -0.11038767 0.3029223 -0.09114347 0.074393265 -0.18348128 0.1245648 0.05381539 0.123905994 0.1747389 0.083802365 0.22005694 0.026587173 0.107536264 0.104635514 -0.044958618 0.03540305 -0.267235 -0.03945814 0.018183485 0.18080084 -0.025685646 -0.044339404 0.09781437 0.05791409 0.23277007 0.21845861 0.25652713 0.020052157 0.05393653 -0.14400242 0.19075917 0.013306409 0.099668935 -0.04383208 0.015877638 -0.013917463
CF -0.04873778 0.12877694 0.1348166 0.07878725 -0.072215356 -0.21570162 0.0916228 0.3039678 -0.13341498 -0.27593973 0.063765466 -0.22145286 0.121514805 0.115777045 0.06724031 -0.062941305 0.3154345 -0.117681436 -0.05704019 -0.4310135 0.14283147 0.08988493 0.2392432 -0.13282204 -0.10818042 0.089066856 -0.21877494 0.05619684 -0.05271074 0.14107364 0.20476732 -0.14459774 0.08254965 -0.40884495 -0.018192539 0.12859748 0.13589427 -0.0167532 -0.14835998 -0.03493733 0.0064806 -0.16222493 -0.04779097 0.0639781 0.1112407 -0.21822698 -0.1162248 -0.11372877 0.10512621 0.06948693 0.07243151 -0.035181202 -0.07993537 -0.02827979 -0.01177022 0.09791003 0.18187709 0.037082132 -0.03214684 0.08578153 -0.11117533 -0.20661758 0.22342339 0.17312787 -0.10867311 0.30934903 -0.06581677 0.07800289 -0.20020604 0.10569744 0.058069717 0.14088595 0.14697218 0.06365774 0.20120978 0.0063655637 0.09913943 0.088617526 -0.038661625 0.031813275 -0.27944317 -0.021059847 0.037193988 0.17678733 -0.054051135 -0.04403664 0.11805333 0.0655668 0.20920607 0.20563464 0.23461542 0.026268492 0.080310956 -0.14284775 0.18006994 0.024667038 0.063719176 -0.020802874 -0.014068794 0.030253083
DA -0.15280734 0.14313921 0.053867288 0.08988501 0.0134218475 -0.1936648 0.15114993 0.2952962 -0.21862903 -0.27183095 0.10698262 -0.2103421 0.1382987 0.08845286 0.11648551 -0.11207945 0.29555494 -0.13315132 -0.14145438 -0.45116323 0.10149276 0.09123437 0.30395982 -0.09079005 -0.12063858 0.04909425 -0.14868356 0.08033626 -0.1068655 0.13431273 0.14991526 -0.15371881 0.07013735 -0.31972292 -0.0026556307 0.21285643 0.1019315 -0.0110319955 -0.13997555 0.026679983 0.027462507 -0.14407325 -0.13629647 0.09780725 0.13835488 -0.18723594 -0.10051856 -0.06356574 0.11260014 0.05824306 0.10183298 -0.053071156 -0.099350505 -0.045279797 -0.025548503 0.07986252 0.20824496 -0.0013614307 -0.01580725 -0.0011252649 -0.12804542 -0.2290065 0.26646423 0.0868425 -0.16132809 0.30745462 -0.10426762 0.12743892 -0.28288335 0.074153006 0.08787159 0.19869666 0.14833374 0.10169991 0.10601534 0.013260098 0.12928826 0.09357228 -0.05666752 0.019711884 -0.32172823 0.010001528 0.05396945 0.16697499 -0.032614715 -0.06796116 0.11853565 0.0832984 0.24742565 0.18833365 0.20576626 0.072090946 0.06879827 -0.11226258 0.26286203 0.038656753 0.13356806 -0.07523215 0.008511818 -0.036812734
CD -0.09080876 0.10211139 0.044178035 0.10062385 0.025961198 -0.15255907 0.13868034 0.2112621 -0.22112994 -0.27769628 0.12568884 -0.23732324 0.09415012 0.14712617 0.073301114 -0.11110383 0.32308227 -0.0796111 -0.16229041 -0.44134453 0.05028153 0.09527515 0.3034834 -0.07215553 -0.074056864 0.036065117 -0.19670284 0.076459244 -0.11565946 0.12183069 0.2196291 -0.15053457 0.056240298 -0.3500695 -0.02528123 0.15452895 0.12137325 0.012899707 -0.06556963 -0.005451352 0.027786026 -0.20085008 -0.14948335 0.043581598 0.11285872 -0.13724615 -0.14202711 -0.044961397 0.11949221 0.064299576 0.11747964 -0.1254019 -0.09084754 -0.027723245 -0.05072688 0.07252603 0.24594638 -0.013625087 -0.04677359 0.030057829 -0.14442205 -0.22658937 0.2858676 0.090041876 -0.15815325 0.31915268 -0.12053029 0.086538814 -0.29088125 0.07333049 0.08334761 0.20729028 0.16290277 0.08391355 0.116152585 -0.012445149 0.07678543 0.09187158 -0.034152254 0.003667391 -0.29257095 -0.036946725 0.059921 0.13590832 -0.009112726 -0.095649675 0.115545385 0.046908177 0.25813693 0.21403942 0.20965074 0.061902042 0.060560666 -0.124662295 0.25877774 0.049079984 0.18275622 -0.102675766 -0.03537156 -0.028390197
EE 0.10030154 0.09697977 0.12209275 0.15006725 -0.22856581 -0.27269864 0.043603987 0.26941523 0.03415614 -0.22278857 0.05646068 -0.21326405 0.19930908 0.19052108 -0.0037560435 -0.009711301 0.3840343 -0.2388696 0.18223466 -0.30870253 0.2838653 0.09726629 0.1586468 -0.14470619 -0.034464944 0.07799662 -0.3185655 0.09568983 0.076596566 0.10708492 0.28848946 -0.1406361 0.26032838 -0.52300143 -0.053759087 0.036377963 0.13840699 -0.025616406 -0.22585851 -0.09871869 -0.14155874 -0.115579195 0.1015787 0.0633935 0.09050282 -0.24368265 -0.20076317 -0.187274 0.120093495 0.10734099 -0.024981262 0.1015875 -0.10526695 0.00053563266 0.056952044 0.15917107 0.17710616 0.12177909 -0.0065211914 0.23626333 -0.10944117 -0.21698953 0.14231582 0.3508096 -0.13045059 0.2528531 -0.13488841 0.059940156 -0.0322034 0.25151458 0.08072378 0.053571027 0.19481613 0.012822421 0.3931248 -0.05648847 0.08779898 0.08685289 -0.05746284 0.044784136 -0.3275561 -0.12558779 -0.006870927 0.25941518 -0.07421741 0.016009888 0.11850825 0.020719869 0.21904981 0.22190405 0.3375704 -0.013179114 0.017326117 -0.14675987 -0.010014694 -0.036981095 -0.0940861 0.057149682 0.0067018494 0.10351167
DD -0.11698464 0.08765146 0.040442962 0.09072016 0.011576667 -0.20841064 0.10772842 0.2835061 -0.20538355 -0.2645626 0.11395931 -0.21698804 0.13843083 0.13747291 0.10008398 -0.103445105 0.30454823 -0.19489703 -0.10087196 -0.45302054 0.10661573 0.109485395 0.27348804 -0.078356355 -0.06336811 0.045048863 -0.18552813 0.11475114 -0.088976964 0.09863844 0.13620332 -0.12926674 0.08856496 -0.34022516 0.020369953 0.17601022 0.10788368 -0.027132826 -0.12851965 0.027336448 -0.05425554 -0.13946691 -0.1369659 0.07892136 0.10622333 -0.19750002 -0.1401394 -0.020140007 0.10448667 0.08234708 0.10218048 -0.03548476 -0.12689474 -0.0021442687 0.023571663 0.05791178 0.22730242 0.01268376 0.0125049045 0.026008567 -0.17848748 -0.2513912 0.27253821 0.13344708 -0.20137602 0.3071873 -0.15025845 0.08074313 -0.277922 0.11844575 0.11204832 0.24600676 0.12380586 0.054749515 0.12181647 -0.02641058 0.12635846 0.06651743 -0.05180854 0.033478606 -0.35654426 0.0056233946 0.045365863 0.19502535 -0.040925413 -0.028814318 0.09772055 0.09200481 0.28381065 0.24496286 0.22380108 0.08647451 0.0748878 -0.07062653 0.248516 0.047885753 0.11405901 -0.08091281 -0.024904734 -0.01949698
EF 0.055969685 0.0987786 0.13502859 0.11668841 -0.19271941 -0.2825024 0.05284762 0.3097462 0.008130047 -0.23502228 0.048336003 -0.2195898 0.1762594 0.14591661 0.024817329 -0.03523979 0.3390974 -0.24206632 0.15645814 -0.3338729 0.2663732 0.089469835 0.15360563 -0.15016629 -0.058934476 0.08230799 -0.28993163 0.08566957 0.03673 0.087343335 0.24234349 -0.13345507 0.21498078 -0.48683694 -0.031246705 0.04096397 0.13736092 -0.016796151 -0.22124958 -0.067292616 -0.13284639 -0.1138774 0.061053082 0.07386095 0.07264198 -0.2690169 -0.15046702 -0.14972039 0.11246033 0.11010664 0.002253894 0.09041551 -0.094033144 0.0073985993 0.06305736 0.14702617 0.17749444 0.09858867 -0.0038089459 0.19502097 -0.12088749 -0.21749637 0.1685095 0.3116257 -0.14253046 0.27814582 -0.12781498 0.060403448 -0.073854044 0.21050394 0.08525868 0.09710588 0.1805186 0.008750626 0.35800254 -0.03337835 0.105020575 0.07817539 -0.05149159 0.043466043 -0.33368814 -0.07792738 -0.0007784528 0.25117886 -0.07264494 0.0076444033 0.11011159 0.048024584 0.23058985 0.22774413 0.32105073 -0.0027790111 0.054268382 -0.12346623 0.057817295 -0.008212491 -0.080162846 0.05229415 -0.013409586 0.06997394
FE 0.038334563 0.08357758 0.14970331 0.09810803 -0.19958946 -0.3116741 0.030090304 0.29803938 0.0022894838 -0.25238025 0.059734605 -0.22307992 0.16982763 0.16039237 0.026648462 -0.036842883 0.34773904 -0.24861474 0.16350095 -0.3572751 0.25498042 0.11056289 0.18582937 -0.17754404 -0.03945155 0.07837162 -0.3038554 0.11219481 0.026393581 0.11224688 0.23835003 -0.12023908 0.2246128 -0.5035075 -0.03428569 0.067422055 0.12697178 -0.033422068 -0.22081876 -0.07572191 -0.12872976 -0.12773189 0.049961492 0.06742311 0.10212827 -0.27537137 -0.17329672 -0.14187315 0.11857884 0.10945883 0.035287496 0.11536162 -0.07151325 0.0083261095 0.06458262 0.14275639 0.18200602 0.12118442 -0.0004821233 0.20558944 -0.13005722 -0.2270042 0.15729818 0.3099162 -0.1231208 0.2753508 -0.12898892 0.046612345 -0.07639399 0.24171522 0.07548174 0.1271964 0.17198513 0.012044127 0.3733816 -0.021742782 0.117062524 0.05996134 -0.035139535 0.06444089 -0.32834896 -0.07521837 -0.0029485957 0.2509658 -0.072136655 0.017252496 0.09542019 0.044256795 0.25624207 0.2766625 0.34710795 0.011902192 0.03652281 -0.15259545 0.06408357 -0.016957153 -0.07042407 0.056328256 -0.0059597427 0.055371482
DE -0.019098476 0.07469258 0.07566497 0.083551645 -0.0981105 -0.23420644 0.057426292 0.28297105 -0.081576794 -0.25522524 0.09875758 -0.2127254 0.11841441 0.14153302 0.048209 -0.051200587 0.30708653 -0.1837254 0.03465636 -0.4122466 0.16311832 0.09723203 0.24253547 -0.12360009 -0.05190358 0.05928958 -0.23189041 0.099022925 -0.033357643 0.11610012 0.19273162 -0.14277716 0.18697563 -0.41904256 -0.013000834 0.105730265 0.10502357 -0.028265387 -0.16415218 -0.032943945 -0.061608464 -0.15292351 -0.0663846 0.06306613 0.10952462 -0.24022746 -0.1429354 -0.09850162 0.10835704 0.10705317 0.051884733 0.0019997717 -0.08538539 0.015901953 0.042420156 0.08858686 0.20406878 0.047027305 -0.017489938 0.12261151 -0.15157512 -0.22602506 0.21761996 0.21271116 -0.16890617 0.30072156 -0.11361371 0.082511365 -0.18630324 0.17897937 0.09735933 0.17261343 0.1702505 0.03847307 0.25350168 -0.014240323 0.11260779 0.061578196 -0.051017877 0.030205902 -0.31924844 -0.05423316 0.020934945 0.22359125 -0.049277704 -0.012996462 0.11003602 0.057661418 0.24551776 0.26159462 0.2747605 0.044237267 0.06145417 -0.12644008 0.14842328 0.025102653 0.052089572 -0.009173836 -0.00031159952 0.026021091
ED 0.02789538 0.09034225 0.08316075 0.1199066 -0.13493288 -0.261532 0.0857005 0.2860093 -0.07410019 -0.2657828 0.08191285 -0.21366481 0.1363094 0.17679615 0.030547058 -0.052073307 0.3487838 -0.2128985 0.073663056 -0.3642603 0.1907622 0.103066854 0.21124935 -0.12436551 -0.032299332 0.05086334 -0.27294856 0.096751645 -0.013671817 0.10790972 0.2404645 -0.15003458 0.19231974 -0.46914187 -0.03823738 0.09192804 0.12009264 -0.0023480384 -0.16424951 -0.060998943 -0.12369603 -0.13359703 -0.020245863 0.06669066 0.09573185 -0.22663476 -0.16935654 -0.104622 0.11780207 0.11185779 0.037077848 0.044267472 -0.11601649 -0.011097984 0.05325784 0.12291972 0.20068459 0.060455583 -0.0115242805 0.14543517 -0.16182807 -0.24102087 0.20371766 0.26170018 -0.1607526 0.30443507 -0.14545739 0.054174896 -0.1497826 0.19560426 0.10035887 0.15150136 0.17132062 0.022306265 0.3060191 -0.04379087 0.0958145 0.06885593 -0.036898542 0.028905975 -0.32811195 -0.07811665 0.028370855 0.21397732 -0.03361409 -0.020165723 0.11745822 0.03515037 0.26412037 0.24754475 0.29523808 0.009715334 0.05610191 -0.119848 0.10408899 -0.00032616954 -0.012610035 0.0009554115 -0.008759775 0.0411768
DF -0.03982606 0.07575259 0.08375122 0.06636864 -0.09110898 -0.24560359 0.057051186 0.31287986 -0.09185198 -0.26168683 0.079779625 -0.22878371 0.13476083 0.14360471 0.057503536 -0.064358294 0.3028309 -0.18610868 0.022445459 -0.4165367 0.18305127 0.107391514 0.22853222 -0.11471831 -0.070886366 0.056507904 -0.22389688 0.076829836 -0.04496366 0.10601278 0.16944456 -0.12801787 0.16106291 -0.41400263 -0.017495448 0.12386594 0.10637934 -0.030466866 -0.17277116 -0.02522889 -0.059218656 -0.13002864 -0.059752844 0.055068616 0.09792103 -0.23988025 -0.13033803 -0.09207294 0.10799592 0.10636866 0.054842204 -0.0010150236 -0.09437324 0.0053871623 0.059118915 0.09057329 0.20307408 0.043780737 0.003519008 0.088444844 -0.15784793 -0.23604833 0.22827978 0.20630868 -0.18397552 0.3245621 -0.12898988 0.06160747 -0.19783035 0.16636966 0.11384434 0.18739438 0.15961842 0.039967775 0.25128335 -0.0031159322 0.1285859 0.0502052 -0.06340775 0.055660907 -0.33765256 -0.02144344 0.024744952 0.23342384 -0.050053902 -0.015940813 0.11140117 0.08459936 0.25494283 0.2662177 0.27834952 0.043961827 0.08009908 -0.11641627 0.16313076 0.040116012 0.0310568 -0.018313011 -0.01740267 0.03497574
FD -0.04089701 0.09118312 0.101020515 0.0821703 -0.08724376 -0.24865577 0.08859993 0.2885012 -0.12635855 -0.2778783 0.08918102 -0.21300541 0.11849965 0.14068665 0.06626284 -0.070253626 0.30742 -0.17505904 -0.001098594 -0.40923968 0.16145645 0.11092131 0.2511295 -0.12774298 -0.065960355 0.052217007 -0.22484085 0.10314179 -0.061336685 0.1096865 0.20608102 -0.13267174 0.13286068 -0.41746226 -0.0064080865 0.11887393 0.11800871 -0.0186699 -0.16446903 -0.02894118 -0.07120086 -0.13782914 -0.07466347 0.06350327 0.11190305 -0.21852754 -0.13661039 -0.07983637 0.12818587 0.099933594 0.086582795 0.01140281 -0.10132264 -0.017916184 0.038237378 0.09926425 0.20438182 0.05099108 -0.015545355 0.08939408 -0.15755942 -0.21899116 0.22746038 0.18036167 -0.1606804 0.3138221 -0.12826307 0.05903618 -0.19891271 0.15167016 0.08500719 0.18886921 0.16082902 0.04554619 0.22322896 -0.0058734673 0.122528516 0.055805076 -0.048165154 0.03928973 -0.32753116 -0.031408943 0.018237164 0.20554812 -0.048085712 -0.041164692 0.1009947 0.058229174 0.26160854 0.2517592 0.26551816 0.05033441 0.06902256 -0.11581234 0.17881633 0.023271004 0.0537983 -0.01682874 -0.016670153 -0.00069157575
GB -0.097997636 0.18233873 0.034313776 0.057985324 -0.075488456 -0.2855907 0.1397056 0.3438017 -0.124187745 -0.30421615 0.134171 -0.30079734 0.12897487 0.13995047 0.08091157 -0.105275616 0.3817689 -0.16559921 0.0036028612 -0.464276 0.16356672 0.10137346 0.3181199 -0.15148869 -0.07016971 0.07495435 -0.25254032 0.083722375 -0.12010086 0.07008357 0.22060724 -0.1805622 0.19538818 -0.5157712 -0.037763253 0.20547853 0.16163817 0.02132608 -0.23616485 -0.03221328 -0.09844333 -0.10971031 -0.11551878 0.06365317 0.14180227 -0.29605007 -0.13353784 -0.09870532 0.14503439 0.14461811 0.09085133 0.006449124 -0.118862785 -0.020679751 0.050074466 0.0803557 0.2465126 0.022331472 -0.026014956 0.06282218 -0.1695702 -0.28682366 0.2616109 0.21779557 -0.16769467 0.36914206 -0.20186752 0.13239938 -0.25658566 0.1887495 0.14215595 0.25003138 0.2377264 0.1210265 0.29641905 -0.01033007 0.13603358 0.06871799 -0.04340341 0.0032749956 -0.43847063 -0.04962219 0.016827067 0.20468493 -0.04420629 -0.090403594 0.17630368 0.07591851 0.2707079 0.25279805 0.29289332 0.06971562 0.0830165 -0.12753257 0.27170327 0.07113285 0.057163466 -0.0013203949 -0.049258765 -0.03572177
BG -0.12916505 0.15416196 0.04797577 0.047250137 -0.04354211 -0.28456947 0.14479427 0.35714945 -0.15970078 -0.33299324 0.12349354 -0.3122689 0.12749349 0.16204058 0.08460003 -0.122268 0.3871755 -0.13428503 -0.031810947 -0.5103453 0.14400184 0.11907994 0.37503377 -0.163849 -0.042568684 0.06465575 -0.25085393 0.08615434 -0.14844358 0.10474913 0.2358192 -0.16925152 0.21047312 -0.5283209 -0.055766266 0.22955824 0.13246787 -0.0064146793 -0.24391133 -0.036469664 -0.068017624 -0.13713846 -0.1458495 0.08530954 0.1409997 -0.29532427 -0.12440422 -0.12835793 0.13514549 0.13020289 0.12436827 -0.040776823 -0.1178164 -0.019782992 0.0013207508 0.07806393 0.25991133 0.019637447 -0.06517135 0.053418934 -0.14460886 -0.2980348 0.31771812 0.21304524 -0.20413688 0.39476693 -0.19839689 0.11100489 -0.31199446 0.19393958 0.13110586 0.2641692 0.2462113 0.11144521 0.2728024 -0.005857968 0.1373655 0.08559578 -0.07974812 0.02402458 -0.41759732 -0.04408973 0.010527857 0.1939218 -0.048590444 -0.08029096 0.20618215 0.074492134 0.2687066 0.25273493 0.30602288 0.078467466 0.05923893 -0.14106756 0.28933722 0.08000273 0.09009364 -0.04705337 -0.051614184 -0.04055038
AG -0.14193472 0.17013378 0.062492494 0.081103384 -0.05015734 -0.28506458 0.14419545 0.36661533 -0.15589878 -0.34145567 0.1277833 -0.32419145 0.14465927 0.17628138 0.0847714 -0.13190429 0.38695684 -0.1411458 -0.03185833 -0.5086749 0.17950471 0.1116338 0.37386897 -0.15344429 -0.05998391 0.06519211 -0.2417715 0.080990925 -0.116208315 0.1165326 0.2528604 -0.17705444 0.20311143 -0.5338236 -0.03426183 0.23459437 0.15314478 0.004437019 -0.23930915 -0.037045226 -0.04818845 -0.1519899 -0.12552421 0.07733799 0.1404391 -0.28741398 -0.13813037 -0.13933952 0.14921921 0.11311012 0.12869707 -0.03248273 -0.11116458 -0.031959567 0.00086909754 0.102955766 0.27031466 0.031841546 -0.06082843 0.07199224 -0.1512806 -0.2982683 0.32049674 0.21409841 -0.19598092 0.37648 -0.18382913 0.13261473 -0.3034476 0.20168303 0.1335044 0.23390946 0.24327606 0.12735423 0.26165462 -0.010767005 0.14598645 0.097471215 -0.067188695 0.021283181 -0.4326334 -0.05699607 0.03769148 0.18868369 -0.053587094 -0.08025618 0.20361878 0.06602465 0.28296116 0.26009062 0.30744871 0.06347637 0.04798192 -0.14325905 0.2635675 0.0801947 0.07941856 -0.055708043 -0.04459587 -0.018679008
GC -0.12438063 0.18137912 0.026919974 0.05814969 -0.050112437 -0.26760793 0.13731392 0.31809443 -0.17443624 -0.33007145 0.1443201 -0.3100044 0.13036197 0.14884023 0.10503034 -0.13409534 0.40899342 -0.15720466 -0.042273447 -0.47909975 0.14942455 0.11952968 0.36174038 -0.14258142 -0.083683 0.08065978 -0.2579943 0.0764774 -0.122468434 0.083805576 0.2540388 -0.19755816 0.16076227 -0.4992279 -0.034987543 0.2213922 0.15482804 0.017246332 -0.21369691 -0.033408325 -0.054476403 -0.14699972 -0.12378478 0.07107932 0.14570773 -0.2685347 -0.13870034 -0.11404511 0.1423036 0.117116526 0.107630886 -0.03085859 -0.107708454 -0.012847895 0.017748967 0.09460422 0.267131 0.0064512817 -0.04880144 0.041075096 -0.1528818 -0.27890593 0.29366544 0.21154818 -0.16850448 0.38718516 -0.20099202 0.13061507 -0.28839174 0.17607877 0.13406982 0.23778687 0.25176638 0.13230132 0.2597047 -0.0024910222 0.119489856 0.098924726 -0.061793167 -0.009807608 -0.43425053 -0.057459075 0.01983421 0.1997786 -0.03360095 -0.08994893 0.18268716 0.07822739 0.26912692 0.24451132 0.2941166 0.06827795 0.06738754 -0.14620335 0.29025227 0.07628789 0.092120536 -0.03314763 -0.045447264 -0.053418055
GA -0.15218762 0.19054464 0.03322355 0.05509686 -0.036976475 -0.29512653 0.15190975 0.34516683 -0.17078562 -0.34539083 0.1354086 -0.30906895 0.1353787 0.13876714 0.11661641 -0.14540859 0.39839852 -0.1664681 -0.051110964 -0.50045246 0.14987604 0.1204104 0.37274596 -0.16083269 -0.07439379 0.085584804 -0.24374557 0.09535343 -0.15460555 0.09256122 0.25863117 -0.19931522 0.14695735 -0.51739436 -0.035205733 0.23511884 0.15545848 0.021056868 -0.22237495 -0.021002421 -0.054203782 -0.13302548 -0.15380985 0.0648009 0.15283942 -0.2947541 -0.14611726 -0.10760331 0.15211336 0.12561 0.12641026 -0.035249487 -0.11730895 -0.028455308 0.024370054 0.1083353 0.2690943 0.012456352 -0.0504721 0.0336284 -0.17113492 -0.29239717 0.3025958 0.19566883 -0.17336923 0.40304324 -0.2185743 0.1474136 -0.29709846 0.17090593 0.13539645 0.2720813 0.26359126 0.14116044 0.25674132 -0.016909203 0.13078715 0.08917973 -0.052332334 -0.0037692161 -0.4634321 -0.033085637 0.0144137135 0.21483298 -0.034027506 -0.10875393 0.19652857 0.093599126 0.27882084 0.23945835 0.30856723 0.08110733 0.09032378 -0.14958972 0.31236225 0.09071455 0.09681781 -0.040202834 -0.057150546 -0.06964358
CG -0.11512869 0.17413269 0.057062976 0.05861356 -0.050492696 -0.30343583 0.13412616 0.36365372 -0.15031183 -0.35450765 0.12734298 -0.3312075 0.16949277 0.19767037 0.08738852 -0.130884 0.42887852 -0.16192591 -0.017479585 -0.5332284 0.17895326 0.11854706 0.3626861 -0.17976025 -0.050281346 0.059791736 -0.2724295 0.09186014 -0.123464465 0.10362153 0.27645883 -0.17303054 0.20461544 -0.57129973 -0.053066332 0.23159164 0.15236712 0.0039568017 -0.24977541 -0.05407464 -0.06926403 -0.15877673 -0.11114962 0.063636065 0.12810087 -0.30966815 -0.14950359 -0.14457455 0.147563 0.133185 0.12952353 -0.029115766 -0.1285899 -0.015013352 0.008745762 0.10093811 0.2965921 0.03316465 -0.07211845 0.08642701 -0.15200502 -0.3129302 0.3217137 0.24290359 -0.20672548 0.3986469 -0.20783769 0.09903251 -0.3046788 0.22042283 0.14888477 0.23946935 0.25579968 0.13052382 0.3050445 -0.03236098 0.14690754 0.095964186 -0.07873113 0.021971505 -0.43802777 -0.044116512 0.009443573 0.20954253 -0.047320608 -0.07509168 0.19508478 0.09322398 0.2906493 0.28591263 0.34941754 0.06515007 0.05922245 -0.15593883 0.2538998 0.07394378 0.07710498 -0.05616945 -0.040980436 -0.0337101
GE -0.09796435 0.17852953 0.03512223 0.07049317 -0.08037937 -0.32188338 0.13848184 0.36104125 -0.12057992 -0.32846397 0.14872971 -0.30997157 0.1537661 0.15628374 0.08251352 -0.12226668 0.43742 -0.20116548 0.016149897 -0.49310958 0.18973055 0.119696476 0.35486433 -0.1806297 -0.06426899 0.073943876 -0.28195176 0.09599658 -0.108491 0.08255448 0.27922672 -0.20375885 0.21653147 -0.5624213 -0.031134045 0.20795947 0.15380618 -0.0006062476 -0.24661018 -0.052064743 -0.09344467 -0.13629106 -0.103084385 0.06728953 0.14826593 -0.31570402 -0.1751342 -0.12338732 0.15122354 0.14866292 0.09577446 0.013418118 -0.12481339 -0.0035726214 0.0373644 0.12324743 0.28192583 0.035566084 -0.035302404 0.09316917 -0.16986413 -0.3099811 0.2931221 0.26228696 -0.18181215 0.4051696 -0.2334392 0.13350953 -0.2719898 0.21397541 0.13871399 0.25118437 0.2616277 0.11663684 0.3305324 -0.033840034 0.14063875 0.08022364 -0.06536292 -0.0010295837 -0.48077154 -0.052589092 0.004491082 0.24624802 -0.056208298 -0.07842232 0.19666786 0.07273017 0.29067555 0.26490414 0.32803726 0.06293383 0.068384334 -0.14764044 0.25888306 0.06080753 0.043803487 -0.011908134 -0.0530833 -0.04068517
DG -0.12572964 0.15220508 0.04074165 0.05863794 -0.048309434 -0.31078306 0.12998027 0.38048816 -0.14745489 -0.34789777 0.13837524 -0.32466158 0.1589232 0.18181054 0.08875723 -0.11248552 0.40166843 -0.17496634 -0.0066285366 -0.5336192 0.17207879 0.11533251 0.3648462 -0.1685201 -0.06119785 0.051311076 -0.26278165 0.095621176 -0.11458567 0.09507969 0.24145746 -0.17106675 0.22293897 -0.5425757 -0.034067497 0.22553045 0.1462656 -0.010506831 -0.2561829 -0.03216213 -0.07539843 -0.1434255 -0.14650932 0.08555728 0.13902396 -0.31653595 -0.14870922 -0.11981249 0.13787977 0.13232787 0.12476643 -0.020614637 -0.124368936 -0.0066140196 0.037501153 0.10379565 0.28777772 0.020651916 -0.041288186 0.07471572 -0.17856613 -0.318122 0.3295448 0.23933242 -0.22858776 0.4028931 -0.20497763 0.11436087 -0.29405814 0.19886424 0.15554594 0.24543333 0.24995223 0.12658925 0.28047624 -0.028681109 0.15793249 0.07264652 -0.087570995 0.025886072 -0.4607564 -0.030929955 0.032554593 0.22629158 -0.04444009 -0.05614724 0.20056623 0.09723587 0.30843 0.29336655 0.3367427 0.08280541 0.056722205 -0.12995987 0.28318134 0.08300417 0.0689186 -0.047626007 -0.04263332 -0.028308155
GD -0.12685753 0.17314401 0.050777424 0.08857693 -0.060399465 -0.29964417 0.1511928 0.3606019 -0.1654048 -0.35671768 0.143026 -0.31523877 0.15011777 0.15531315 0.090866156 -0.122610696 0.42481035 -0.19219378 -0.021564335 -0.5204319 0.15868379 0.1376695 0.35608855 -0.1614761 -0.061551392 0.07522911 -0.28561452 0.10144955 -0.13401765 0.08745643 0.25441593 -0.19231941 0.17366065 -0.53936714 -0.041377578 0.22607562 0.15943635 0.0033502507 -0.21983996 -0.043181185 -0.07612771 -0.15278536 -0.1472691 0.061720505 0.15463173 -0.30486223 -0.15537226 -0.117379196 0.15655051 0.13727333 0.108409695 -0.028406313 -0.13814496 -0.017281348 0.029964443 0.10254992 0.27794853 0.009949011 -0.03354651 0.06480746 -0.17842315 -0.30432644 0.32544625 0.22510257 -0.20717119 0.4134062 -0.22645797 0.13326952 -0.29079303 0.19318503 0.15398127 0.2794695 0.25697586 0.12338597 0.2970453 -0.019740488 0.12909736 0.074552536 -0.062492326 0.0053970874 -0.4546479 -0.058504973 0.021372408 0.23851237 -0.04725032 -0.098559186 0.1890932 0.07821952 0.2988208 0.27320898 0.3227562 0.08290885 0.08482835 -0.13227344 0.30565012 0.080408804 0.078580596 -0.026738888 -0.060055695 -0.04487224
EG -0.08311457 0.16811906 0.05350596 0.067889564 -0.0595035 -0.2971978 0.13295735 0.36545092 -0.13970077 -0.33410987 0.12403929 -0.30049393 0.16443391 0.18761602 0.090260506 -0.12148993 0.4140288 -0.16743746 -0.0028537284 -0.49752298 0.1856932 0.11813128 0.35865542 -0.1563164 -0.061014242 0.052434415 -0.27657467 0.10235161 -0.11053835 0.11115401 0.2716709 -0.18725058 0.21882904 -0.5440202 -0.04425439 0.21785747 0.15434529 0.0023566883 -0.24486469 -0.03660256 -0.084237024 -0.14502095 -0.10162432 0.07912768 0.12435726 -0.2820412 -0.15506487 -0.1280699 0.14276455 0.12206614 0.108269244 -0.033246513 -0.1335824 -0.032153685 0.02421228 0.109131426 0.27497315 0.041802194 -0.053475853 0.081653394 -0.15686774 -0.30965573 0.31229687 0.25089812 -0.20269422 0.40388682 -0.18633448 0.10812115 -0.29314604 0.21407837 0.13716866 0.23222262 0.24962462 0.10639939 0.30307627 -0.025158502 0.14427257 0.09004436 -0.075995795 0.024675673 -0.4408407 -0.057515997 0.013877049 0.22044908 -0.043695606 -0.069874234 0.19493213 0.0761458 0.29366487 0.27034456 0.33811164 0.056596417 0.053582527 -0.15120694 0.24258307 0.051793784 0.07404285 -0.03655716 -0.042443983 -0.029757038
GF -0.103115775 0.16795763 0.04628664 0.07439031 -0.06929795 -0.29611558 0.117623754 0.3589335 -0.1391509 -0.31925228 0.12168882 -0.3059195 0.15190144 0.15891375 0.090665884 -0.11486031 0.4142392 -0.20530045 0.012321863 -0.49524108 0.176856 0.12393418 0.33422953 -0.16412963 -0.06977995 0.06672615 -0.2845633 0.08769565 -0.11858135 0.08740777 0.26174334 -0.18485782 0.18139341 -0.54136974 -0.03165108 0.1974276 0.15209685 -0.0017390777 -0.22882916 -0.048627503 -0.096552305 -0.12750141 -0.11710521 0.06984688 0.13763624 -0.2906604 -0.14947584 -0.116429456 0.1484682 0.14136735 0.101508334 -0.005482372 -0.11833201 -0.0039461413 0.05176436 0.106191225 0.26146838 0.04026105 -0.045567464 0.08224319 -0.18012093 -0.29055122 0.2779481 0.2461482 -0.17680345 0.38890463 -0.21747603 0.102997564 -0.25863996 0.19477339 0.1457094 0.24525952 0.24863927 0.10377948 0.29548487 -0.029813576 0.14003235 0.07119727 -0.0534945 0.010515265 -0.45085222 -0.045786183 0.008151877 0.22360867 -0.057479877 -0.0742782 0.17825857 0.0866974 0.2956364 0.27818194 0.32847962 0.06649278 0.070523836 -0.13120063 0.25621736 0.07090747 0.053300086 -0.011694305 -0.041956883 -0.034046307
FG -0.100937866 0.15866897 0.07421214 0.06393062 -0.06691786 -0.29919255 0.1308046 0.36445588 -0.15456754 -0.33158594 0.11259846 -0.31552815 0.15814023 0.16633411 0.07934452 -0.11625189 0.4035748 -0.18294008 -0.002799403 -0.5102813 0.18502231 0.11625491 0.3548049 -0.17642426 -0.055667534 0.05906924 -0.27159944 0.09009341 -0.107987165 0.10664758 0.25250587 -0.16565531 0.20587063 -0.5396851 -0.046414852 0.21131383 0.14177893 -0.0059222253 -0.24047092 -0.049894627 -0.07378509 -0.15523547 -0.10708933 0.08231856 0.12597968 -0.2988198 -0.15403469 -0.13748913 0.13282968 0.13067375 0.11605004 -0.014886566 -0.1265095 -0.014373407 0.02603149 0.09489884 0.27848458 0.047714222 -0.05591108 0.09070907 -0.15760943 -0.30372208 0.30281588 0.23331366 -0.1922511 0.40141353 -0.18276174 0.10216132 -0.2829285 0.20100325 0.12269017 0.24757728 0.23885487 0.10352721 0.30330244 -0.027882088 0.15164281 0.079812825 -0.074916594 0.03171505 -0.43425718 -0.050466362 0.017111732 0.21899089 -0.053521108 -0.070902035 0.19401655 0.08857208 0.29419264 0.2795295 0.32714605 0.07168737 0.059415642 -0.1424645 0.2633297 0.06773831 0.06538938 -0.030659445 -0.029594311 -0.022151833
GG -0.09512221 0.15263076 0.07138792 0.07294325 -0.047762286 -0.24805112 0.113943584 0.30139232 -0.15116718 -0.29322225 0.10661994 -0.26142016 0.13621674 0.14579822 0.09291695 -0.096544266 0.34228835 -0.13468587 -0.046081994 -0.45321262 0.1486235 0.091230735 0.3077767 -0.1318357 -0.08093436 0.06616513 -0.22620475 0.08628611 -0.100687966 0.093508095 0.22672658 -0.15954967 0.14880082 -0.4416997 -0.032176834 0.17372435 0.1403603 0.0069056437 -0.19129027 -0.027563078 -0.03298515 -0.13432501 -0.10707524 0.06769297 0.12626128 -0.23275352 -0.124860436 -0.096047975 0.11417467 0.10292185 0.09188286 -0.033545595 -0.108858965 -0.03117308 0.011379683 0.09581305 0.22123359 0.026687713 -0.03982109 0.054719187 -0.13163927 -0.24414371 0.2658265 0.18930678 -0.1492809 0.32878008 -0.14432071 0.114322014 -0.24278589 0.15737444 0.09556861 0.19945224 0.20138396 0.10628918 0.2247524 0.0042517628 0.11132874 0.07510229 -0.061238058 0.0068199662 -0.3499364 -0.04811583 0.02447335 0.18855257 -0.049742788 -0.06500213 0.15774772 0.052715395 0.24297793 0.21762188 0.26851836 0.05232841 0.054208968 -0.117754735 0.22914422 0.059878018 0.07376837 -0.030995106 -0.02903438 -0.027130878
