311 64
P84104 0.06863037 -0.15627685 0.2759365 0.5238188 -0.09640336 -0.27556795 -0.098401316 -0.14994346 -0.53257054 -0.017076852 0.248851 -0.3368325 -0.19508417 -0.20882234 -0.09554683 0.35087904 0.14394426 0.14172125 0.026267031 0.21931036 0.112759076 0.18508032 0.33134636 -0.22008951 0.008487947 -0.14560017 -0.13184564 0.32140774 -0.21790111 -0.29942042 0.24371916 -0.015665257 0.18115269 -0.13967611 -0.4522811 -0.5132217 0.31620142 -0.23795992 0.058993477 0.21568415 -0.086672746 0.007861874 -0.095747426 -0.0521943 0.019898625 -0.50336313 0.32026726 0.19246309 -0.2943157 0.49096924 -0.35678872 0.1955451 0.225802 -0.11131859 0.066608354 -0.11269373 0.5771559 -0.4085689 -0.13034536 -0.047070473 -0.23464711 -0.3817042 -0.3328511 -0.13978142
Q8VE97 -0.20922221 -0.26579016 0.23197466 0.14967315 0.01751203 -0.63447756 0.23545644 0.32325795 -0.12930058 -0.31811982 -0.07859436 -0.35115522 0.018521912 -0.085183196 0.0024162654 -0.31992084 0.16570799 -0.116140075 0.2091073 -0.13876094 -0.22511175 0.74036586 0.40395325 -0.21526445 -0.19279912 0.19769543 -0.13627781 0.5625801 0.2766485 -0.43072113 0.75220346 -0.25209078 0.08106339 -0.0045604557 -0.43586218 -0.077437155 0.0383906 -0.004718007 0.3316181 0.17231217 -0.26706758 0.13532662 -0.091741554 -0.46528953 -0.1971972 -0.064524725 0.1749482 0.24527845 -0.1714248 -0.0376037 -0.4415649 -0.22472419 0.4399922 -0.43078044 -0.16361398 -0.123906136 0.3455916 0.10425379 0.033930153 0.11568686 -0.15657108 -0.35640034 0.097126566 0.21880984
Q8CJG0 0.29141966 -0.3843314 0.21402304 0.3743105 -0.066164196 -0.03429919 0.04256602 0.1819533 -0.0008499538 0.23902749 -0.21640268 0.27399215 -0.08896775 -0.35338983 -0.04780504 0.3873419 -0.19114691 0.3868142 0.08828926 -0.060701687 -0.0423024 0.14028259 0.47724423 -0.58487934 0.18947689 0.12810339 0.019011412 0.6585201 0.19262135 0.087547004 0.30992275 0.5647289 0.1389652 0.28387204 0.057786815 -0.47741756 0.7301536 0.22053923 -0.008894621 -0.1205109 -0.14743593 0.5193618 -0.22415885 -0.044412516 -0.2228034 0.11309892 -0.14101593 -0.45034492 -0.27882984 -0.4420717 -0.08919704 -0.14268887 0.056828562 0.36234215 0.12776658 -0.6537889 0.08061775 0.08835856 0.036275018 0.07622417 -0.25406504 -0.15858966 0.3377699 0.15548304
Q61188 0.08313453 -0.6463003 0.2082425 0.0838845 0.10211677 0.032371033 0.23025057 0.41408145 0.0983329 -0.30249348 -0.067554615 0.35237437 -0.08647613 0.31747183 0.11129421 0.6676556 -0.17323694 0.11085846 -0.36984345 -0.0590802 0.5381021 0.46115258 0.07473815 0.047044005 -0.033042125 0.3867544 -0.21342859 -0.097927645 0.4126321 -0.17197579 -0.057873815 0.059018284 0.4613805 -0.047964662 0.36776888 -0.11150596 0.49209002 0.3502958 0.36238632 0.16904773 -0.3882792 0.17070065 0.47122034 0.03522139 -0.18330066 0.48522386 -0.0013078332 -0.13192613 -0.19379213 -0.25620145 -0.066255085 -0.3092869 0.6455411 -0.11133394 0.19903955 -0.18148728 0.06454181 -0.2594793 -0.25540257 -0.4672507 -0.004270924 -0.22068526 -0.0080131255 -0.41292277
O88974 0.20805156 -0.58643675 0.29169372 -0.13744308 -0.4124076 -0.056770638 0.24564944 -4.8853857e-05 0.047514822 0.62964004 0.2961966 0.19809137 -0.39421934 0.40616804 0.10276111 0.3724724 -0.12517132 -0.00045896647 -0.045129158 0.14918303 0.11388069 0.55239975 0.077549644 -0.38010272 -0.08625076 -0.033497397 -0.13017897 0.15490772 0.30239365 -0.30956244 0.07853975 -0.10695571 -0.07152621 -0.10073986 0.056691032 0.1109387 0.6430245 0.06482242 0.27248994 0.06317495 -0.14370273 -0.04992436 0.42976952 -0.16449909 -0.27262148 -0.016459998 -0.17868833 -0.16247937 0.015738139 -0.63536865 -0.010334725 -0.42786175 0.020372655 -0.065779634 0.07005045 -0.14295328 0.30017266 -0.13405421 -0.47771826 -0.51028514 0.018788235 -0.26883286 0.51920116 0.4256999
Q80U70 0.34890872 -0.69842243 0.37573874 -0.01528453 -0.4300487 0.13703434 0.23022503 0.57314247 0.049965087 0.13132071 0.106017016 -0.0073358347 -0.7532487 0.50398767 0.30561206 0.30760482 -0.095571004 0.3493892 -0.42407948 0.30600664 0.2258691 0.3832005 0.0650883 -0.1552136 0.14394476 -0.2372568 -0.10151551 0.23261672 0.5831796 -0.19078667 0.14337006 0.40301043 -0.18906038 -0.15323466 -0.27281195 -0.11578396 0.4625625 0.22076271 0.49589458 0.013654185 0.23787782 -0.02079714 0.4385723 0.22891925 0.05184917 0.021305354 0.013604875 -0.016862841 -0.13439602 -0.49917886 0.27978882 -0.46066824 0.027414646 0.24519162 -0.07230427 0.20572972 0.1597392 0.044617195 -0.1243236 -0.04379738 -0.06380594 -0.17322092 0.28353077 -0.14662908
O54864 0.20220332 -0.48026147 0.5048045 0.27570173 -0.053163506 -0.054407775 -0.08178265 0.23031493 -0.09085134 0.33387992 0.22774835 0.5767891 -0.4757474 -0.25692138 0.3798357 0.6339387 0.06766413 0.27185103 -0.3424871 0.15294477 0.17729461 0.58541536 -0.11864851 0.016826453 0.1108503 0.3977827 -0.26002476 0.1585798 0.041665588 -0.085342705 0.37559438 -0.1873756 0.119481824 0.27917486 0.16165659 0.3780567 0.5700942 0.1716702 0.26620704 -0.11977099 -0.19959523 0.06138805 0.28827074 0.42066386 -0.21504949 -0.08000052 -0.40943596 -0.10527788 0.0040959143 -0.2317327 0.37604937 -0.3873676 0.011881938 -0.0068096104 0.31832373 0.31300414 0.31448177 -0.11317823 -0.3523466 -0.09359459 -0.37576133 -0.14085469 0.17122148 0.29278162
P62320 0.27608758 -0.35089356 0.26480627 0.16013972 0.21736138 -0.26663977 0.01046161 0.12687925 -0.22547689 -0.30766577 -0.022322344 -0.39121634 0.032452926 -0.22611244 0.27561346 0.07369597 0.20415546 -0.06867168 -0.1955637 0.106426895 -0.15687531 0.5295378 0.12707943 -0.22399426 -0.010188623 0.47014064 -0.19961058 0.13508688 0.28449297 -0.16559395 0.08954282 0.18077269 -0.1180286 -0.17973249 0.35293776 -0.2791483 0.039630704 0.15513286 0.4354315 0.40566537 -0.038817942 0.040916875 -0.065517426 -0.1256554 -0.1501524 -0.066385515 0.17849563 -0.4211265 -0.19296435 0.35211384 -0.237599 0.22453758 0.012486722 0.4974228 0.21690442 0.19182682 0.419962 -0.057439234 -0.20333008 0.055440973 -0.13816951 -0.2880806 0.16962056 0.12728307
Q80Y84 0.1379142 -0.7461742 0.4265729 0.3040686 -0.32753083 -0.09214366 0.29101002 0.09265462 -0.35357276 0.34015286 -0.0397371 0.1404164 -0.7588622 0.06995956 0.42155826 0.61975497 0.036713324 0.21273991 -0.23292907 0.27397946 0.09985378 0.3291006 0.0121973995 -0.09435233 0.15136425 0.2478921 -0.11552376 -0.43512088 0.53576237 -0.39810157 0.13731286 0.30102044 -0.20640598 0.040191963 0.05345915 0.22739875 0.49630573 0.018604578 0.40144336 -0.1729943 0.27587405 -0.07406531 0.088862166 0.2504974 0.09044186 -0.27277917 -0.19608495 -0.0889146 0.10096049 -0.23796771 0.30855706 -0.68863255 0.22461571 0.01176878 -0.2807521 -0.0803247 0.15759194 -0.36163458 0.015481603 -0.32068834 0.25263822 -0.25349155 0.11783909 0.13692537
P62315 0.15828016 -0.22467591 0.32343805 0.10334325 0.38412467 -0.3683208 -0.022982048 0.31834966 -0.12647185 -0.4438223 0.053329367 -0.3007085 0.113846645 -0.17372939 0.15536037 0.35401735 -0.06080925 -0.21811509 -0.22227202 0.13185105 0.08602945 0.39144024 0.28024206 -0.19100177 0.09863765 0.2699876 -0.029130338 -0.06959188 0.27614215 -0.32122758 0.22007142 0.27634573 -0.37928596 -0.1300475 0.28182772 -0.20786451 -0.037264828 0.13852616 0.64257014 0.092911035 0.09574747 0.10470052 -0.08536135 -0.2077676 -0.10992458 -0.24145928 0.07628418 -0.3992999 0.04982334 0.038115952 -0.2306109 0.26838508 -0.04484845 0.35476622 0.077164784 0.21679367 0.48480433 0.043231715 -0.2032888 0.22555315 -0.29524678 -0.28434238 0.23234926 0.047070272
P27048 0.3399639 -0.3354847 0.28999925 0.22514902 0.30734938 -0.15810613 -0.06125409 0.08776708 -0.004648383 -0.24596748 -0.06608612 -0.37531152 0.07405148 0.0010477167 0.19604464 0.20075935 0.06974001 -0.2019561 -0.21906148 0.111728355 -0.11098833 0.5788072 0.35879296 -0.055689763 0.07238809 0.4010322 -0.28940555 0.010597914 0.33457842 -0.15897787 0.17168577 0.20345654 -0.23280384 -0.21003716 0.27960908 -0.22986779 0.08753021 -0.034151375 0.45978418 0.34374344 -0.1239776 0.22197768 0.138645 -0.13015117 -0.29349738 -0.09288366 0.14547493 -0.3565971 -0.18684675 0.28005987 -0.3126027 0.19894479 -0.033456545 0.27876088 0.16190158 0.21288466 0.4269577 0.027735418 -0.18021801 0.31261477 -0.1208304 -0.16621485 -0.017996417 0.27996618
P62317 0.143339 -0.35675472 0.27097067 0.0782511 0.17344384 -0.41110164 0.0060757883 0.13612066 -0.25549614 -0.3966221 0.12576419 -0.18453339 0.16296601 -0.16929787 0.2656579 0.1983804 -0.08945267 -0.26351205 -0.15543082 -0.049186863 0.008288218 0.39729127 0.39477587 -0.43520847 0.11398817 0.25999057 -0.051448427 -0.038741898 0.29566523 -0.2705236 0.005552377 0.08119073 -0.26704514 -0.40554026 0.2299936 -0.24074987 0.14745931 0.20220861 0.4632154 0.30608857 -0.05223009 -0.086701244 -0.07121461 -0.15518364 -0.072551936 -0.206763 -0.00989499 -0.4623817 0.16417538 0.17280823 -0.30887175 0.22850129 0.0823365 0.51748085 0.059793126 0.08945296 0.4613456 0.0277336 -0.17190768 0.1925769 -0.4234441 -0.42618644 0.055600047 0.060676526
Q9CQJ4 0.015465516 -0.69575965 0.4513535 0.010889964 -0.24465027 -0.33907938 0.013130458 0.24530524 -0.08723847 0.25313845 0.07704302 0.058416646 -0.38998446 -0.034610536 0.16198678 0.29746938 -0.10989203 -0.05475513 -0.33273444 0.16088372 0.23204498 0.2944785 0.114506215 -0.35972846 -0.055972423 0.21629559 -0.20861673 -0.14362565 0.46699974 -0.38934615 0.07368687 0.41117427 -0.01901561 0.038978744 0.0015426904 0.2317504 0.2784392 0.23530836 0.7008987 -0.07651623 -0.36757153 -0.04068167 0.005426932 0.10121247 0.40490577 -0.17162862 -0.23599151 -0.36491737 0.0007120425 -0.25586116 0.30296072 -0.6616913 -0.1453907 0.49694964 -0.028954748 0.060821377 0.023769408 -0.11717709 -0.26203054 -0.14018966 -0.04722119 0.031708382 0.3738483 0.030739129
P08775 0.5761403 -0.38051608 -0.00027790153 0.2213922 0.07303801 0.06012058 0.09216858 0.3225063 0.25372145 -0.030864881 -0.08105612 -0.15771937 -0.10944372 -0.09997635 0.10538276 0.2521582 -0.30378965 -0.065678924 -0.361695 0.085365295 0.07566355 -0.038476232 0.1643441 -0.27018493 -0.14986153 0.5016598 -0.041257422 -0.2431091 0.22267571 -0.13388033 0.2302679 0.3228975 -0.22614403 -0.21216011 0.12831411 -0.102726705 0.32527974 0.25307164 0.7954997 0.06780303 -0.14276083 0.21011277 -0.0492946 0.22736433 0.0059245834 -0.13800687 -0.334106 -0.24914539 -0.38192603 -0.052566227 -0.020183094 -0.014711927 0.17591287 -0.033285417 0.13723807 0.039816692 0.2678147 -0.027775416 -0.36676157 -0.084392644 -0.1500989 -0.3300645 0.39211658 0.2035475
P62307 0.2082095 -0.1365403 0.37298188 -0.013353976 0.06493233 -0.56043327 -0.13452487 0.16422755 -0.06360811 -0.5602406 -0.061450854 -0.2798236 0.12216634 -0.01898885 0.25998193 0.4047602 0.11039867 -0.10224866 -0.08936085 0.09047421 -0.038781293 0.37294364 0.2491954 -0.33023688 -0.07181749 0.39193517 -0.026427705 0.02920779 0.26683158 -0.19074956 -0.05174841 0.41569278 -0.2407305 -0.18120946 0.4155672 -0.107279405 0.27788746 0.11194273 0.39314768 0.3056769 -0.069253735 -0.26492673 0.18670276 -0.18155955 -0.13437314 -0.1875267 0.09135477 -0.28739744 -0.04645258 0.20889318 -0.08940184 0.3823137 -0.0006670706 0.33996487 0.09583729 0.022017319 0.47816813 0.08907025 -0.27988967 0.18052901 -0.2710373 -0.33943474 0.08354614 0.11295314
P41230 0.08670001 -0.58712566 0.44732806 -0.17887762 -0.47117534 -0.26734716 0.074712776 0.19087648 0.16354714 0.2698996 -0.07610879 0.40519747 -0.6433112 0.19172066 0.121611424 0.8419481 0.13179351 0.107969545 0.040504783 -0.057376444 0.22826828 0.7111171 0.22876061 0.07336756 0.009169896 -0.06438612 -0.12699327 -0.28188714 0.67347705 0.10072474 -0.1473868 0.09355958 -0.10691294 0.025857743 0.29306147 0.06607826 0.19695494 0.40567186 0.6583959 0.037857965 -0.29855287 -0.13707082 0.5315496 0.17957506 -0.34369904 -0.60875964 -0.4860494 0.083336025 -0.26073503 -0.40640184 0.12808551 -0.22666116 -0.19988267 -0.08091819 -0.24607573 -0.28492385 0.26334298 -0.18008316 -0.30581445 -0.2104495 -0.25953627 -0.20839785 0.5039228 -0.044948265
Q6PDM2 0.051429354 -0.40130034 0.22859195 0.097951174 0.2056462 -0.33227095 0.099324755 0.08139221 -0.107914224 -0.17261596 0.012526626 -0.23194048 0.32129133 -0.27738738 0.22758318 0.3958899 -0.03482329 -0.025461864 -0.18265396 0.09854045 0.12061821 0.39565814 0.46171448 -0.18152547 -0.028026123 0.46756497 -0.12841 -0.0050145946 0.20173787 -0.18057762 0.18206596 0.2358092 -0.17405726 -0.28905696 0.08860841 -0.16450346 0.21768321 0.15083031 0.6651457 0.14600421 0.019010182 -0.017243393 -0.097764164 -0.24551344 -0.017029045 0.05521862 -0.047954965 -0.29088357 -0.09382403 0.037300736 -0.18166882 0.22504698 0.060512796 0.09598853 0.04846105 0.22891462 0.57356346 0.014290443 0.15563461 0.22298005 0.11532055 0.05632004 0.17580312 0.35685286
P62305 0.36677486 -0.28676006 0.25484312 0.23177597 0.45662418 -0.36436787 0.0060892 0.24791998 -0.15788467 -0.40890834 0.09243501 -0.2503381 0.12983586 0.028681539 0.17917627 0.4876297 -0.08184063 -0.20637919 -0.1677995 0.042388704 0.12136991 0.39214265 0.38062555 -0.114471115 -0.055294327 0.16217232 -0.07390352 0.03825728 0.16811046 -0.12534332 0.11535298 0.1695408 -0.0760122 -0.39892346 0.26559773 -0.123978466 0.2059299 -0.01031315 0.5070261 0.23321329 -0.13841097 0.10089716 -0.054244287 -0.13247807 -0.23578653 -0.2125423 0.049035344 -0.33244172 0.13318224 0.26163676 -0.37240607 0.1774068 0.08438915 0.31297716 0.093172766 0.18446857 0.35634446 0.107138366 -0.26437792 0.4991913 -0.3520988 -0.17786826 0.2018266 0.016028773
P02340 0.19277275 -0.56419146 -0.020866191 0.39582518 -0.09593629 0.3192129 0.41756612 0.15937254 0.056806017 0.18872777 -0.20517595 0.17318025 -0.39314353 0.06734003 0.47112367 0.3677575 -0.038487792 -0.018651078 -0.0007460536 0.056919005 0.23073916 0.50796086 0.3511656 0.019604228 0.12834111 0.46698636 -0.37884808 0.032548346 0.3933867 0.04647795 -0.14766046 0.22356127 -0.05605653 -0.04331999 0.12436114 -0.22714846 0.4129188 0.26684555 0.38836294 0.043768357 -0.26037306 -0.017770967 -0.06746535 0.037018973 -0.05087957 -0.27698317 -0.21725419 -0.14095996 0.0037440348 -0.020422664 -0.011850842 -0.0014911953 0.16935672 0.20271854 -0.05375435 0.16749242 0.27364686 -0.0516298 -0.17525128 -0.3370344 -0.3194123 -0.10288433 0.3560312 0.18446963
Q8CCF0 0.26953188 -0.09427251 0.28469396 0.10655313 0.18000789 -0.5478779 0.10314451 0.2762035 -0.08867863 -0.32455564 -0.15902823 -0.1835066 0.22456902 0.036945634 0.024949787 0.35744235 0.14738919 -0.20113865 -0.08540285 0.100524954 -0.23888126 0.33690968 0.26435754 -0.3451993 0.05584817 0.49938706 -0.28292438 -0.17248623 0.14941509 -0.58453417 0.32253557 0.19457883 -0.6279467 -0.11520399 0.3152002 -0.09858066 0.105146706 0.087592885 0.5660114 0.22446539 -0.11482399 0.021171441 0.20201057 0.030930994 -0.13249676 -0.20757632 0.346877 -0.29813623 -0.13289055 0.20837773 -0.06709791 0.121181875 0.14638102 0.06134547 0.31781575 0.14670858 0.2622381 0.12809782 -0.383462 0.29894957 -0.14560017 -0.2921656 0.54210377 -0.013493703
Q99NB9 0.18664098 -0.2643989 0.09397931 -0.0031187036 0.07585411 -0.24355237 0.16074748 0.13759857 0.042772364 -0.08623249 -0.030297283 -0.18170908 0.2111222 -0.15779872 0.06195611 0.36719203 -0.088535935 0.0211123 -0.11666816 0.38926145 0.008252614 0.38996664 0.095006414 -0.3775099 0.053291854 0.3412879 -0.2625482 -0.036163084 0.39912802 -0.22573122 0.009551194 0.15488775 -0.19278558 -0.1261719 0.2766233 -0.1174194 0.12663625 0.2148531 0.6247119 0.08064575 0.06000618 -0.058824223 0.1562831 -0.36880705 0.047348652 -0.1867588 -0.02146326 -0.25789735 0.043865774 0.32964724 -0.16405405 0.12116077 0.12550573 0.14653526 0.12807931 -0.13533066 0.18604785 -0.040403612 -0.112239204 0.21002424 -0.36152732 -0.21798237 0.3820877 0.09081362
Q62376 0.255969 -0.36397108 0.30392775 0.33794084 0.20383684 -0.29235396 0.11123869 -0.034013096 -0.014512366 -0.34922692 -0.07807386 -0.030226842 0.2296127 -0.16352558 0.0037239129 0.30928355 0.16210191 -0.17764081 0.08493008 0.12693588 0.0507452 0.44556788 0.51580817 -0.2979794 0.22212464 0.09498764 -0.02397841 -0.020136211 0.29264775 -0.24994615 0.22621764 0.37429628 -0.10238295 -0.44454974 0.29099002 0.10926942 0.3248888 0.09468957 0.53978616 0.3509725 -0.08346524 0.13868181 -0.07071995 -0.08407343 0.092878975 -0.1109577 0.10323098 -0.1758985 0.017693348 0.1328025 -0.29697418 0.109924175 0.06524911 0.04074422 0.25895903 -0.08507449 0.17382456 0.12682083 0.008967535 0.34044588 0.004286473 -0.1085517 0.14554447 0.2697953
Q8CHK4 0.46540132 -0.7094034 0.28906268 -0.13151436 -0.06560031 0.07127988 0.017898023 0.20664035 0.35642186 0.2588851 -0.19639324 -0.13882947 -0.14307407 -0.22443226 0.23950036 0.47949588 -0.1792512 0.033413347 -0.42698285 -0.2171267 -0.15906596 0.41807464 0.14596212 -0.28290007 0.044893373 0.08644418 -0.22838911 -0.077475436 0.8603254 -0.06206315 -0.11304994 0.24487182 -0.0009090557 0.07463728 -0.0326347 -0.14853798 0.54885834 0.24591409 0.44442764 -0.24759458 -0.12636437 0.11023217 0.0996869 0.37180343 -0.050918482 -0.17430598 -0.30380937 -0.05819484 0.38586405 -0.08324334 -0.263443 -0.4414497 0.073227994 -0.28089923 0.08479873 0.0029124601 0.1428247 -0.076018676 -0.2640916 -0.5077607 -0.33016708 -0.073821835 0.4738778 -0.0764279
O09106 0.3265833 -0.4995257 0.4340195 -0.15235761 -0.07481812 0.29115513 -0.13117869 0.37494954 0.1650017 0.30194137 -0.08796272 -0.032384783 -0.3940879 0.020798823 0.48012295 0.550117 -0.15289181 0.011366201 -0.027204309 0.13163096 -0.061417602 0.65216446 -0.0016149594 -0.17696968 0.09607689 0.384707 -0.07868889 0.16205972 0.43570328 0.013464625 -0.012430921 0.32460666 -0.19839704 -0.16637434 -0.2534636 0.023985727 0.51107055 0.49071652 0.33208326 -0.26959717 0.0037411228 0.054713186 -0.096946254 0.23657486 -0.058208246 0.08820649 -0.2101726 -0.026219059 -0.06323723 -0.3530617 0.050648376 -0.27150223 0.04307078 -0.1313801 0.13318755 0.36588255 0.20088266 -0.3274581 -0.24576856 -0.24937019 -0.39903033 -0.015910907 0.30237123 -0.10280756
O88569 0.42154846 -0.35320804 -0.2264191 0.13180387 0.13049202 -0.08013508 0.010927075 0.06540641 -0.047578275 -0.18747407 0.0468315 -0.021368843 0.015116224 -0.33819607 0.04220909 0.25027892 0.08595145 -0.023986734 -0.20458993 0.014934041 0.08420756 0.42364144 0.48442784 -0.3338862 0.05695356 0.37453762 -0.2397971 0.077712275 0.36548522 -0.092939734 0.020017138 0.19239727 -0.0310415 -0.19043493 0.1675847 -0.15638946 0.12606822 0.21490985 0.4632094 0.2527989 0.15011205 0.007858816 -0.14986405 -0.19273473 -0.18312296 -0.08706709 0.17443828 -0.24062036 -0.2602812 0.10201321 -0.11971809 0.3297601 0.21568266 0.4588349 -0.08936116 -0.14632908 0.45155945 -0.029876048 0.018824778 0.008159335 -0.017190043 -0.21282451 -0.054894652 0.43983254
Q9Z148 0.20288722 -0.4580158 -0.05363896 0.22239274 0.06863037 0.05280725 0.07319442 0.16223663 -0.07003595 0.36484623 -0.07911405 0.43554366 -0.47957587 0.31821302 0.34765047 0.62597513 0.043634117 0.061664224 -0.11289177 0.05726774 0.4713345 0.3881058 0.35446382 -0.3031485 -0.038675867 0.30226815 -0.14143087 0.022546934 0.5919019 0.114659786 0.007736546 0.006943717 -0.25342384 -0.031245165 -0.028939744 0.18385856 0.82373846 -0.13177513 0.4149797 -0.07679069 -0.117918335 -0.0010119542 -0.094146796 0.3149552 0.15749086 -0.2663823 -0.41933334 -0.12205096 0.04804642 0.2429538 -0.18844444 -0.2524636 -0.06780156 -0.084200904 0.052927654 0.09958226 0.055869527 -0.08508539 -0.46051782 -0.3626973 -0.08666223 0.034121517 0.3658387 0.032728706
Q61656 0.2813749 -0.02383076 0.18586105 0.2759006 0.26857808 -0.18005855 -0.029350417 0.22703704 0.045241542 0.11591923 -0.13035989 -0.42071563 0.09821771 -0.4146967 0.28248945 0.48592666 0.050848708 -0.37902236 -0.1079695 0.06560485 0.15640561 -0.038980745 0.41259477 0.029454568 -0.022903778 0.06263874 0.09305059 0.29164633 0.40186948 -0.22612402 -0.08447537 0.3575083 -0.52768433 -0.0011332235 -0.0659833 0.08893726 0.44617504 0.36135587 0.54544944 -0.09812548 0.01287223 -0.09602834 0.12732047 -0.28937104 -0.068092674 -0.08260687 -0.34110883 -0.34431484 -0.14966263 0.22416185 0.20468603 -0.24485108 0.32466796 0.17240658 -0.18957956 -0.08039708 0.43889844 0.041067544 -0.3691467 -0.11161569 -0.024700973 -0.3327227 0.32706702 0.13261494
P61979 -0.03379422 -0.7733537 0.032799333 0.10808355 0.09594602 -0.109207794 -0.046728056 -0.05284083 -0.016999936 -0.09656817 0.20108359 -0.28979257 0.37018442 -0.20350349 0.142612 0.7462344 0.08368723 -0.44840324 -0.21490622 -0.06889821 0.020274825 0.22585148 0.44667158 -0.22442038 0.118846126 0.062323917 -0.32007617 0.004927636 0.20249525 -0.2124746 0.20982267 0.23266226 -0.281026 -0.17237169 -0.047167245 -0.19969466 0.11707756 0.4625783 0.33448237 0.14716196 0.22232223 -0.1399177 0.0014883957 -0.10049466 -0.021403901 0.051362943 -0.08254281 -0.20237105 -0.44808283 0.116998486 -0.021797683 0.3495009 0.10000828 0.25290677 0.09616447 -0.1730945 0.44540432 0.06711548 0.20947412 -0.08195423 -0.1563383 -0.16525693 0.21741733 0.3762473
Q9D883 0.252968 -0.28863406 0.11266903 0.0947931 0.18342301 -0.30960885 0.14351042 0.07529315 0.010568126 -0.0358508 0.037351467 -0.2525292 0.03579911 -0.25927818 0.10683922 0.28764832 0.11776864 -0.32531208 0.11841208 0.05170385 -0.03497714 0.36924258 0.21863244 -0.41799885 -0.1283022 0.20305617 -0.11510913 0.031154031 0.43858615 -0.08190804 0.21602546 0.26064268 0.037141092 -0.36370605 0.1239447 0.08885121 0.08962756 0.18553504 0.5083353 0.13226387 -0.21191233 0.053779177 0.055722907 -0.22607696 0.124008045 -0.02691554 0.090672515 -0.47182223 -0.21013777 0.41811717 -0.10222966 0.1638592 0.15592329 0.14522097 0.29828352 0.04767223 0.28329584 0.11863932 0.06836931 0.007928618 -0.27490976 -0.32607883 0.19327253 0.09383577
P62806 0.026944274 -0.45548496 0.6593836 0.17585886 0.101105995 0.3283759 0.52632314 0.13460243 -0.12765378 0.20152476 -0.20195137 0.32818648 -0.6353214 0.13894612 0.3394913 0.418228 -0.11268802 0.17576233 -0.32328784 -0.020645164 0.061176077 0.39079845 0.121386595 -0.11338531 -0.21268979 0.20340729 -0.04675271 -0.05589298 0.68704104 0.14821589 -0.14503591 0.009560566 -0.0019882275 -0.13940954 0.032029614 -0.011811018 0.47849944 0.15378861 0.39567146 -0.02705804 -0.089818835 0.09378258 0.31581616 0.14170781 -0.11171087 -0.004219469 -0.33863422 -0.35312036 -0.17330024 -0.053380415 0.10763399 -0.14233437 0.26740918 0.07380982 0.017381933 0.28805533 0.3978789 -0.13770276 -0.3841543 -0.2960217 -0.1343895 -0.1836277 0.26746392 -0.008591518
P61965 0.2403361 -0.27596864 0.52016616 0.1405208 -0.17971078 -0.11296552 0.047950428 0.13561995 0.022717347 0.33030295 -0.08404956 0.03291805 -0.4706973 0.18950781 -0.025136573 0.515102 0.10020126 -0.28365958 -0.278247 -0.025883375 0.043123774 0.5042785 0.23959316 -0.013584614 0.15575436 0.4351315 -0.007120004 -0.16781749 0.5977083 -0.05822702 -0.08050896 0.17940807 -0.0946279 0.021342972 0.27496675 -0.068421744 0.5223495 0.1276546 0.41389504 -0.3527435 -0.11093587 -0.07699128 0.03727083 0.05943571 -0.13361779 0.011136128 0.16191168 -0.21361873 0.039276116 -0.2916374 0.051704712 -0.16696759 0.00924159 0.054490864 0.04545155 0.20271502 0.33446527 0.0019725142 -0.40559167 -0.24721986 -0.05774824 -0.033842955 0.2538662 -0.16195807
Q61164 0.2572864 -0.5192643 0.49190256 -0.11560727 0.060119674 0.13726471 0.34301203 0.11476829 0.08670112 0.14126709 -0.23437235 0.23037842 -0.21737094 -0.009113952 0.24701273 0.4537988 0.111985564 0.2222039 -0.25260952 0.2036209 0.20476873 0.35582942 -0.16375628 -0.16878429 -0.12874617 0.2952946 -0.2419203 0.05421947 0.71758753 -0.30881724 0.13103305 0.17163743 -0.27412644 -0.06745591 0.071784616 0.019704664 0.6206785 0.22996096 0.43966654 -0.07605936 -0.049702957 0.023636326 -0.03003449 0.043715425 -0.10736561 0.02057501 -0.5027425 -0.25461632 -0.13566321 0.038058903 -0.20472935 -0.1388896 0.03933091 0.17447346 -0.0030073756 0.21977903 0.2537597 -0.30884737 -0.41532806 -0.42062965 -0.015105156 -0.3387515 0.27873507 0.04624515
P57784 0.18606196 -0.37666738 0.22310242 -0.016228227 0.2812419 -0.23624128 -0.07281337 0.017447447 -0.10395807 -0.4576916 0.024951024 -0.2532724 0.20775945 -0.27192688 0.15620573 0.35448602 0.14929144 -0.12461628 0.032983143 -0.015881406 0.054740895 0.42738327 0.3649991 -0.3672906 0.23921071 0.28472394 0.13097507 -0.12934622 0.343615 -0.30150768 -0.053280104 0.313469 -0.13450254 -0.27228865 0.2769802 0.018038113 0.19441637 -0.047803592 0.7987024 0.15219738 -0.06166358 -0.066767946 -0.11830502 -0.17213449 -0.0148376515 -0.07328829 -0.09108825 -0.36593643 -0.09225308 0.30030245 -0.2784812 0.14353235 -0.0044021984 0.2437105 0.2630397 -0.018386895 0.5488807 -0.0037007576 -0.23685177 0.27044067 -0.11757936 -0.19472355 0.27134624 0.3070534
Q8K4Z5 0.07172056 -0.48047596 0.13506387 0.08037081 0.18495001 -0.39559445 0.18244374 -0.05048368 -0.06746567 -0.049316127 -0.030734217 -0.22636914 0.18476342 -0.21755287 0.1329296 0.38660794 0.089090616 -0.21150695 0.13116622 0.15368704 -0.12547487 0.48344535 0.09767517 -0.4148804 0.046383765 0.27579397 -0.10438531 -0.013499953 0.28802148 -0.16386352 0.15262038 0.31674683 -0.0937115 -0.44090188 0.23628269 -0.08623369 0.22137307 0.06260451 0.57027566 0.20132764 0.0097609 0.20372982 -0.06356777 -0.38308048 -0.101651706 0.034346256 0.106859855 -0.40548772 -0.18701681 0.36090213 -0.23312806 0.37880433 0.1503111 0.12992266 0.3437734 -0.08931205 0.42785653 0.16867884 -0.08085026 0.33396927 -0.12107869 -0.3137049 0.21314193 0.15992865
Q62241 0.21309657 -0.09688423 0.20122875 0.120410964 0.09126328 -0.317845 0.13914312 0.07022235 0.12793201 -0.55519867 0.030064639 -0.0984238 0.094606996 -0.062341914 0.19987266 0.23636813 0.18728146 0.012430274 -0.14215238 -0.045580715 -0.25596666 0.76487136 0.38682088 -0.58681905 0.04413105 0.17392445 -0.07647732 -0.0022010426 0.5253482 -0.16010779 0.110916846 0.24535525 -0.16620106 -0.515541 0.254182 0.0050655655 0.33687985 0.0066187754 0.3806281 0.099577606 -0.13902174 0.1962158 0.0033967588 -0.16677952 -0.08769464 -0.18748899 0.123558335 -0.22898476 -0.12211658 0.29082423 -0.4186683 0.13892692 0.22888738 0.51977396 0.04652934 -0.18028906 0.30242518 0.11939527 -0.10631232 0.3856495 0.16006346 -0.24616084 -0.033767223 0.21508372
P83877 0.43749893 -0.43626615 0.17068988 0.10233658 0.5508906 -0.23844135 0.01849475 0.11267648 -0.06850604 -0.20070365 0.2229609 -0.2009142 0.023983842 0.00046554327 -0.04175119 0.4972028 -0.14440869 -0.32001024 -0.3739088 0.122484036 0.11032331 0.34483597 0.25683638 -0.29951864 0.047736082 0.3586792 -0.12276342 -0.09933342 0.4969978 -0.12103942 0.15082072 0.13336793 -0.17232595 -0.35035002 0.16979565 -0.020042107 -0.019528423 -0.036243834 0.55687356 0.1179312 -0.06115665 0.096581094 -0.10981155 -0.32876852 -0.032486323 -0.12393542 0.28044027 -0.37350997 0.065722264 0.25509858 -0.48219502 0.23100492 0.06689648 0.41875592 0.10453155 -0.055348024 0.40047556 -0.016183136 -0.22660308 0.5017227 -0.1289074 -0.11838052 0.3871983 0.19450922
P63163 0.21708995 -0.1999417 0.17379433 -0.18603574 0.085637145 -0.32964954 0.124890074 0.05609968 -0.04272901 -0.023763599 0.15972051 -0.07337224 0.10342953 -0.19302985 0.4307141 0.46825457 -0.03883053 -0.09556452 0.20215878 -0.060643498 0.014662674 0.698352 0.32355604 -0.32063848 0.07293603 0.4167216 -0.09434562 -0.07595345 0.22075458 -0.16658852 -0.061871197 0.049620446 -0.24034393 -0.5306832 0.18265828 -0.08897976 0.22683425 0.055069778 0.70970243 0.28490305 -0.38211802 -0.046105027 0.053024866 -0.22479555 -0.058089633 0.16473287 0.15987767 -0.40042868 -0.02938522 0.3525161 -0.32631347 0.14019594 0.28231055 0.13678862 0.23597836 0.100100465 0.3569552 -0.05241219 -0.16460502 0.29896602 0.13915625 0.01979815 0.25346687 0.072227366
Q00899 0.049290042 -0.26498276 0.48520628 0.16245468 -0.20230906 -0.2824064 0.4008696 0.40685305 -0.04941436 0.45735118 0.010196718 0.32799613 -0.4476626 0.17976917 0.381954 0.77417684 -0.13060842 0.11887475 -0.3916597 0.12973563 -0.070078224 0.34591275 0.21853577 -0.12897176 -0.06567806 0.16720742 -0.16029482 -0.14045608 0.49762958 -0.09802343 0.14017656 0.2855056 -0.10036026 -0.02696015 0.16974537 0.13361135 0.5015496 0.28698406 0.34134412 -0.22432722 -0.08711844 -0.09694694 -0.011269788 0.45156774 -0.15539771 0.057077866 -0.5218011 -0.08799668 -0.061286654 -0.11264183 -0.2692183 -0.16866836 0.29976177 0.11924365 0.11852255 0.13607702 0.13261417 -0.28606728 -0.07514298 -0.22464307 0.18864793 -0.39425597 0.43916878 0.26150352
Q9CQI7 0.12340185 -0.3098986 0.01535373 0.06919492 0.06970036 -0.37568024 0.12858789 0.08056069 -0.059896484 -0.31446937 0.026068429 -0.23965347 0.28376845 -0.036134608 0.044989087 0.3790902 0.111821175 -0.1142665 -0.14384781 0.031573422 0.09193647 0.42127806 0.2049975 -0.35603547 0.0697442 0.43182743 -0.14354748 -0.021281684 0.31415528 -0.43117478 0.13164856 0.21194524 -0.08504157 -0.33195105 0.11723826 -0.036794562 0.30610377 0.05632482 0.54461735 0.21495348 -0.0446036 0.03787196 0.10593214 -0.341305 0.00064708653 0.016524792 0.10521637 -0.39942172 -0.09456057 0.2357729 -0.27145073 0.16034438 0.140064 0.13135426 0.2181446 -0.08102102 0.45598894 0.10471845 -0.17585014 0.4219517 -0.22511639 -0.02524241 0.20956916 0.31613693
n2110 0.3368978 -0.28752676 0.48297358 0.19930401 0.6079739 -0.22570595 -0.52012473 -0.15352322 -0.6211007 0.014169285 0.30590338 -0.78172326 -0.0673773 -0.11449012 0.30885878 0.3481857 0.024615396 0.5076406 -0.29441652 0.17635652 -0.14636071 0.7440003 0.38175437 -1.1036878 -0.338284 0.0028366323 -0.6521819 0.16827542 -0.108378656 -0.3612982 -0.23367392 0.13810869 0.008461663 0.56867754 -0.350194 -0.05756764 -0.47487995 -0.40277502 0.13775592 0.23315966 -0.26144916 0.20121482 -0.15874666 -0.15037136 0.20230995 -0.44943944 0.20995179 -0.18272361 -0.28259063 -0.05058432 -0.3442065 0.2633574 0.6496557 -0.6509281 -0.23181428 0.09535861 0.3134095 0.26460576 -0.16271812 0.24714538 -0.05054914 -0.5291864 -0.22047801 -0.06626441
P19785 0.3661049 -0.3499494 0.32369095 0.09641535 0.32090303 0.053614285 0.18123068 0.0071581467 -0.090334676 0.24526802 -0.17472248 0.17569223 -0.28447652 -0.006655308 0.3724554 0.1572636 -0.046434592 0.25997835 -0.33332935 0.22775298 0.31230748 0.4064017 0.15342009 0.06509733 0.049574487 0.40157706 -0.10336182 -0.061782148 0.67723435 -0.14316927 -0.0598263 0.1876966 -0.006915373 -0.059383407 0.0699346 -0.099679954 0.57839555 0.48504576 0.41830665 -0.15480976 -0.11733183 -0.16436714 0.046595752 0.21863276 -0.19220759 -0.009894855 -0.22300787 -0.22295238 -0.44655693 0.04193046 -0.1416171 -0.56912774 0.26980406 0.2839328 -0.25228575 0.32475325 0.46027935 -0.001581997 -0.33017468 -0.49095824 -0.061263967 -0.03776986 0.3573907 0.1835264
O70372 0.06077274 -0.29856524 0.28809744 0.3952431 0.3592406 0.41676393 0.2649429 0.30571505 0.18303113 0.22909608 -0.40554902 0.11749039 -0.34728113 -0.082787976 0.33091244 0.25467986 -0.23003152 -0.23653829 -0.03555825 -0.12171569 0.33474872 0.43049803 0.26075473 -0.21665621 0.1872442 0.22038047 -0.27915615 0.29119605 0.26764917 -0.10010108 -0.24379338 0.70733976 -0.12983757 -0.13596383 0.12862657 -0.1647884 0.3466866 0.20229708 0.47500056 0.14022942 -0.4582886 -0.06113754 0.31341338 -0.026102759 -0.3952759 0.04231238 -0.11326028 -0.34083495 -0.32175636 0.31667155 -0.059239965 -0.21723275 0.035394304 0.1241238 0.06274924 0.4549417 0.5211807 0.07614204 -0.23569597 -0.18331306 -0.03667454 -0.34606546 -0.046577822 0.5679202
Q2YDW7 0.06889232 -0.90796053 0.43435404 -0.11806782 -0.14497337 0.20805497 -0.2036028 0.003527931 0.1600792 0.24715856 0.04308689 -0.11650874 -0.6379878 0.53316706 -0.072738074 0.5081264 0.26035258 0.39909488 -0.07137374 -0.2467645 0.11433421 0.33905208 -0.16630414 -0.33321872 0.24456333 0.39391702 -0.28290787 -0.025442693 0.42223883 -0.14210962 0.21916257 0.43962428 -0.12123731 -0.07117798 0.17139587 0.01895792 0.66877586 0.102614425 0.12999412 -0.34546146 -0.36736974 0.026559481 0.6760979 -0.035409085 -0.15697002 -0.35729536 -0.22213791 -0.55960006 -0.1537097 -0.22748673 0.09532756 -0.3838207 0.27831382 -0.066069975 -0.31686902 0.032490447 0.091427624 -0.4042438 -0.29241166 -0.35866395 -0.04705419 0.06366038 0.8159904 -0.16663097
P97440 0.5295559 -0.39136177 0.45792475 0.23803456 0.21954082 -0.17334138 -0.0649542 -0.11868983 0.076766655 -0.24660921 0.15218934 0.09500369 -0.44598636 -0.1778139 -0.48795936 0.3787324 -0.2262282 0.36951458 -0.36361787 -0.047286298 -0.09787319 0.46581843 -0.11336429 -0.6132983 0.2986039 -0.04073213 -0.067878395 -0.28665286 0.1047813 0.050613035 0.12854946 0.03757131 -0.3581563 -0.42835262 0.5001438 -0.21493475 0.23870645 0.42557853 0.54580826 0.16238958 -0.42414713 -0.5843035 0.035045933 -0.014842222 -0.19990624 -0.08223086 0.06856573 -0.27427185 -0.26515383 0.29818705 -0.10554433 0.15864123 0.2125667 0.10967785 0.38054043 0.21644616 0.23364769 0.57594097 -0.23492421 0.027283004 0.13057059 -0.35106364 -0.36295947 0.022718586
P29341 0.4724037 -0.4220192 -0.16855568 0.22513825 0.4965767 -0.12816295 0.0056900494 0.17915516 0.047357414 -0.36239457 0.13762996 0.14403476 0.21156877 -0.108661585 0.24512291 0.36719915 0.36242655 -0.28557533 -0.08803299 0.27175778 -0.06617922 0.17953567 0.38500556 -0.32967958 0.08849435 0.28118363 -0.0800434 0.04347116 0.2552359 0.14876315 0.0006084498 0.5454709 -0.232367 -0.025208957 0.0014523108 0.042219356 0.24000205 0.278831 0.24164712 0.35902184 -0.113998875 0.097431645 -0.22947647 -0.21884632 -0.2083649 -0.27237448 -0.33504027 -0.17887409 -0.41740897 0.19309542 -0.084857985 -0.28456476 0.29993054 0.5292783 0.19655177 -0.08041401 0.66264826 0.104636714 -0.332699 -0.017236957 -0.10572153 -0.33380896 0.2577997 0.24682781
n411875 -0.19569744 -0.86356425 0.14742404 0.500873 0.07393216 -0.38589785 0.17843668 -0.023870403 -0.32714707 0.22957264 0.06844891 0.10425615 -0.61260295 0.3166697 0.1129225 0.7412404 -0.48248455 -0.05843844 -0.010631167 0.5017259 -0.2038532 0.36307603 0.3606264 -0.41158038 0.3915483 0.0255247 -0.17393996 -0.3828903 0.62045443 -0.4637122 0.36563793 -0.23389131 -0.30828696 0.6468368 -0.07945822 -0.085465506 0.4093389 0.29776734 0.27056998 -0.3506766 -0.07229057 -0.17366089 -0.0141667 0.40319705 0.1553522 0.36995578 -0.6227821 0.18731265 -0.091914624 -0.43940693 0.0588814 0.01576059 0.5844329 0.365829 0.50677025 0.22770639 -0.08999667 -0.29330498 -0.027985588 0.12939803 0.023268335 0.28036606 0.33087263 0.61325294
n5015 0.23613536 -0.050515916 0.32326967 0.2926841 0.34803843 -0.52860796 -0.47967616 -0.23210865 -0.44399276 0.15978208 0.2658993 -0.66103804 -0.31188112 0.12342 0.35719562 0.38442248 0.51291096 0.30688533 -0.007594072 0.4379172 -0.06940877 0.6627374 0.31895253 -0.8169925 -0.30994624 0.22025625 -0.15174894 0.41570976 -0.0851019 -0.44341522 -0.23681669 -0.03480937 -0.032438654 0.38887337 -0.14581859 -0.02447023 -0.060013473 -0.2492637 -0.14644611 0.29087296 -0.5114653 0.32945323 -0.080316626 -0.26040336 -0.019104866 -0.3120508 -0.02465726 0.03023625 -0.090638764 -0.009500405 -0.16270047 0.5526935 0.78681934 -0.65532994 -0.0946791 0.12702312 0.46154362 0.2079071 0.045826837 0.277314 -0.07208648 -0.35359624 -0.10377659 -0.047750495
n422923 0.31485254 -0.05037913 0.35319534 0.14306971 0.29873323 -0.37248683 -0.62558025 -0.29034388 -0.39055493 -0.20303784 0.38414377 -0.972404 -0.30536216 -0.086154014 0.12055066 0.7011119 -0.22651751 0.41637626 -0.40465376 0.35329378 -0.15649088 0.6231819 0.23630425 -0.63725245 -0.41163865 -0.48683572 -0.16129074 0.07562567 0.14252913 -0.28910983 -0.15510161 0.040953826 0.029360127 0.22941075 -0.29483986 -0.12644519 -0.33413982 -0.17661646 0.28703848 0.335973 0.057472497 0.1992131 -0.038630918 -0.28342173 0.23200469 -0.22198215 0.0990624 0.10169945 -0.38375315 -0.39018545 -0.42092025 0.34661266 0.6439584 -0.44479597 -0.07300644 0.20134023 0.7862327 0.4177837 -0.02178817 0.11730013 0.084328845 -0.5910234 -0.3354096 -0.20646305
n285153 0.6295105 -0.08412376 0.7176644 0.20263642 -0.31847918 -0.21916582 -0.54726976 0.18951397 -0.3938105 -0.07408539 -0.48878825 -0.21436098 -0.67056113 -0.78651804 0.35952574 0.324978 0.16516225 -0.29554024 -0.07268501 0.028228289 0.4762611 0.16387166 0.6330626 -0.28965512 -0.20963919 -0.09313562 -0.008482936 0.32506254 0.17951481 -0.15611139 -0.0013926522 -0.290893 -0.25092393 0.37132445 -0.3882951 -0.6153906 0.2978277 0.0019507522 0.21182278 0.1873709 0.029103488 0.18188386 -0.073690176 -0.53202164 -0.18562484 0.18976374 0.24021801 -0.041352384 -0.023745252 -0.013086639 0.0063414783 -0.39237556 0.6487194 -0.023464046 0.21958597 -0.24099566 -0.48996368 0.07819467 -0.27244416 -0.11510736 0.21670762 0.30292693 0.14237158 0.27026054
Q9Z2D6 0.16190405 -0.28443474 0.31622013 -0.037445698 -0.03859997 -0.065764055 0.21044727 0.21760203 0.21432242 0.4771758 -0.2728606 0.07104246 -0.3572746 0.010620549 0.073238835 0.43449968 0.17021008 0.14823303 -0.21186687 -0.0764073 0.10853001 0.5328382 0.20097524 -0.07477376 0.043392565 0.2345802 -0.21353711 -0.11749001 0.8295808 -0.20668082 0.09951901 0.008377378 -0.026148759 -0.23538037 0.038521484 -0.016901787 0.57344806 0.13152285 0.36114985 -0.078450516 -0.20047404 -0.10657675 0.35562578 -0.011426714 0.012074522 0.044747215 -0.31125855 -0.35571536 -0.15314524 -0.37961587 -0.18330969 -0.13294123 0.1157492 0.1858447 0.22694293 0.32195988 0.13613465 -0.23487309 -0.20882952 -0.24588218 -0.14015079 -0.3172786 0.22465369 0.022734035
n5847 0.35454577 -0.11436893 0.098208226 -0.11119009 0.25351545 -0.34794572 -0.11009556 0.2794079 0.11707361 -0.3477037 0.14679116 -0.21869564 0.2809193 -0.1234859 0.2449857 0.2914937 0.11336585 -0.0023490572 -0.0071196607 0.07781201 0.15049335 0.4433107 0.39259022 -0.46615818 0.16957386 0.107620396 -0.30860335 0.11524937 0.35362813 -0.19492793 -0.008716688 0.06921377 0.04877646 -0.37955546 0.13896696 -0.21179767 0.19036554 0.18854998 0.37182334 0.055078756 0.12261601 -0.16349123 0.2033066 -0.2505618 0.26962176 -0.2244833 0.11716201 -0.5344206 -0.40668136 0.21934336 -0.5036599 0.17290926 0.05092063 0.2368583 0.34240022 0.09096257 0.27505493 -0.18267365 -0.3456636 0.58414406 -0.23499897 -0.33538306 0.078265175 0.17054696
n4616 0.40837723 -0.33360472 0.43774045 0.17200597 -0.22108668 -0.48848003 0.052138813 -0.14247651 0.14708394 -0.4056995 0.25009224 -0.46454254 0.1937943 -0.23863465 0.1537708 0.021410119 0.062480807 -0.23945239 -0.26760352 -0.027120702 0.29649556 0.43796477 0.48998365 -0.18864278 -0.18149969 0.041622303 -0.2541872 0.08646509 0.21049105 -0.29996392 -0.0790504 0.30608395 -0.0067023598 -0.3959749 0.5287072 -0.29694474 0.23739666 -0.111627124 0.18117146 0.23001516 -0.12980735 0.036164988 -0.08519682 -0.0076580285 0.04913925 -0.23375985 -0.018164068 -0.40761563 -0.27548432 0.26646763 -0.18703973 0.15208252 0.13865769 0.36291417 0.36681798 0.3788084 0.45792505 -0.1916301 -0.19250768 0.68994445 -0.037260547 -0.6194074 0.35444745 0.029157633
n5788 0.40453893 -0.1098287 0.44205707 0.059537135 0.43747118 -0.43737385 -0.28151533 -0.076121554 -0.67982167 -0.12667191 0.3978155 -0.85057634 -0.432509 0.1696402 0.32421887 0.613368 -0.08497718 0.67721814 0.2809725 0.4249499 0.08011415 0.75982505 0.4240428 -0.5614815 -0.73590565 -0.34525728 -0.10925426 0.10038761 -0.1033107 -0.43537655 -0.2445995 -0.1671844 -0.056925673 0.1624814 0.008096841 -0.04280465 -0.24080452 -0.15705682 0.024937844 0.24085593 -0.015786203 0.12390395 -0.14848103 -0.32565504 -0.09688404 -0.23314 0.10760825 -0.377767 -0.18307762 -0.09159231 0.08114448 0.40503827 0.81891716 -0.32158306 0.25940514 0.14359756 0.5930183 0.40790176 0.11685463 0.065502785 0.19446968 -0.35506526 -0.14826329 -0.25331628
n5450 0.5629841 -0.45007926 0.14041989 0.24940737 -0.18316878 -0.5800903 0.42303473 0.30776897 -0.05641969 -0.31084543 0.102586105 -0.40275705 0.28643757 -0.34391958 -0.17072682 0.49568865 0.36349544 -0.006595785 0.17583871 -0.21286406 0.06708825 0.50087696 0.123369366 -0.44481173 0.082048185 0.3467983 -0.15674981 0.41807222 0.4643425 -0.25409862 0.22844693 0.28826466 0.087333806 -0.38159502 0.4076743 -0.22189358 0.04566823 -0.012390782 0.14716148 0.34351668 -0.0060877223 0.016002398 -0.19190288 -0.14758866 -0.15236823 -0.12606841 0.1282607 -0.11508616 -0.004215801 0.17653534 -0.08820299 0.2750761 0.24463464 0.16176905 -0.38813567 0.29724243 0.06741425 0.2990772 -0.24108514 0.36861438 -0.06938441 -0.26666632 -0.042570308 0.065598905
n292646 0.516577 0.041113686 0.0041702176 -0.30223367 -0.36852884 0.0791829 0.18601741 -0.535896 -0.21401177 -0.13099685 0.2922357 0.07283031 -0.7336088 0.09088311 0.06836539 0.37546864 0.03422436 -0.150182 -0.1742465 0.9397222 0.41017127 0.2562074 0.2608866 -0.60566044 -0.096613035 0.22090733 0.1325601 0.40279636 0.5092094 -0.23592828 0.3076307 -0.08975565 -0.1655975 0.2082258 -0.104666494 0.1615213 -0.120786905 -0.2446484 0.17375237 0.5895285 -0.21941969 -0.21602556 0.5790822 0.681959 0.14430976 0.18288101 0.19817965 -0.4706525 0.035413206 -0.60721713 -0.47310665 -0.42381528 0.2380884 -0.41290322 0.03709071 0.38068372 0.37695864 -0.17435713 0.20030272 -0.0777837 -0.23111627 -0.651946 -0.016696954 -0.13278255
n4680 0.08346491 -0.27430892 0.11687014 0.1241699 -0.14422734 -0.45805904 0.15371898 -0.22315896 -0.19892953 -0.45333767 0.13546166 -0.5415372 0.042865254 -0.27483153 0.039128207 -0.015327842 0.009283614 -0.29664803 0.027281236 0.06769062 0.18219395 0.5289615 0.14339805 -0.21355608 -0.19196364 0.14543453 -0.20714815 -0.03759178 0.123678826 -0.090931214 0.010797391 0.43804973 -0.009401122 -0.16238843 0.18705212 -0.14701803 0.21111786 0.010598928 0.5936046 0.26655588 -0.23354512 0.24221334 -0.16118191 -0.30889887 -0.082630426 -0.19035022 0.35799268 -0.22682105 -0.027207125 0.11407853 -0.29791355 0.06807541 0.20355566 0.20653169 0.3464979 0.26239735 0.48158374 -0.045491036 -0.50445676 0.44591475 -0.14974442 -0.4544406 0.22293557 0.18255645
n413826 0.046500508 -0.20365173 0.17125288 0.2895328 0.40735853 -0.5003065 -0.3968662 -0.056070894 -0.30606562 -0.21120556 0.102819815 -0.76637584 -0.5383271 -0.09294508 0.14778483 0.37305847 0.14055002 0.63897264 -0.077612825 0.21194129 0.15831946 0.77562785 0.4401622 -0.6894171 -0.19456306 -0.11671493 -0.21568736 -0.11747484 0.10449748 -0.55189323 -0.19259025 -0.13556994 0.09722062 0.2206754 -0.24322101 -0.28537244 -0.52469856 -0.38055173 0.07163608 0.02437026 -0.5145203 0.123596445 -0.20303176 -0.37580228 -0.07095234 -0.45751578 0.0016379259 -0.354551 -0.34965205 -0.23566765 -0.30988124 0.5083314 0.75074655 -0.51995754 0.020384813 0.16898614 0.26382637 0.4266782 -0.07387907 0.2066625 -0.13686536 -0.37188727 -0.19568023 0.11203103
n282423 0.25375077 0.014912866 -0.41785985 -0.17360783 -0.6202652 -0.06810982 -0.009137091 -0.40344897 -0.13414624 -0.30311435 0.1139409 -0.2601957 -0.6212293 -0.13963549 0.22385019 0.4579457 0.09808338 -0.17290463 -0.17913489 0.783398 0.13886103 0.28393498 0.5537721 -0.6197921 0.051470414 0.38369036 0.41318431 0.53264344 0.37600312 -0.1891346 0.48352668 0.067730114 -0.35708618 -0.037563145 -0.37768495 -0.26710346 0.094000466 -0.35160476 0.062357794 0.20983389 -0.26750225 -0.20402835 0.37077948 0.4273124 -0.35030186 0.10985066 0.060544685 -0.5145976 0.038958427 -0.3715569 -0.28205338 -0.5729993 0.4319466 -0.38588268 -0.12003918 -0.1651777 0.4486462 -0.1438932 0.13690063 0.34379497 -0.1101493 -0.43120587 -0.30348977 -0.19466077
n4679 0.34999162 -0.45677105 0.31075 0.15283638 -0.021890003 -0.56420976 0.15621956 -0.0032516862 0.052710135 -0.39587805 0.2590942 -0.30752805 0.21514127 -0.38628358 0.06630176 0.13647862 0.14097616 -0.15448134 0.0140166655 0.0794767 0.4144762 0.27119702 0.09117367 -0.28346652 0.026702309 0.16604514 -0.43740484 -0.1265212 0.15894318 -0.03179418 0.23973696 0.2602231 -0.09740231 -0.14786766 0.1209946 -0.10401905 0.092770144 0.15327534 0.23892325 0.22981147 -0.058971535 -0.009767487 -0.15769747 -0.20826182 -0.10134161 -0.109175675 0.25151315 -0.5836266 -0.113492034 0.27236524 -0.16515908 0.13094495 0.26782396 0.2763342 0.02970524 0.3432937 0.6679977 0.17093812 -0.4078746 0.32009867 -0.10049651 -0.38218796 0.18738939 0.007936052
n2156 0.013578666 -0.15079314 0.012357672 0.35218787 0.23344727 -0.24964271 -0.28914753 -0.16990097 -0.33117634 -0.013279188 0.40707055 -0.74118435 -0.36098087 -0.14313519 0.3728319 0.39922652 -0.038202778 0.3739134 0.04484052 0.16975914 0.31964815 0.8058183 0.50341195 -0.5281728 -0.28826213 -0.23842812 -0.17170477 0.052601643 -0.067561336 -0.3807575 -0.22002992 0.055224832 0.28356904 0.22933169 -0.2960296 -0.54323655 -0.5516833 -0.0847707 -0.064244024 0.23165253 -0.14415437 0.1698178 -0.43089756 -0.10626549 -0.005108151 -0.5842845 0.28715384 -0.47276732 -0.068569146 -0.2570878 -0.13595493 0.3482795 1.0037123 -0.30623996 0.08452546 0.14572702 0.5519549 0.28279278 0.059666336 0.27266827 -0.3165341 -0.2715443 -0.045344543 -0.042190474
n292289 0.528394 -0.40263417 0.26777685 0.045448296 -0.39794314 0.5600258 0.09619887 0.029423391 0.06633448 0.14703408 -0.11730159 0.23790765 -0.3357104 0.07615508 0.061732102 0.735462 -0.2926149 0.550567 -0.43341905 0.46925086 0.2852768 0.8198924 0.41395953 -0.41234267 -0.28724355 -0.6762973 0.28435382 -0.22684216 0.30362913 -0.17715201 0.40142488 0.38779494 0.07720905 0.6992953 0.06423383 0.24214636 0.57142013 0.6539568 0.08933142 0.5663295 -0.44250542 0.2683465 -0.11201649 -0.2845262 -0.29872155 -0.20132335 -0.023296352 0.036405534 -0.25732717 -0.18459044 0.37624764 -0.49337462 -0.20178206 0.0075867847 -0.25611 -0.14715901 0.3020264 -0.68676615 -0.1396856 0.35169962 -0.3393503 0.079668604 0.18519029 -0.44319674
n289292 0.083231024 -0.5027516 -0.17444818 -0.08852207 -0.16490246 -0.12664953 -0.06374206 0.3367885 -0.48064673 0.1916759 -0.5579996 -0.7189364 -0.25926626 -0.6013437 -0.025283221 0.4208044 0.2848606 0.41285294 0.10601352 0.45981762 -0.32614887 0.6910515 -0.042821676 -0.18999662 5.1443865e-05 -0.42101005 0.27658227 0.10145407 0.16578819 -0.18937115 0.20599876 0.23058042 0.26926485 0.089989066 -0.17634411 0.043436583 0.28717676 0.14654398 -0.08432475 0.47898567 -0.5882044 -0.17995359 -0.15353878 0.050191104 0.20954874 0.14454946 0.2899495 0.16115522 -0.09790838 0.4440882 -0.065157376 -0.34227085 0.5827045 -0.21648517 -0.2749679 -0.11968048 0.44102022 0.29832983 0.002965527 0.07568821 -0.45297277 -0.2425306 1.0353595 -0.10857049
n415906 0.35944667 -0.17923328 0.46663815 0.32214114 0.5224498 -0.52275497 -0.36787996 -0.05926941 -0.4744573 -0.06922651 0.07398072 -0.6771705 -0.39386347 0.10590026 0.16519183 0.48007962 -0.10720787 0.51104826 -0.044021446 0.13923527 0.24817929 0.607563 0.061725553 -0.5470113 -0.33892658 -0.3766653 -0.011561967 -0.1180571 0.17871882 -0.23702894 -0.18339622 -0.13804524 -0.015479405 0.105569504 -0.21337014 -0.2194574 -0.22262105 -0.07030444 -0.17180997 0.34271815 -0.11025498 0.06572173 -0.2292719 -0.41047758 -0.18967816 -0.27561593 -0.13287722 -0.26753536 -0.18875016 0.030570246 -0.12585731 0.51608264 0.7447304 -0.5027563 0.38636032 0.13984653 0.59797823 0.5951657 -0.09396623 0.3377673 0.011010868 -0.664493 -0.26035884 -0.14333104
n413798 0.15258914 -0.13188782 0.55292463 0.4869494 0.20206289 -0.23749927 0.051755138 0.19194676 -0.47008702 0.4907268 0.3968594 -0.8051365 -0.18040335 -0.19828597 0.011777534 0.3946141 0.4723928 0.5566672 -0.15226533 0.26023158 0.17906399 0.8195524 0.5786617 -0.8608354 -0.37414187 -0.28091353 -0.0018544404 0.16965768 0.10254487 -0.17101538 -0.11495718 -0.214009 -0.15798846 0.0909052 -0.44101396 -0.03488567 -0.38645223 0.056377824 -0.33056742 0.2107799 -0.11870877 0.16736467 -0.04936219 -0.42553976 -0.06676967 -0.39187142 0.07795785 -0.38803568 0.08509535 0.09560161 -0.30120432 0.52419055 0.7067185 -0.7591315 0.41159168 0.048892543 0.37551293 -0.019800443 -0.040311974 0.37297457 -0.08529672 -0.36027938 -0.31662625 0.26171654
n4683 0.071164615 -0.1343442 0.0997084 -0.04905301 -0.11981622 -0.5318688 0.2519967 -0.14283 -0.08878208 -0.48904228 0.10397107 -0.58685476 0.15520892 -0.28533635 0.0060995524 0.15584995 0.028595507 -0.01414607 -0.09195781 0.3067752 0.13299963 0.5161767 -0.08432934 -0.24850258 0.033510655 0.2581756 -0.32912192 -0.22091559 0.39823142 -0.07616626 0.45267832 0.2651833 -0.44855434 -0.12953278 0.2790825 -0.05594963 0.28500983 0.021390386 0.5131468 0.31878942 -0.20749453 0.083622865 -0.23179276 -0.19288929 -0.27642286 -0.14556973 0.22853819 -0.22569288 -0.11077012 0.2931137 -0.33261278 0.16066918 0.38901773 0.33035764 0.030181898 0.28064412 0.5526506 0.023235051 -0.4989977 0.4272696 -0.09679286 -0.4007786 0.15221882 0.26876038
n2157 0.22159317 0.06290592 0.20158781 0.18565817 0.3144478 -0.77002084 -0.38898116 -0.37425667 -0.47854045 0.298703 0.3354377 -0.5303833 -0.35596046 -0.02906094 0.51470155 0.43289548 0.12444041 0.60710096 -0.07947132 0.12948878 0.3462766 0.80024993 0.15682945 -0.6662337 -0.35989264 -0.13514467 -0.26847732 0.057737183 -0.08789235 -0.44725192 -0.044634588 0.15564987 0.08206746 0.33265692 -0.22452658 -0.25965184 -0.21936986 -0.11551131 -0.102628134 0.30979916 -0.027393436 0.2531 -0.56844795 -0.15341288 -0.18012659 -0.21295652 0.22668032 -0.29039684 -0.0024868054 0.18652384 -0.19680195 0.3359122 0.6253158 -0.70170677 -0.0391354 0.133685 0.5562923 0.08098596 -0.08444648 0.18813679 -0.038068123 -0.45161653 -0.25783336 0.010454047
n4681 0.07783624 -0.30785778 0.38685963 0.37084454 -0.2828984 -0.35263216 0.14934297 0.08394832 0.00075536285 -0.40341765 0.2659504 -0.57757676 0.30710995 -0.3578696 -0.28847227 0.13597877 0.43473512 -0.30356267 -0.1946395 0.102061525 0.08750299 0.41524243 0.02972497 -0.60163295 -0.18753633 0.51791584 -0.241594 0.15879433 0.22856705 -0.25684637 -0.08848595 0.15980649 -0.32330602 -0.34147298 0.10204204 0.095996626 -0.024347145 0.0030520626 0.26085758 0.22568733 -0.067490645 0.14614913 -0.21981545 0.02802438 -0.3080951 0.038987387 0.13021353 -0.0068395156 -0.36104766 0.41712347 -0.32995647 -0.005945222 0.37413803 0.12838331 0.09830655 0.25561616 0.50104505 0.0031275311 -0.8730735 0.4374904 0.06440108 -0.39343393 0.474461 0.09366737
n4341 0.6201547 -1.0251867 0.77410376 0.5319278 0.070531175 -0.55498725 -0.1150717 0.12878908 -0.69578743 -0.2327297 -0.06467375 -0.66216034 -1.0180612 -0.39525226 0.21790199 1.3530334 0.15312535 -0.08986464 -0.19125478 0.57327724 0.6943016 1.6616184 0.9752303 -1.6107589 -0.014008473 0.2823795 -0.44392198 0.290146 0.94636214 -0.5299918 0.5317635 0.2862461 0.056094404 0.35762262 -0.060001984 -0.32915032 0.9066758 0.35111186 0.69913244 0.53797024 -0.2278049 0.25330153 0.35453466 0.1337083 -0.15066417 -0.4058061 -0.09312512 -0.45087188 -0.44673753 -0.26668444 -0.43642244 -0.1275041 0.7531827 -0.13861613 0.02965688 0.058024164 1.0792085 -0.33916083 -0.3873789 0.19934098 -0.32551572 -0.691005 0.63864493 0.16585594
n414643 0.6352187 -0.98888856 0.79101324 0.5348591 0.08478034 -0.5560733 -0.10116802 0.15061742 -0.6870091 -0.22972634 -0.04964322 -0.63237065 -1.0231919 -0.3758675 0.23311727 1.3483509 0.1616105 -0.087956265 -0.16986582 0.53915846 0.68768114 1.6583163 0.9542697 -1.5954818 -0.0039069173 0.25317758 -0.44552115 0.2736287 0.9232384 -0.50471395 0.5303124 0.30122232 0.075651996 0.38761538 -0.046274986 -0.30541548 0.9154148 0.36720034 0.70463127 0.5436877 -0.25123954 0.28112173 0.3611779 0.13897093 -0.17467064 -0.40451044 -0.097919196 -0.43011937 -0.46252128 -0.25776637 -0.40511218 -0.11366465 0.7324683 -0.14307363 0.048882343 0.04271098 1.0627959 -0.3480267 -0.3803874 0.19411689 -0.30571085 -0.697737 0.6250379 0.17188156
n294378 0.045526408 -0.23478717 0.22191712 -0.094264396 -0.5689542 0.5342777 0.006871698 0.10922929 0.09328047 -0.0888471 -0.029437665 -0.07428558 -0.7600178 -0.05152031 0.10267866 0.6474621 -0.018937226 0.12781997 -0.26050925 0.81416845 0.24917567 0.32396165 0.41487873 -0.64513534 0.078050226 0.39648157 0.20297036 0.003913145 0.25333118 -0.26282185 0.31404394 -0.15698805 -0.20636316 0.0025241303 -0.22062401 -0.16730613 -0.29003888 -0.38955316 0.083283655 -0.17388676 -0.035265673 -0.22169778 0.70254934 0.3087859 -0.34064817 0.037675895 -0.34511685 -0.4265802 0.16298783 -0.4328529 -0.1590697 -0.6829166 0.030051697 -0.16566744 -0.40774232 0.033819392 0.46465912 -0.060136285 0.26691273 -0.009584452 -0.15770097 -0.48135898 0.36004493 -0.036613908
P97474 0.51950383 -0.37738255 0.34052956 0.43055868 -0.2448454 -0.19488554 -0.07151172 -0.36185116 0.37374756 0.040768962 -0.5308848 0.27628118 -0.21161766 0.14885923 0.50689346 0.5343592 -0.42129675 0.4435757 -0.5681752 -0.18744794 -0.023884462 0.4889923 0.3391198 -0.25000638 0.53821385 0.32527226 -0.26701537 0.22363776 0.46937197 -0.0052371495 0.042381115 0.2294601 0.14875904 0.32661957 0.47133848 -0.14830853 0.4369991 0.26032898 0.55213034 -0.08016065 0.32740262 0.033024833 0.34015095 0.10934526 -0.14459477 -0.05635123 0.025479406 -0.053359367 -0.21277349 0.043424383 -0.05167866 -0.7206294 0.4762337 -0.34918135 -0.089519195 0.7204863 0.22026777 0.18303332 -0.5111204 -0.63490546 -0.5365573 0.0055881687 0.88105726 -0.018413663
n413266 -0.25423998 -0.09976395 -0.087758094 0.05106883 -0.41349432 -0.16639559 0.008379885 -0.23828994 -0.28503522 -0.74334735 -0.008076768 -0.11756898 -0.7338089 -0.056291524 0.16601844 0.36403966 0.42857155 -0.038531143 -0.21522364 0.9935083 0.2158637 0.4350294 0.37297425 -0.5657181 0.07042644 0.38304716 0.054705232 0.3142914 0.5868675 -0.41089723 0.49028745 -0.15356232 -0.028344307 -0.013729073 -0.12851423 -0.37564832 -0.15290476 -0.1474392 -0.08240244 0.039590687 -0.059164125 -0.047514774 0.33946955 0.6788554 -0.17622486 -0.15543446 0.25879586 -0.63111484 0.12548871 -0.13745049 -0.22982153 -0.65742224 0.4570361 -0.47975516 -0.34396714 -0.3664776 0.46798244 -0.15792601 0.10393765 0.17047094 0.0047441935 -0.249842 -0.37584287 -0.018513478
n419134 0.1701148 -0.10197123 0.26698175 0.29165748 0.65002 -0.5081042 -0.2826755 -0.27310213 -0.26133057 -0.64130396 0.19940504 -0.54590553 -0.5986148 -0.030304592 0.16809705 0.52246183 0.102223314 0.37907925 -0.27114278 0.082773045 -0.675765 0.41967115 0.41834927 -0.92293215 -0.16224276 -0.44383812 -0.26811835 0.10611646 0.14582114 0.0426162 -0.1347451 -0.1817569 0.19528146 0.53924054 -0.17198797 -0.25091922 0.012458555 0.33527216 0.3086452 0.8903507 0.00935283 -0.164695 0.1098787 -0.16094688 0.26417536 -0.3369528 0.38683695 0.4014512 -0.29744563 -0.028405968 -0.22937292 0.0011754234 0.19088005 -0.26176828 -0.3221045 0.31842777 0.9663711 -0.021215523 0.026483785 0.15109396 0.2855787 -0.4992729 -0.3785025 0.007528749
n423086 0.22919092 -0.37527907 -0.18704577 0.19871596 0.27232665 -0.6473931 -0.63086915 -0.10957054 -0.6013777 -0.5075877 0.0050758864 -0.5346873 -0.20741072 -0.042896263 -0.15503599 0.19180274 0.2422016 0.1975102 -0.048444524 0.2917582 -0.022509279 0.6260587 0.3649787 -0.6562148 -0.2678868 0.03030423 -0.17280485 0.25071228 -0.12891498 -0.57316667 0.12760457 0.0929113 0.31018722 0.5010412 0.0464363 -0.2860823 -0.31736717 -0.08196418 0.25204787 -0.16094148 -0.27484125 0.22576506 -0.19671004 -0.20004939 0.35131255 -0.23138797 0.08760769 -0.053039454 -0.019498367 -0.14858039 -0.054069504 0.21544437 0.5114834 -0.51664317 -0.110849544 0.044542976 0.44242737 0.07008403 -0.19455734 0.19801489 0.3161913 -0.6527067 -0.21780783 0.059760075
n281502 0.27493945 6.569011e-06 0.4906219 0.3493231 -0.3376815 0.096322656 0.24752094 0.017689362 -0.40815476 -0.050313875 -0.26710305 -0.1504918 -0.6224988 -0.053870004 0.636188 0.3777237 -0.18653175 0.092174456 -0.20552711 -0.06441766 0.17768805 0.34987736 -0.19855992 -0.53408825 -0.10521736 0.20901038 0.09328104 0.21338838 0.6373578 -0.21061763 0.2834359 -0.34622604 -0.2842094 0.33068904 -0.25718862 0.07173366 0.11844024 0.21176423 0.4291706 -0.3612156 -0.27326652 -0.18083397 0.066064015 -0.31610635 0.032293126 -0.3048509 -0.2843781 0.050812494 -0.3821346 -0.65868217 0.2287888 -0.4328696 0.19495592 0.28404918 0.59944224 -0.035557147 0.04679025 -0.11897032 -0.0264326 -0.15379435 0.106565244 0.34781262 0.6688879 0.030256199
n423775 0.227736 -0.34575403 0.35016793 0.22380255 0.29851326 -0.48983544 -0.6011572 -0.53104144 -0.6489405 -0.014614145 0.31660333 -0.8518805 0.018022267 0.045312505 0.50226575 0.4255038 0.11325424 0.3252749 -0.24506149 0.14412601 0.26967278 0.62475246 0.5446806 -0.87659734 -0.30734012 -0.27479577 -0.3825296 0.14682458 0.102313906 -0.7681431 0.057149135 0.2097611 0.47391146 0.17812839 -0.10951406 -0.15454753 -0.44917935 -0.2962146 0.037401028 0.19265446 -0.13642563 0.096061036 -0.053233262 0.041587565 -0.083661005 -0.32131097 0.075386 -0.07013361 0.0022181324 0.2142267 0.026823444 0.37129053 0.17130902 -0.7668666 0.20509142 -0.00011172099 0.16005246 0.0710019 0.12735875 0.35711768 -0.108148955 -0.7888737 -0.0834952 -0.1872069
n423450 0.16275686 -0.3525086 -0.042915873 0.23215048 0.32691097 -0.2929912 -0.6781491 -0.26725647 -0.1999943 -0.33750856 -0.18406795 -0.5764931 -0.346488 0.22402555 0.027787982 0.83015275 0.6864042 -0.021969073 0.0142281875 0.53728664 -0.331881 0.928417 0.45451877 -0.5355976 -0.19465466 -0.12492153 -0.34579498 0.32710272 -0.07564485 -0.28862438 -0.004973514 -0.087371975 0.06865574 0.20740438 -0.29897365 -0.46512082 -0.40254664 0.03410113 0.08213331 0.25360286 -0.21830222 0.20566392 -0.24786744 -0.3869859 0.046188105 -0.14291191 0.34847924 0.009478378 -0.29753226 -0.18186179 0.13399135 0.2637907 0.41115275 -0.554674 0.07264052 0.1801504 0.33046567 0.38485935 -0.13440298 0.113556795 0.26596266 -0.88426465 -0.20268059 -0.35619473
n282401 0.9196249 -0.12712583 0.007425877 0.44526342 -0.22396585 0.27720347 0.0037554153 0.25169006 -0.25191787 -0.1162606 -0.2952654 -0.23914051 -0.57710385 -0.10395194 -0.46984288 0.7576774 0.2937131 0.45467234 -0.195411 0.24598494 0.061246675 0.6205784 0.45013478 -0.43066785 -0.2136836 -0.7082682 0.5019954 -0.6022923 0.1803773 -0.5056167 0.30014026 0.27514452 0.3505679 0.616053 -0.07697587 0.03163738 0.3414205 0.3319811 0.015632728 0.7343 -0.24743402 0.10865304 -0.20097496 -0.05033353 -0.12313042 -0.1984003 0.08072025 0.110617995 0.022664066 -0.22651546 0.5930924 0.051170737 -0.06754953 -0.18936604 -0.1304375 -0.30941617 0.5940502 -0.27660576 0.24120176 0.46973503 -0.52207243 0.2152719 0.1435192 0.06306137
n422824 0.05311355 -0.33899516 0.059348915 0.49992973 0.57423747 -0.6462663 -0.44210604 -0.24883021 -0.40565506 -0.39946645 0.10603408 -0.5754847 -0.5089875 0.028738318 0.15817566 0.5580869 0.25039 0.5072085 0.34225026 0.497557 -0.38917986 0.7829839 0.35875788 -1.0828129 -0.18155764 -0.42315865 -0.31346986 0.2930043 0.082904615 -0.18548466 -0.18776953 0.094245605 0.17384568 0.6563208 -0.1623357 -0.37294513 -0.30622315 -0.03964161 0.35804564 0.43595183 -0.14813834 0.021852734 -0.23849674 -0.26933873 0.5254612 -0.3173566 0.1723726 -0.13830371 0.07425 -0.15773907 -0.12473117 0.45451936 0.48725528 -0.596226 0.03950528 0.41824374 0.8115392 -0.104641736 -0.122109435 0.18447593 0.5035132 -0.4687866 -0.32395932 -0.11911971
n281201 0.093785115 -0.21254964 0.031952266 0.16504021 0.20324774 -0.5628559 0.02849487 0.048883475 -0.8114072 -0.5017622 0.011265151 -0.15495104 -0.56518304 -0.6528164 -0.07154644 0.3203868 0.1311725 0.007847597 0.3369238 -0.11023193 0.2900979 0.6245418 0.26794067 -0.17816353 -0.24396545 0.14190921 -0.6593419 0.18781266 -0.14682475 -0.6000323 0.14722301 -0.20634814 0.20822068 0.17192794 -0.29327545 0.12749495 0.40311947 0.39363673 -0.21896559 0.11239683 -0.33515844 0.8094698 0.0314235 -0.14431395 0.124548726 0.16537994 0.14655744 0.0017032158 -0.19234683 0.039129127 -0.76366365 0.011580602 -0.09172605 -0.1440253 0.089580745 -0.11345109 0.27630013 0.23696178 -0.122509465 0.13889918 -0.37781695 -0.17017762 0.0068677794 -0.23886417
n417339 -0.11879102 -0.26695973 0.43143165 0.42542118 -0.18897685 -0.22108854 0.35748535 0.3165892 0.0068394262 0.09360696 -0.40213272 -0.57985145 -0.5270035 0.21656676 0.39037746 0.66075826 -0.28430542 -0.030869339 0.067883916 0.37003502 0.9700136 0.7179435 -0.09937614 -0.7207872 0.39504167 0.7359574 -0.25024408 -0.6577422 0.709881 -0.012277878 0.048803058 -0.030904185 0.26934302 0.213108 -0.15093547 -0.02153908 0.38514838 0.16230272 0.24286431 0.12036297 0.26567695 -0.010244385 0.3898947 0.6550544 -0.64829856 -0.10589076 0.28840438 -0.36711612 -0.08826389 -0.1773159 0.013777072 -0.95656997 0.291148 -0.5144322 -0.5336364 -0.5952615 -0.004885941 -0.20591982 0.092168316 0.12616561 -0.065353855 -0.41024038 -0.49880904 -0.20048575
P97767 0.37318414 -0.3431271 0.19213322 0.22523947 -0.18739888 0.046152998 -0.30572087 -0.057196088 0.33921424 0.17505856 0.07690182 0.2522667 -0.1644034 -0.01838529 0.163403 0.5312805 -0.3900823 0.11312583 -0.78362006 -0.046838634 -0.15118603 0.5601635 0.48590878 -0.3318084 0.3273842 0.46176925 -0.22149342 -0.21309948 1.1745647 -0.095564805 -0.27173597 0.5465787 0.6387642 0.17565443 0.057903662 -0.117070876 0.6687478 0.4766626 0.61392033 -0.2106177 0.13094999 0.18996307 0.22554907 -0.04648125 -0.26788992 -0.19067492 -0.30629405 -0.15160403 0.063809775 -0.011598472 -0.052014172 -0.29170114 0.39060634 -0.6470223 0.15217246 0.2882403 0.12684785 0.31628105 -0.08664975 -0.5775636 -0.30999407 -0.13873649 0.7124029 -0.30879763
n4684 0.12265154 -0.36007062 0.47225088 0.08822798 -0.016849384 -0.35822088 -0.17373174 0.03540585 -0.089899965 -0.3660249 0.037060995 -0.11359859 -0.06920215 -0.07138025 0.11509714 0.04978656 -0.011610409 -0.37233075 0.011059198 -0.024323802 0.19439296 0.30285552 0.08308679 -0.3376514 0.07877135 0.32323346 -0.43111882 0.13255917 0.3132649 -0.24006438 0.012868827 0.39849764 -0.017197745 -0.1177493 -0.04740265 -0.11296266 -0.07275644 0.065729536 0.24159533 0.3342707 -0.16859582 0.16549106 0.061946377 -0.36840752 0.13466501 -0.0975925 0.3083463 -0.22918925 0.039506406 0.55303603 -0.14028285 -0.118431054 0.12559895 0.046760466 0.19431622 0.19257762 0.6431062 0.1938598 -0.02602115 0.649269 -0.15659457 -0.33565626 0.28781593 0.28157035
n292173 -0.43984336 0.3215841 0.44364032 0.56813127 0.18128195 -0.14797114 0.054144595 0.45075944 -0.44097644 0.0019061868 -0.38599628 -0.8372312 -0.32413837 0.28419986 -0.07109282 0.7047856 0.06823824 -0.52679795 0.3658611 0.33508304 0.8172557 0.8516902 -0.30404758 -0.9233973 0.109516434 0.7366261 -0.07269294 -0.4040514 0.677739 -0.1816973 -0.07011879 -0.21693677 0.3152437 0.23881884 -0.22163042 -0.14333056 0.38156646 0.23094994 0.18326253 0.7382916 0.21830599 0.057853952 0.09993562 0.23081377 -0.23060447 -0.44009396 0.53906643 -0.071621865 -0.51841503 0.039021574 -0.20479855 -0.6207621 0.3106535 -0.5032894 -0.24889283 -0.36907503 -0.05297688 -0.25005674 0.33581132 0.048025228 0.10528289 -0.2868597 -0.32097194 -0.17327881
n414175 0.4795096 -0.5077696 -0.17212392 0.074006096 0.29673922 0.29809603 -0.35563928 0.4629459 -0.34555373 0.3646918 -0.21279207 -0.4205486 -0.33507812 -0.69015473 -0.3338277 0.67331636 0.22675987 0.45797563 -0.40174338 0.30672857 -0.27468467 0.79131794 0.24680874 -0.36263815 0.026572304 -0.36198112 0.32233173 -0.098782115 -0.110074826 -0.16620395 -0.026305737 0.43561542 -0.056523036 0.37122005 -0.33096677 0.32947275 0.5344879 0.06824156 -0.077452935 0.30039886 -0.5927914 0.0058396542 -0.03801352 -0.031418905 0.16771439 -0.054369345 0.3390177 0.04694133 -0.53202665 -0.11201427 0.48334646 -0.87556094 -0.101160415 -0.14902587 -0.11618891 -0.20564039 0.30309206 -0.15659262 0.22052152 0.43228254 -0.5747892 0.080565415 0.34023276 0.20703106
n413675 0.09389472 -0.50948715 0.35795182 -0.612062 0.47266638 0.34422135 0.07240947 -0.2744667 -0.39555243 0.05777349 0.2706174 -0.23204191 -0.7362928 -0.17089744 -0.3920701 0.6027859 -0.10821284 -0.5017227 0.31148392 0.13447191 0.07213862 0.6590145 0.049955294 -0.88427794 0.25794685 -0.10581046 -0.3164881 0.17554216 0.07195499 -0.25668725 0.09525325 0.5547898 0.30944973 -0.1524695 0.31353414 0.027696142 0.8305669 0.032957043 -0.18016972 -0.31392428 -0.051939353 0.19208683 0.29738942 -0.17257074 -0.6269864 -0.52926797 -0.31520435 -0.64069027 0.27701694 -0.47161934 0.538078 -0.09949621 0.8313904 -0.2458597 -0.02768558 0.046713803 0.017593725 -0.35269386 -0.40132076 -0.10100885 0.16371827 0.17540695 0.6900852 -0.09906576
n423095 0.07677126 -0.41507703 0.03629379 0.4643145 0.22589535 -0.21211 -0.42946577 -0.2442184 -0.07883795 -0.29465118 0.11469195 -0.81331813 -0.052051183 0.06295242 0.11851668 0.5223307 -0.076343924 0.009070776 0.19736923 0.07420647 -0.27016613 0.5709456 0.46922243 -0.9737933 -0.45989448 -0.12212302 -0.23504038 0.25363106 -0.10091501 0.024410138 -0.22065593 -0.17422354 0.17913304 0.43415314 -0.25964952 -0.38287333 0.09634533 0.43014568 0.1717968 0.58525175 -0.17184195 0.12080686 0.21613026 -0.52047175 0.3699578 -0.5439432 0.2686273 0.09533295 -0.06958046 -0.1935942 -0.31552446 -0.0828286 0.45295882 -0.4687823 -0.35609645 0.5178484 0.85789436 0.1148978 0.20371138 0.033515643 0.42667997 -0.17986268 -0.18548365 -0.62538993
Q8VE18 -0.069492444 -0.5220375 0.2898623 0.2990631 0.20884754 -0.80926067 0.48157227 -0.01705277 -0.057561938 -0.5435014 0.19907574 -0.37093088 -0.17724462 -0.26534784 -0.072842106 0.23861113 0.13707247 -0.5781448 -0.14452936 0.21557543 0.14292379 0.26755676 0.23731205 -0.3446023 -0.55254954 0.22052921 -0.3753058 0.081502534 0.4631586 -0.3368114 0.071782395 0.14280012 -0.5294463 -0.23681052 0.1943714 -0.47205734 0.08987413 0.13048005 0.28165394 0.61191565 -0.32291096 -0.01635344 -0.2954094 0.15230727 -0.44621956 -0.42435044 0.41610664 -0.44790342 -0.44235015 0.46597752 -0.08455568 0.41791624 0.14873846 0.23210166 0.17740001 0.36565527 0.104217105 0.2275708 -0.6523691 0.3749979 -0.683951 -0.28904748 0.4986426 -0.252077
n423077 -0.016813658 -0.4225605 0.43795893 0.46439236 0.40576375 -0.29037568 -0.44886434 -0.31257588 -0.6311693 -0.35554123 0.10669246 -1.0267148 -0.32205474 -0.06992676 0.096431665 0.3000013 -0.14381742 0.31996283 -0.19518068 0.26412562 0.29687637 0.3070152 0.70179576 -0.7310635 -0.24110839 -0.2594043 -0.4875522 0.08284861 0.30807278 -0.5611195 -0.11069981 0.061579242 0.50367594 0.4108578 -0.1395758 -0.5959519 -0.55582726 -0.34467155 0.18926372 -0.007567991 -0.30375257 -0.26561472 -0.06309091 -0.29564145 0.17615785 -0.2014078 0.029696856 0.16117463 -0.29101124 0.26996636 -0.04120979 0.073860615 -0.02401151 -0.38492116 -0.083854154 0.07064098 0.43460238 0.17783906 -0.20984335 0.40877128 0.114623986 -0.6648045 -0.082284905 -0.25300685
n423898 0.029423656 -0.09770069 0.38066682 0.45126355 0.32408363 -0.32431516 -0.5244562 -0.4068377 -0.620179 -0.13283715 0.162937 -0.9432068 -0.45803356 -0.079755895 0.51967657 0.44672784 0.23536636 0.27037087 -0.22943082 0.34304735 -0.03933045 0.67604023 0.51527715 -0.48461968 -0.5733721 -0.2679373 -0.38632712 0.27597162 0.086423315 -0.7485756 -0.20371819 0.6071499 0.3444941 0.39787388 -0.28201494 -0.35820648 -0.7074705 -0.15322246 0.44610476 0.09884648 -0.09783186 -0.14690967 0.043868095 -0.23709442 0.17452167 -0.27473608 0.40675953 0.17934929 -0.25832343 -0.14354214 -0.09827132 0.29987758 0.23489736 -0.27564165 -0.11932282 -0.053154614 0.33118513 0.034154985 0.10416855 0.29923338 0.021879492 -0.40403333 0.24246539 -0.3090127
n416648 -0.04431951 -0.81319916 0.4537799 -0.06506692 -0.3859343 0.24770106 0.35990968 0.25054958 0.14856261 0.12825122 -0.056764945 -0.10194202 -0.58232987 0.36195156 0.27909848 0.64943653 -0.071676284 -0.10736536 -0.33524936 0.066409655 0.2827946 0.6428434 0.076096125 -0.22714426 0.31075445 0.104296006 -0.083594546 0.05365859 0.51714605 -0.11634071 0.2758139 0.043271407 -0.08239965 0.17739852 0.11208873 0.087203294 0.3842186 -0.00168241 0.3465103 -0.13673776 -0.18796003 -0.17933406 0.09170314 0.3215889 -0.012319944 -0.3688781 -0.20350207 -0.32203114 0.017913252 -0.44071862 0.4899614 -0.26336023 -0.08730374 0.04745182 -0.13688606 0.050203975 0.40862733 -0.20452486 -0.37127712 -0.24100202 0.12044293 -0.05025021 0.53843486 -0.08140536
n414307 0.5762006 -0.8077683 0.2988122 -0.018985264 -0.28423128 -0.08447078 -0.106537215 0.22709781 -0.08829111 0.30368945 -0.20246279 0.0394196 -0.23936233 0.016828554 0.4791557 0.29667452 -0.18468688 0.01786324 -0.44204104 0.45353332 0.41870162 0.5415519 -0.30895498 -0.18614571 0.35569838 -0.06367561 0.08516813 -0.022756511 0.17257147 -0.6188 -0.10473313 -0.04316355 0.22969243 0.30061787 -0.5180326 0.10465619 0.5494219 -0.14027415 0.35581917 -0.157507 0.07798849 -0.302998 0.26412016 0.4764026 -0.17008977 -0.6320243 -0.09408239 -0.04791252 -0.004420129 -0.501103 0.16421483 -0.001067318 0.14134987 0.2197355 0.00378188 0.15026283 0.3953659 -0.06125028 -0.15869053 0.004341812 0.4566252 -0.15781103 0.3794631 -0.2492134
n2146 0.107263535 -0.051320802 0.4927032 0.3709323 0.4431823 -0.4215259 -0.40728906 -0.26909682 -0.5206602 0.14776513 0.22955856 -0.7286014 -0.24228992 -0.305203 0.44470128 0.5682094 0.08368737 0.52036923 0.2936745 0.22025855 0.13204853 0.53720194 0.44142193 -1.0476857 -0.23203616 -0.013391339 -0.2563891 -0.010644099 -0.2307013 -0.95799625 0.14234962 0.38754526 0.31749064 0.30888036 0.028361456 0.090176605 -0.44560876 -0.23905928 -0.22758722 0.17966257 -0.24240147 -0.04313541 -0.09831191 -0.113348685 -0.013788245 -0.45415953 0.19922023 -0.060949314 -0.15473297 0.19819166 -0.09558912 0.4882555 0.7450569 -0.51415825 -0.18351412 0.09093555 0.3856725 0.19840741 -0.21566112 -0.014633831 -0.18932657 -0.09385849 -0.23337643 -0.009734546
n343076 0.19878016 -0.96117675 0.2053848 0.12739033 -0.22807989 -0.06711707 -0.5440933 0.5378972 -0.2303459 0.042762846 -0.209647 -0.156884 -0.11356644 -0.24506837 0.1670571 0.39006144 -0.31948504 -0.15474558 -0.21548027 0.6555022 0.4495548 -0.10420347 1.3994093 -0.71638995 -0.08461863 0.614479 -0.020614397 -0.1514078 0.27517322 0.36107782 0.47669026 0.6816561 -0.09860203 -0.008012911 0.36547962 0.26333848 0.9420187 0.24643598 0.44297984 0.14304256 0.36123893 0.6315756 -0.13049588 0.16115057 0.16022319 0.03629741 -0.17440933 -0.5856335 -0.6217569 -0.23926398 -0.4408817 0.9863621 0.26463935 0.09369701 -0.4543395 -0.14335851 0.74966645 0.006470979 0.1937906 -0.018671378 -0.2695443 0.08432567 0.47658867 0.8985352
O08848 0.21248625 -0.5289458 0.5107648 0.2200021 0.2776442 -0.4244493 0.22818007 0.12822016 -0.0049593467 -0.6120353 -0.010617628 0.023534104 -0.035453327 -0.21257046 0.031448815 0.18446252 0.13566217 0.19242202 -0.051291235 -0.043171406 -0.3494054 0.3432762 0.2764628 -0.8138449 -0.17237039 0.061715275 0.11443534 0.34646133 0.20596907 0.067159005 -0.1779411 0.08430986 0.0054842276 -0.302595 0.5655715 0.10294618 0.5992898 0.10203067 0.44672993 0.19790678 0.2424431 0.22146553 -0.07876531 -0.3568236 -0.2964158 0.48296744 -0.1956215 -0.4887027 -0.24624112 -0.0049116756 0.22221579 0.12161441 0.17040852 0.2416218 0.015387147 -0.16957603 0.32443875 -0.0001161158 0.042456985 0.48309252 -0.6990498 -0.062260255 -0.021454876 0.109158695
n5574 0.4782071 0.009980091 0.35005486 0.4733286 0.19789402 -0.12694533 -0.43385473 0.09784973 -0.053558882 -0.46255794 0.1895926 -0.49993557 -0.55316204 0.13366559 -0.06468504 0.5112274 -0.35553005 0.5140317 -0.0030381132 0.2789666 -0.06609004 0.7632827 0.1130788 -0.7818665 -0.2174328 -0.58456165 -0.15642385 0.1277511 0.06210289 -0.17012858 -0.17263803 -0.31927535 -0.024644138 -0.055203337 -0.13839458 -0.04166296 0.017116478 -0.11239458 0.07318419 0.15326852 0.14914519 0.18330696 -0.06943971 -0.49577996 0.015649004 -0.35770592 -0.30198815 -0.28215998 0.048116535 0.22520089 -0.06794649 0.29111946 0.30234662 -0.08229082 0.021783408 0.7936662 0.3335674 0.4431164 -0.25696874 0.4429508 0.30128142 -0.5650731 -0.34443513 -0.37268314
n266910 0.26633716 -0.31707546 0.25014567 0.31932804 0.00659346 -0.054039683 0.16826925 -0.4796874 -0.24779312 -0.28659928 -0.27035585 -0.09943898 -0.7696848 -0.8830811 0.12022685 0.6252786 0.23168239 0.051542174 0.43883872 -0.18832797 0.4766657 0.3126215 0.38279906 -0.3467977 -0.3415344 0.02483866 -0.48027068 0.43783852 -0.12257271 -0.5064976 0.037457656 -0.25344965 0.27176413 0.6835677 0.059534017 0.5463279 0.8616936 0.4986308 -0.25260755 -0.21045867 0.08657287 0.30308107 -0.081547394 0.18218535 -0.15143377 0.097066924 0.24140249 0.09438667 0.16517897 -0.30946052 -0.4863319 0.36769006 0.03103731 0.0389125 0.00043603507 -0.2885177 0.32449737 0.1310854 -0.06340515 0.35512328 -0.50788194 -0.3769255 0.028577836 -0.019794978
Q91Z31 -0.05278666 -0.5441409 0.2868062 -0.17964762 0.20658188 -0.61293894 -0.18111168 0.21721272 -0.41213927 -0.104414485 -0.15233605 -0.23792812 0.43279335 0.38819858 0.034179516 0.37514395 -0.019708049 -0.034772415 0.20009683 0.51513946 0.05562735 0.13982303 1.0544165 -0.23755418 0.104783714 0.52611595 -0.3101757 -0.18475458 0.04099662 0.038841076 0.490044 0.25645855 0.16813667 0.37216866 -0.10467887 -0.120754786 0.029500568 0.41185907 0.28532103 0.019452471 -0.07591318 0.3750653 -0.24687633 0.15446801 0.50317293 -0.24703142 -0.27050295 -0.40354028 -0.25177953 0.13216133 -0.5927355 0.27161855 0.2035063 0.46156794 0.0074035316 -0.03210482 0.53928274 -0.12460559 0.010424384 0.2986787 -0.16187578 0.10921588 -0.07380571 0.3922446
n272838 0.71788543 -0.04100548 0.4562341 0.21628916 -0.19604112 -0.41170207 -0.3788483 -0.16852158 -0.6191989 -0.3300953 -0.5203053 -0.23887633 -0.36391532 -0.39707634 0.25062796 0.12910798 0.04771709 -0.39483294 -0.24570523 0.0083705215 0.5426353 0.27682114 0.91153204 -0.43509138 -0.12719493 -0.36125097 -0.30277756 0.2433455 0.22893935 0.2792403 0.18988931 -0.18096119 0.09658841 0.3251292 0.015265699 -0.63766736 0.20087646 -0.09037866 -0.03998074 0.15252244 0.27404162 -0.044577975 -0.037786588 -0.6338055 0.024516605 0.1858229 0.46718407 0.16893876 -0.2743813 -0.21995421 -0.26926968 -0.45151088 0.5186966 -0.2381873 0.29543477 -0.025436979 -0.22368613 -0.024323681 -0.17826593 -0.009474555 -0.044369906 0.09561183 0.4248409 0.15462336
n272576 -0.32832658 -0.6948564 0.36670327 0.56792945 -0.14692873 -0.4766765 -0.05853949 -0.064423665 -0.40843803 0.45016295 -0.29099983 -0.20355111 -0.614856 0.04009069 0.17056234 0.6226189 -0.057492115 0.01368851 -0.14801544 0.32075816 -0.18581863 0.32929447 0.6033698 -0.7001746 0.07357583 0.14093167 -0.353429 -0.27409324 0.738163 -0.20166905 0.5433113 0.048634212 -0.48791888 0.6744196 -0.090178356 0.038942136 0.5159482 0.5180197 0.116317384 -0.17471647 -0.367472 0.23026937 -0.0091947215 0.27393228 0.1584391 0.45714256 -0.7019068 0.31742045 -0.14284368 -0.7085644 -0.56379277 0.041114755 0.582157 0.21442154 0.25785998 -0.12906584 -0.06523758 0.1069905 -0.17301027 0.8691753 0.068273626 0.36122468 0.21303087 0.89151263
n413315 -0.17746578 -0.22065666 -0.072707266 0.5459216 -0.18153232 -0.43062598 0.0725975 -0.1319146 -0.067991555 -0.34124202 -0.1515769 -0.35358658 -0.49014202 -0.00500679 0.285285 0.7699751 -0.1304787 0.1246421 0.22334896 0.80988353 0.75952727 0.44694385 0.2487522 -1.0544528 0.34425473 0.49603653 -0.45195183 -0.25058234 0.9978299 -0.14395845 0.13569565 0.20658273 -0.09012348 -0.02422869 0.055179954 -0.16896936 -0.033808656 0.058115374 -0.20900089 -0.059707593 0.08496274 -0.02818431 0.61225283 0.80158764 -0.37778324 -0.04499585 0.21893393 -0.4524503 -0.17049776 -0.10137598 -0.00065114186 -0.86549556 0.21375914 -0.8069238 -0.446409 -0.48353076 0.2507529 -0.17596298 0.24585454 0.062931 -0.04991896 -0.6092893 -0.48197016 -0.3430702
n414631 0.025405213 -0.011074475 0.37684703 0.38700163 0.38661593 -0.5594388 -0.6143527 -0.1319989 -0.5694009 0.106313154 0.13022694 -0.5746652 -0.49996468 0.04600557 0.2940202 0.42187884 0.18258713 0.70099217 -0.023288842 0.2556386 0.28154594 0.7957673 0.28825754 -1.1085932 -0.16042861 0.054979965 -0.14353693 0.04056899 0.20861861 -0.5514786 -0.18697602 0.23316164 0.03169962 0.3369533 -0.28128684 -0.0851629 -0.46530092 -0.03217045 -0.12257508 0.002821644 -0.043261807 0.54549766 -0.3335363 -0.25010276 0.12574299 -0.59227556 0.3229036 -0.020649388 0.16604626 0.064145625 -0.20581685 0.5973286 0.842216 -0.897373 -0.054805733 0.18520132 0.6961517 0.3515105 0.022560412 0.20944147 -0.27481544 -0.16043265 -0.20867194 0.09607259
n275833 -0.36362955 0.0018399516 0.54158354 0.42204913 0.1307326 -0.2308799 -0.10827007 0.34871447 -0.43388048 -0.31981787 -0.059175212 -0.77146184 -0.2587187 0.10944634 -0.032991566 0.54601634 0.40986583 -0.21360277 0.32109347 0.17635454 0.48857465 0.37473902 0.021946449 -0.45648226 0.26455405 0.3750895 -0.1897455 -0.18918194 0.13474692 -0.37775743 -0.028232776 0.0644804 0.5543119 0.036296617 -0.052069902 -0.29636517 0.15056513 0.07885733 0.15293565 0.58075404 0.42265666 0.5236645 -0.061609983 -0.00072732556 0.13316365 -0.3846542 0.5473505 0.43082508 -0.59168667 0.11399561 -0.26885927 -0.27117884 0.17170778 -0.41335446 -0.19352993 -0.35875046 0.13409886 -0.2691653 0.25323412 0.05353214 0.16293155 -0.5965529 0.108666256 0.074382514
n288543 0.47977442 -0.57429856 0.2716177 0.12468381 -0.15184462 -0.020304028 0.19420882 0.2125532 -0.29760036 0.4076825 -0.06289402 -0.27798533 -0.6745307 -0.088727355 0.233296 0.18679483 -0.4439046 0.062243503 -0.1910248 0.34299532 0.3279894 0.5003973 -0.02657656 -0.31584403 -0.04107921 -0.006182376 0.3406782 0.013505095 0.072325744 -0.5253749 -0.35555005 -0.016449582 -0.073159814 0.505043 -0.2978921 0.21288706 0.3298643 0.023637982 0.17011666 -0.2504806 0.0691862 -0.43273485 0.51627797 0.27014965 -0.2808625 -0.35026804 -0.034692977 -0.18862076 0.016575137 0.018644009 0.17692402 -0.022110166 0.07508946 0.122078046 -0.018935831 0.12351841 0.034009453 -0.14866798 -0.112055436 0.027828597 0.07081437 -0.06998342 0.13435309 -0.10293225
n423277 -0.00726435 -0.09044911 0.114076585 0.55850047 0.4417234 -0.43492597 -0.07480416 -0.28269398 -0.27785876 -0.23226462 0.20851548 -0.7980955 -0.38674793 0.13085952 -0.09509168 0.67824525 -0.13588627 -0.12632112 0.05525654 0.5427272 -0.4679122 0.59038436 0.32406202 -0.54178613 -0.45127514 -0.22601968 -0.41699266 0.39254197 -0.25328 -0.21261737 -0.17760439 0.12903558 0.37139472 0.50948435 -0.18007194 -0.30462575 -0.17390573 0.19499911 0.39485228 0.4716205 -0.4018472 0.30897534 0.14692421 -0.18888989 0.4562122 -0.20867638 0.086431995 0.12774488 0.08975693 -0.09197329 -0.03497857 0.04494129 0.49300802 -0.38578844 -0.09739949 0.3987439 0.76964885 0.0669197 0.11610086 0.3970963 0.22053677 -0.37853077 -0.14067684 -0.3124709
n290674 -0.07974785 -0.04023899 0.37456512 0.030271381 -0.08986369 -0.3951167 -0.005547731 -0.11818365 -0.6182282 -0.32321963 0.047827594 -0.34814397 -0.34807092 -0.5541961 -0.17466746 0.50021523 0.49763805 -0.043451447 0.27149597 -0.029751057 0.19284429 0.5295378 0.30343714 -0.49080786 -0.051786467 0.19807835 -0.486869 0.5809428 -0.18534897 -0.6562345 0.20420747 -0.39159596 0.14384422 0.29686686 -0.19123067 0.17559654 0.51878357 0.49577725 -0.3002321 -0.07363393 -0.17815477 0.5162131 0.1061444 -0.22115095 0.16271028 0.1600104 0.3504267 -0.049768846 -0.033874188 -0.05981351 -0.6662756 0.27710903 0.0059250663 -0.08411742 0.076239266 -0.15484363 0.38103485 0.2206126 0.043726917 0.31138694 -0.40227208 -0.38709354 0.14967245 -0.12657975
n279279 0.24276851 -0.6496491 0.2870927 0.4802663 0.19905642 0.4954796 -0.5875527 -0.0014928023 -0.27951378 0.2057847 -0.27654228 -0.5628158 -0.26449296 -0.36971694 0.08891605 0.39262003 -0.4445883 0.14634167 0.3477805 -0.122059084 -0.28770214 0.81434125 0.29021424 -0.13666497 0.17795534 -0.15351965 0.4181613 0.08237062 0.36405325 0.16861948 0.60883194 0.38576174 0.1702484 0.04102345 0.18861258 -0.25154686 0.6438951 0.1782101 -0.64748865 0.45663702 -0.46554688 -0.11553072 -0.233169 0.24530368 0.110570185 0.36949334 0.046409216 -0.73239535 -0.32183444 -0.61037683 -0.6525826 0.047124553 0.16501562 -0.3416913 -0.28498834 -0.43137792 0.26523283 -0.21686351 0.018572822 -0.0023896776 -0.36188802 -0.30629063 1.0358618 0.18944757
n279850 -0.15855512 -0.0041739154 0.44956508 -0.35082328 0.6957339 -0.107969545 0.07756799 0.0020211542 -0.30458483 -0.11907402 -0.16073637 -0.31934306 -0.496568 -0.3853239 -0.37026674 -0.27857217 0.30429462 -0.38941595 -0.07572677 0.45446673 0.056820597 0.8396023 0.30114213 -0.77934164 0.23522298 -0.36730787 -0.42735296 0.34323987 -0.074985184 -0.21545713 0.19122885 0.081560366 0.4955052 -0.37904084 0.10251272 -0.29325664 0.57313716 0.08345039 -0.11005194 0.18000197 0.020381942 0.5114231 -0.13538113 0.31659415 -0.43175068 -0.2302541 -0.21990797 -0.059279323 0.07756798 -0.5234858 0.25334716 0.12999259 0.5117571 -0.100064196 0.18619327 -0.19884163 0.100807376 -0.0651157 -0.2926875 -0.23816817 0.0123671405 0.12581451 0.35384995 0.075131044
n423837 -0.39684048 -0.6860589 0.60073924 0.42450982 0.038822934 -0.6364448 0.09039455 -0.27368298 -0.30042532 0.45977324 -0.36944082 -0.29067823 -0.07078978 0.16084057 -0.20523217 0.61289483 -0.053491965 0.016914755 0.027272787 0.5958179 -0.16524169 0.33008763 0.91262394 -0.72271943 0.2385887 0.26655242 -0.23409715 -0.42214972 0.040962335 -0.09658449 0.53685796 0.18074 -0.18299273 0.5009066 -0.39988482 0.020112056 0.34300402 0.35550317 0.21540453 -0.12757757 -0.37645352 0.3403614 0.1106609 0.25076085 0.15849134 0.26715738 -0.7680958 -0.10790396 -0.1479855 -0.5696659 -0.3649984 0.23159172 0.4491419 0.40398642 0.20348044 -0.041259736 0.30842453 0.04315776 0.21793756 0.5486363 -0.01475145 0.50495917 0.16031432 0.7343504
n416250 0.20528077 0.03475002 0.15612374 0.045373723 -0.50977093 0.09191921 0.15198624 -0.18645091 -0.11089692 -0.39416608 0.37249026 -0.27537253 -0.50650287 -0.08094886 0.22819012 0.5914014 0.3511336 -0.030005632 0.058328934 0.6762969 0.249295 0.43146446 0.6890847 -0.35658026 0.029220313 0.21600473 0.1292507 0.28041935 0.17247611 -0.3851182 0.4702092 -0.19015166 -0.12757397 0.051097725 -0.4284221 -0.4504541 -0.20724271 -0.354427 -0.30335 0.3109226 -0.09949995 -0.38537523 0.53123254 0.45578304 -0.20075384 0.11387274 0.2418576 -0.4327869 0.20503561 -0.32131365 -0.25185367 -0.44412905 0.45742363 -0.35064924 -0.056635138 -0.035419837 0.66133624 -0.118656136 0.36912486 0.09876368 -0.13759404 -0.56544966 -0.14332856 -0.15182583
n4989 0.57134783 -0.5091007 0.07930317 0.29774237 0.33584353 0.2308268 0.30065486 0.13634509 0.12051056 0.160449 -0.38496032 -0.1647732 -0.74713045 0.15619162 0.59143925 0.14808583 0.20047621 0.12354056 0.29469246 -0.13677646 0.11892864 0.45027673 0.19625308 -0.41735613 -0.018919257 0.48552477 -0.090950266 -0.18033774 0.25496975 0.3522972 0.026523085 0.38675782 -0.08937563 0.08678408 0.364443 -0.40627405 0.34396556 0.34245887 -0.09964176 0.043708388 -0.4175777 0.33645338 0.12273488 -0.05549865 -0.30661687 -0.14916359 -0.23229238 -0.22556037 0.04809849 0.3255869 0.075837545 -0.031055164 -0.08610221 0.29174998 0.17139776 0.7724253 0.5221627 -0.5019505 -0.06367478 -0.37240362 0.16750039 -0.69062644 0.12571594 0.40283766
n423074 0.47711316 -0.34370393 0.41235748 0.12925811 0.1890228 -0.20618041 -0.3332613 -0.33673444 -0.83117974 -0.0010228802 0.30308345 -0.22223718 -0.27491766 -0.6319994 -0.20594057 0.048549365 -0.06910452 -0.005498959 0.61603194 0.3989755 0.025361715 0.6427311 0.7193653 -0.60925543 -0.34457278 0.14173497 0.37421355 -0.14757748 0.23440571 -0.44585544 0.17578995 -0.042318203 0.53485495 -0.088718235 -0.03765216 -0.6858429 -0.11527689 0.32148263 -0.22790569 0.45350736 0.5151718 0.40208644 0.6921175 -0.10808774 0.073763415 -0.6892595 0.14607641 0.65759504 -0.20621786 0.21999845 -0.22027875 -0.26782116 0.13960256 -0.0035010527 0.12058628 -0.056043457 0.51328593 -0.15796918 -0.6742477 0.63742614 -0.097043976 -0.12937565 -0.03721724 -0.048432857
n296903 0.31901884 0.06573521 -0.106867485 -0.026815763 -0.5380349 0.08289689 0.23978314 -0.46023285 -0.3069475 -0.52174157 -0.095239855 -0.19637412 -0.3280554 0.09943575 0.22138673 0.35205615 0.39298898 0.18526486 -0.07040872 0.68038976 0.3457705 0.33682612 0.56510115 -0.6915112 -0.23352388 0.17028807 0.15873918 0.028310055 0.27817187 -0.38447493 0.2890644 -0.06255057 -0.17123272 -0.028297061 -0.4802588 -0.27819943 -0.11602302 -0.21712475 -0.21781865 0.12287567 0.078319825 -0.251116 0.49534294 0.43640894 -0.24594852 -0.20958205 -0.013398066 -0.42867976 0.309944 -0.2125491 -0.32333794 -0.5128784 0.29094064 -0.42168653 -0.45608184 -0.18452413 0.7034892 -0.15950172 0.108692646 0.032513212 0.025563462 -0.40628007 -0.00013414375 -0.06724476
n293984 -0.51267993 -0.7891413 0.22141717 0.14923923 0.007385174 -0.67832285 -0.06952383 0.037779536 -0.22642474 0.46341014 -0.2564515 -0.2965374 -0.12771076 -0.029587016 -0.06515586 0.41778126 0.0412869 -0.1584537 -0.08917216 0.38496393 -0.3376777 0.22296336 0.4818019 -0.7352486 0.19704248 -0.037248626 -0.3378644 -0.10371466 0.5152848 -0.36457846 0.33805233 -0.12408641 -0.19332372 0.794224 -0.20840977 -0.05566374 0.28652546 0.21554333 0.1717407 -0.071770936 -0.38644397 0.33576703 0.25159526 0.24762924 -0.20585586 0.449103 -0.59014785 0.21261132 -0.03272627 -0.31783968 -0.60910636 -0.05317261 0.59736574 0.18190706 0.1266073 -0.14411427 0.041291367 -0.079298064 0.024408888 0.6256166 0.011625639 0.17807835 0.05248665 0.5940224
n276780 -0.16219349 -0.66543174 0.17649157 0.23812686 -0.08784641 0.28734717 -0.14305684 -0.2091898 -0.17494181 0.2918582 -0.15293342 -0.22674885 -0.69583416 0.06205071 0.38095558 0.17367177 -0.22537346 -0.17968309 0.21577105 -0.14514239 -0.19674315 0.7777552 -0.3284284 -0.23157488 0.24666396 0.15798216 0.3713712 0.33586344 0.36799806 -0.05426157 0.53058547 0.33681872 0.0061240615 0.06934063 0.3789437 0.10174105 0.42964837 0.44270504 -0.11278294 0.34190464 -0.028963396 -0.10560501 0.17312257 0.004059293 0.2914528 0.103917584 -0.5109397 -0.7480246 -0.4145697 -0.6742026 -0.3875017 -0.21235403 0.43592247 -0.46938676 0.050393283 -0.60827714 -0.08330303 -0.22847964 -0.3440455 -0.25792554 0.014266368 -0.45552084 1.0223012 -0.1795787
n343084 0.33802998 0.2517522 -0.33051175 0.045629997 0.6263555 -0.22346091 0.094105184 -0.18893717 -0.30021033 0.44690537 0.012140427 -0.12696153 -0.7329513 -0.13560095 0.20911601 0.9474327 0.17716043 0.15497532 -0.55358005 -0.35225213 0.89681536 1.0313127 0.28681466 -0.6720149 -0.5969865 0.4899196 -0.25490642 -0.29349566 0.7430845 0.22854581 0.18055089 0.17085585 -0.09021663 0.49333388 -0.110257074 -0.31897774 0.75795275 -0.426901 0.33319286 0.112906694 0.15498558 -0.3172205 0.20500723 0.3070458 0.9000921 -0.14050113 -0.3533033 0.33931565 0.1748686 0.069280125 -0.30342907 0.025840638 -0.3937304 -0.01842564 -0.14012146 0.09828828 0.10185988 -0.2435088 -0.1594957 -0.15070386 0.08782989 -0.0108323665 0.65749466 -0.15442163
P42669 0.23401737 -0.86722714 0.043309897 0.112381816 -0.058439463 -0.10858338 -0.3682656 0.40782744 -0.107577294 -0.26541874 -0.32711822 -0.29081604 0.11427145 -0.09663707 -0.058595177 0.5760486 0.0066900253 -0.38876614 -0.11689408 0.3589605 0.26388872 0.08985405 0.7457262 -0.5388899 -0.1630961 0.46337652 -0.09428356 0.09306973 0.030948013 0.2792486 0.35097215 0.50319797 0.030557344 -0.2565015 0.27930906 0.26857388 0.09123557 0.071684845 0.49040115 -0.112319015 0.1540784 0.26834902 -0.003364867 -0.16213723 0.21528438 -0.34431854 -0.4750838 -0.73846895 -0.6148996 0.27436516 -0.16216522 0.5917927 0.051341992 -0.002159987 -0.3744939 -0.060471185 0.6063406 0.09989596 -0.041773573 -0.22686604 -0.45557567 -0.11617849 -0.04288069 0.68834215
n293082 -0.28419536 0.09169891 0.63295597 0.5324921 -0.09158514 -0.3098756 0.07350395 0.27292374 -0.51711714 -0.4982373 -0.09693542 -0.724287 -0.102552675 0.08243284 -0.13351007 0.6096949 0.24114104 -0.30241862 0.52164465 0.15269095 0.5789652 0.6898276 0.06287915 -0.7163684 0.12169129 0.452578 -0.036492504 -0.58226943 0.20412381 -0.06866326 0.11779431 -0.1788275 0.6487605 0.26103362 -0.11156382 -0.14412773 0.23166646 0.2420726 0.1636566 0.82959956 0.3823039 0.20277782 -0.1072872 0.1656137 -0.19645396 -0.53258944 0.46006227 0.1688795 -0.3259546 0.005497878 -0.27846652 -0.17964932 0.2998656 -0.44138294 -0.088087015 -0.3835264 0.049967047 -0.052429095 -0.064642556 0.04398457 0.055171445 -0.18004905 -0.21274541 -0.004141721
n273619 0.14141785 -0.555199 0.3299499 0.26925936 -0.2886167 0.21460891 0.13635993 0.1979728 0.31234494 0.1734407 -0.083334215 -0.0731847 -0.55151415 0.1552293 0.19858895 0.69414085 -0.036064573 0.17094831 -0.15641391 0.22467522 0.16734126 0.596697 -0.14127421 -0.16339241 -0.18558274 0.041417964 0.11554854 -0.20017125 0.43993798 -0.32979462 -0.063284434 -0.19265646 -0.13517982 0.15308684 -0.23074035 0.17885531 0.7466867 -0.017427206 0.4743121 -0.2729752 -0.06777693 0.027618524 0.1679719 0.47047633 -0.18181747 -0.11218994 -0.30431223 -0.34704474 -0.3078126 -0.41971713 -0.12441071 -0.33816567 0.022872869 0.1674952 -0.087599844 0.15712124 0.17027211 -0.23822434 -0.40869933 -0.42776892 -0.24015991 -0.06921483 0.31884897 0.4305702
n295587 -0.38759753 -0.10082087 0.20646091 0.18849935 -0.27818677 -0.4183971 -0.026089195 0.5047534 -0.5266652 -0.304663 -0.004033603 -0.69639295 -0.33868918 0.08097071 0.03181003 0.18884952 0.3704259 -0.15304364 0.5071783 0.008759307 0.36339712 0.7046172 0.27704948 -0.59523726 0.15462431 0.32307145 -0.19336708 -0.21442336 0.1619904 -0.15012977 -0.03323743 -0.16021799 0.50338286 0.2429617 -0.4319237 -0.1734344 0.21463986 -0.10616653 0.40557906 0.8626329 0.4494343 0.42449397 -0.030620523 -0.25426286 -0.20743832 -0.25095242 0.605721 0.04654257 -0.24367876 0.08770102 -0.06045647 -0.46124887 0.3732503 -0.41060233 -0.20688117 -0.23736133 0.12642747 -0.046782907 0.08243023 -0.092427105 0.08765008 -0.17359306 -0.02481716 0.051137164
n264321 0.3269577 -0.5905488 0.31843486 0.04424288 -0.4195165 0.28267702 -0.027329236 0.29225653 -0.14373149 0.08946344 -0.5743166 0.051143065 -0.40224534 0.103478074 0.20645662 0.6512406 -0.12940988 0.5163681 -0.08505478 0.47944322 0.00033627253 0.67170715 -0.29507807 -0.4173821 0.065905266 -0.20178694 -0.20292746 -0.08638713 0.42923364 -0.16437373 0.26727244 0.084830925 0.16855943 0.50997335 -0.05456357 0.34668618 0.50318307 -0.08546728 0.3061518 -0.19675048 -0.19085611 -0.26006716 0.050461642 0.25436214 -0.1058034 -0.12887505 0.014999331 -0.18353437 0.09058568 0.098502725 0.30345997 -0.5145813 -0.25340724 0.5151362 -0.028421339 -0.3391754 0.53205436 -0.006333171 0.1647254 -0.31956145 -0.32587418 -0.063827164 0.4311158 0.28560928
n1859 0.14661478 0.26442876 0.25088012 0.3035034 0.30834508 -0.35557392 -0.43870822 0.4720541 -0.37106815 -0.12851723 0.67913806 -0.16419369 0.23394918 -0.1936004 -0.2990317 -0.030558318 0.16142026 -0.2985475 0.077557124 0.17346376 0.1475218 0.38569495 0.5067754 -0.8669665 -0.23213828 0.5209049 0.5152766 -0.044965252 0.38593572 -0.25292143 -0.15221243 0.29807553 -0.47968686 0.22978893 -0.3273178 -0.15898307 -0.08842981 0.2897077 0.19768162 0.16922237 -0.1647174 0.19546254 -0.5836876 0.37315565 -0.34352043 0.0066789407 0.14442532 0.06434352 -0.15608431 0.09487433 -0.10622145 0.05017411 0.4103293 0.061315946 0.06838842 0.26716706 0.7432736 0.12137783 -0.58051986 -0.17894703 -0.022586074 -0.72398204 0.59794074 -0.035634227
n411792 0.07396678 -0.23924005 0.042298492 -0.42664328 -0.040472887 0.16970345 -0.3147708 0.45558828 0.0014410726 0.49969107 -0.4826841 -0.5891091 -0.66920537 -0.34409222 -0.02272045 0.32668957 0.017356085 0.49227127 -0.13666154 0.28543797 -0.23935015 0.8247418 -0.18996926 -0.2051325 0.41528982 -0.041825928 0.17285334 0.33606237 0.516553 -0.2359376 -0.057876397 0.019479917 0.007929317 0.11466984 0.14870042 0.06527804 0.5675727 0.28275192 0.3687025 0.22805203 -0.40908322 -0.30522683 -0.06349078 0.0021834366 0.22496118 0.019565372 -0.13229266 0.08007757 0.030602496 0.2911651 0.052958913 -0.6014572 0.33737436 -0.0038216873 -0.16370879 0.18920559 0.39375424 0.15420048 0.28122422 -0.36095315 -0.5028049 -0.1393186 0.8693693 -0.2226323
n4682 0.5484301 0.024963055 0.06431457 0.20966929 0.40791696 -0.22785686 0.11787774 -0.18355921 0.007965664 -0.39713517 0.12220862 -0.47548252 0.024826895 -0.048570417 0.22659086 0.077237785 -0.038819723 0.11380839 -0.31079602 0.3824754 0.35546952 0.3560955 0.4204544 -0.33650747 -0.12785177 -0.043607667 -0.16267607 0.004889137 -0.035221282 -0.073671855 0.28638375 0.24321696 -0.24677731 -0.42401403 -0.039353777 0.016152453 0.33511987 0.14814335 0.5334697 0.25151974 0.112484165 0.21452707 0.032555286 -0.15059319 0.08255751 -0.18534915 0.3596775 -0.24799071 0.07089646 0.3372585 -0.37262258 0.18878438 0.2914851 0.2842787 0.21772292 -0.10122685 0.34347463 -0.08182835 -0.45009235 0.31404305 0.06755404 -0.30911034 0.050630778 0.021943072
P97499 0.23386903 -0.4264837 -0.04634682 0.0037934692 0.32687974 0.068082735 0.4205973 0.0023418064 -0.13642475 0.0712629 -0.26477328 -0.025602704 -0.54760975 -0.054906245 0.6774539 0.26433238 0.25162107 -0.05707551 -0.06799185 -0.124322236 0.35239357 0.10798758 -0.13091442 -0.3334611 0.37487197 0.554126 -0.20726427 -0.223482 0.48296508 0.1131194 -0.11086986 0.3267206 -0.098683 -0.19083534 0.2523012 -0.38124362 0.17874292 0.39702037 0.15945062 0.15882997 -0.57127196 0.19783373 0.22557457 -0.24197744 -0.29867262 -0.07939037 -0.0013494887 -0.33370733 -0.344158 0.19315723 0.0764758 0.01398956 0.09555557 0.26194152 0.44852883 0.6013413 0.806354 -0.17526312 -0.16764104 0.0885789 -0.13840877 -0.44816294 0.16603836 0.43903112
n276276 0.830529 -0.16445549 0.27085686 0.05692028 -0.35643816 -0.2582018 -0.5202779 -0.14603005 -0.29118088 -0.067350075 -0.5123141 0.03642605 -0.621742 -0.22933073 0.15921631 0.3987432 -0.20933977 -0.17077473 -0.32542783 -0.18049683 0.26196143 -0.024797032 0.8383271 -0.6183038 0.2775789 -0.015874296 -0.073931225 0.46798366 0.12942451 0.18117946 -0.13873196 -0.015925258 -0.3373046 0.61700165 0.024734162 -0.4415613 0.44037557 0.040164307 0.053706396 -0.025523124 0.14617631 0.21914943 -0.20807649 -0.5601815 -0.3518003 0.1599993 0.005705098 0.26623875 -0.48689118 -0.20654368 -0.10903539 -0.34773967 0.44819012 -0.119323134 0.46054646 0.07964968 -0.21123724 -0.26861134 -0.08786959 -0.040770017 -0.2954975 0.12566076 0.6879327 0.25101855
n283842 -0.20550378 -0.59689474 0.49506658 0.6919587 -0.2214061 0.02595071 -0.28438383 0.12249999 -0.31569582 0.26512784 -0.14756258 0.10802528 -0.4860628 0.12754872 0.21170801 0.6742841 0.12755162 0.3385383 -0.20480725 -0.25046802 0.0015836481 0.04183556 0.55426425 -0.82226115 0.060177676 0.053236075 -0.37578827 0.29535583 0.47877893 -0.009815127 0.52905273 0.14118944 -0.4718895 0.015061511 -0.1847119 0.04479406 0.51115626 0.55586714 -0.03070287 -0.12261801 -0.27262995 0.058158398 -0.04979957 0.22944744 0.18485612 0.32709807 -0.83221394 0.14293376 0.00067818945 -0.5477026 -0.27821156 -0.13236992 0.72974217 0.31419277 0.28816366 -0.5541758 -0.12876536 0.088365406 -0.36047366 0.46288556 -0.19133443 0.36347607 0.32186502 0.5865959
n415254 0.6230088 -0.31560317 0.21288069 0.37653977 -0.27253792 0.44876447 -0.09010356 0.15967216 0.17772737 -0.08273743 -0.16993073 0.0784354 -0.4600461 0.12034077 -0.4551076 0.860318 -0.06065157 0.54844403 -0.18374197 -0.012554524 0.10060277 0.29768863 0.73682266 -0.58426446 -0.1986872 -0.65940636 0.30475304 0.032343417 0.25902632 -0.28707469 0.2697652 0.577553 0.18782811 0.5896645 -0.0965048 0.14459555 0.6636256 0.39080575 0.04779461 0.49901518 -0.33928174 0.59228003 -0.26368934 -0.18763418 -0.31280547 -0.18406545 -0.178242 -0.116984405 -0.24177702 -0.23716626 0.25657248 -0.28464198 0.029317245 0.10468374 -0.025995085 -0.61610866 0.23815392 -0.33608705 -0.28138793 0.38883123 -0.4684875 0.100184105 0.19568238 0.24834782
n294330 0.10048663 -0.08678767 0.05313864 0.8342188 0.21660005 -0.52635 -0.32128257 -0.2697429 -0.032555893 -0.13674848 0.03962299 -0.28852788 -0.23291321 -0.35101748 0.44316277 0.33175707 -0.29479593 0.059768 0.009129309 0.4790892 0.65799266 0.25709403 0.4410984 -0.770167 -0.014485479 0.4817618 -0.21626076 0.34994656 0.7604609 -0.013072909 0.07732746 0.11846479 -0.10165914 0.0019148083 -0.22330351 -0.23571089 0.20073041 -0.096556 -0.42046914 0.2645582 0.20866758 -0.21656361 0.4502362 0.7284372 -0.19847633 -0.01569855 0.29402903 -0.31230345 -0.1383785 -0.17067125 0.23105437 -0.4170714 0.2055097 -0.4527276 -0.5035855 -0.5684685 0.15532398 -0.39119422 0.024179244 0.32260498 -0.28215653 -0.15618177 -0.5869388 -0.36200264
n342977 -0.040794373 -0.41389367 -0.095045015 0.8465087 -0.23276916 -0.4819953 -0.21924761 -0.21094155 -0.5734561 -0.009391856 0.31728902 0.07934864 0.55921894 0.064753406 -0.050029956 0.8474769 -0.4807053 -0.30075353 -0.38173535 0.12796444 0.5110346 0.8824621 0.43313283 -0.47570273 0.37978148 -0.13567875 -0.31866124 -0.17448868 0.11196238 0.0675493 0.34470677 0.16863886 -0.078411154 0.24156666 0.10449224 0.24059494 -0.16439943 0.7616688 0.20029157 0.2769591 0.07484426 -0.064185 0.3117224 -0.11735024 0.22251041 0.051064454 -0.38349006 -0.13406232 -0.21657217 0.38717064 -0.04974757 0.07140943 0.8475229 0.67377955 0.33659813 0.24167496 -0.039953746 -0.0027646814 -0.21166609 -0.6148129 -0.24032725 -0.22221301 -0.26773667 -0.004729652
n267386 0.26817843 -0.016517805 0.40412903 0.30729073 0.1896345 -0.44983542 -0.015220419 -0.23926046 -0.46231386 -0.5118239 0.09733492 -0.45616066 -0.64302427 -0.7088935 -0.09891157 0.700356 0.23096575 -0.14325765 0.3962982 -0.18858582 0.35272223 0.44284546 0.43288845 -0.27147385 0.116639666 0.16584541 -0.6897607 0.28119096 -0.029017093 -0.62198097 0.21312213 -0.41076145 0.0648248 0.33922014 -0.19693701 0.28864214 0.555392 0.49893218 -0.45135918 0.04867872 -0.14569217 0.3528954 -0.15239725 -0.039101742 0.07474919 0.2923431 0.15405889 0.2423039 -0.042928442 -0.019355714 -0.5828159 0.36407378 0.07120564 -0.0016039169 0.114098534 -0.29081142 0.23573366 0.20755427 -0.0573026 0.06915604 -0.4519629 -0.3897738 -0.03263383 -0.110043384
n412464 -0.41572052 0.18678412 0.7991975 0.60489994 0.11997097 -0.15726237 -0.12958653 0.40274543 -0.55454403 -0.18004282 -0.20525308 -0.78630024 -0.16281939 0.4783958 -0.083293885 0.6322743 0.13386407 -0.36458942 0.28600436 0.49457994 1.0088849 0.80590373 -0.13364756 -0.8300976 0.24164322 0.5667562 -0.08030967 -0.60031277 0.4323533 -0.22774935 -0.056423284 0.090051405 0.6081954 0.1543344 -0.06478133 -0.008580434 0.42146888 0.15220171 0.2514414 0.88023126 0.14291516 0.26901138 -0.13801388 0.39536107 -0.338714 -0.3157465 0.34140232 0.03454388 -0.59923446 0.09838015 -0.119398706 -0.27358088 0.30015045 -0.39923936 -0.011257431 -0.25435567 -0.13588133 -0.40451372 0.33329985 -0.011008621 0.051474053 -0.5433423 -0.21818502 -0.1482429
n417921 0.2606273 -0.29483297 0.21168666 0.7569348 -0.1861416 -0.5504539 -0.32025948 -0.1537217 -0.73205405 -0.066038296 0.22042626 0.08323673 0.028087888 0.19560328 -0.13935648 0.9472162 -0.5246415 -0.050105352 -0.34035102 -0.04622942 0.10566959 1.0464939 0.17482683 -0.6509299 0.17124285 -0.37363222 -0.20174849 0.029282486 0.16869408 -0.13013665 0.43133742 -0.03527606 0.1487458 0.4620867 -0.12322601 0.11536641 -0.13253006 0.75287133 -0.4736405 0.009626792 0.4723669 -0.20200491 0.5083245 0.18307957 0.24081416 0.11676791 -0.45202273 -0.10781822 -0.09462566 0.4026535 -0.17886549 0.029394617 0.774567 0.5562701 0.29239 0.69555205 0.066064455 0.13910939 -0.18878205 -0.33616218 -0.46333873 0.08681523 0.04771428 0.07618054
n290852 0.12764263 -0.27206945 -0.04391108 0.23474412 0.10914807 -0.48582357 -0.17856288 -0.14758539 -0.61902094 -0.33040357 -0.35225755 -0.34104428 -0.31745687 -0.38363668 -0.35323846 0.23995207 0.019103963 -0.0802795 0.16107611 0.23318185 0.277113 0.72694236 0.26369965 -0.013985509 -0.16674481 -0.3137032 -0.7501438 -0.16609457 0.3939961 -0.42988348 0.08022699 -0.15223697 0.41825765 0.0013312406 -0.6057962 0.29398036 0.1461334 0.40696955 -0.13383813 0.2075199 -0.5336851 0.5378823 0.28860706 -0.41843775 -0.06834598 0.28719938 -0.026346104 0.1411086 -0.049441136 0.054038778 -0.61982405 -0.004301342 -0.18198407 -0.07389017 0.20941143 -0.07193883 0.29345927 0.059512135 0.23690079 -0.2420317 0.010048082 -0.51568335 0.0266064 -0.20922016
Q9Z191 0.38643333 -0.37311584 0.25545514 -0.011418125 -0.110276155 0.16788988 -0.29344696 0.004725292 0.56622833 -0.026106514 0.19315946 -0.16600455 -0.24191777 -0.30765173 0.22449249 0.616596 -0.28844118 0.3359172 -0.74884224 0.04608608 -0.24881901 0.38358122 0.6367601 -0.23239659 0.34167498 0.5925824 -0.16637959 -0.28139016 1.270145 -0.2453521 -0.24741267 0.35043964 0.55413604 0.25870895 0.21466035 -0.15973601 0.8413916 0.43697464 0.714025 -0.26418403 0.1114323 0.27735344 0.30211425 0.13653916 -0.32186872 -0.26194888 -0.49329817 -0.2337685 0.33482087 -0.13157926 0.106127925 -0.26145896 0.47130832 -0.57532895 0.059954487 0.2763563 0.20163965 0.34092355 -0.17602266 -0.22961861 -0.26988325 -0.20343603 0.76408464 -0.30606133
