64 100
UUU 0.0925596 -0.55272925 0.25002962 0.85146326 -0.019238489 0.4334576 -0.8890469 -0.77461445 0.73394305 1.1983899 0.8897158 1.5094463 -0.14378741 0.014477124 -0.84400415 0.93578184 0.07998046 0.8930126 -0.6626973 0.7579656 -0.5857014 0.47638363 -0.9328069 1.4815363 1.0371848 0.11430992 0.57503194 0.9018761 -0.6797885 -0.505336 -1.1690499 0.1409028 1.1136472 -0.8934752 -0.78750646 0.6301556 0.5315813 -0.45728278 -1.0040289 0.21069352 -0.1133552 0.21605755 -0.74250793 -0.3651747 0.07428086 -0.4292514 -0.2960102 0.16208073 0.8039243 0.6413776 0.035993338 -0.05941812 -0.39819455 0.8656728 -0.014311847 -0.22017615 0.17145596 -0.49779713 -0.17065838 0.26126546 0.22452813 -0.14610876 1.2368202 -0.06604662 -0.27561462 0.9541026 -0.7662182 -0.3842454 -0.5581305 0.054009344 0.49846002 0.7031266 -0.29196444 -0.6190579 0.73645824 0.6355235 0.2404613 0.44002312 -0.15467346 0.23929 -0.64372927 0.5422128 -0.072687745 0.42312196 -0.6975658 0.10890804 0.8719571 0.09069347 0.3440631 0.7722657 0.05233193 0.5613038 0.31012484 0.055093132 1.2779311 -0.796871 -0.41039413 -0.18863878 -0.6554043 0.49671915
AAA -1.0497637 0.05990283 0.4217938 0.57656324 0.36078504 -0.3995667 0.8163617 0.24867097 0.2804996 -0.35435134 0.071282625 -0.71582896 0.11471197 0.92787105 0.07841689 1.4986736 0.30228642 0.9558487 -0.6421453 -0.21533976 -0.45189664 -0.20080653 0.04983605 0.34577358 0.9226265 -0.053914495 0.5775617 -0.28534254 -0.3474227 0.09723163 0.6702843 0.41867098 1.0455132 -0.5310634 0.055991992 0.72959137 0.8140667 0.24391167 0.18390374 0.73647827 -0.14502655 -0.35711715 -0.9747044 -0.24627236 0.38607585 0.32202604 0.6806442 -0.06471349 -0.016129248 0.2706499 0.7773259 -0.028591596 -0.12880482 0.16728503 0.5369229 0.67570525 0.61270905 -0.087781444 0.33658174 1.2292409 -1.0123278 -0.39278254 -0.34685954 -0.50457853 -0.43427503 -0.31687203 -0.183141 -1.1559263 0.9315371 0.7052264 0.3051925 -1.3354083 0.3362545 1.588754 0.04026581 -0.8008071 -0.39361298 -0.5636916 -0.051675852 -0.14889832 -0.18947731 0.5181781 1.0707875 -0.40347803 0.3731797 0.26677403 0.2666355 -0.6303725 0.71102804 0.18579999 0.18997964 -0.13727106 0.39855787 -0.6722681 -0.17531438 0.30638036 0.23208067 -1.3415531 0.25350738 0.49229044
CUG -0.44283834 0.666785 -0.8113921 -0.40149584 -0.54928625 0.20874 -0.9348377 -0.035159457 -0.548244 0.33805797 -0.4861993 0.050355293 0.175581 -0.13444144 0.79728377 0.0011416636 1.0506116 -0.49822798 0.09804689 -0.699874 0.16406104 -0.32940966 -0.14467159 -1.0304158 0.108269826 0.3839107 -0.62154144 -0.16498451 0.52765375 0.56164354 1.0429581 -0.38892177 -0.5729759 0.42766598 -0.20714104 -0.55420244 -0.33722708 0.34804666 -0.18538639 0.5728029 -0.01880953 0.3176533 0.6661225 0.26465884 0.26293567 -0.099940315 -0.26318082 -0.3197213 0.13098787 0.25898018 -0.09893857 0.63570493 -0.38902086 0.3381505 -0.6723233 -0.46076837 0.5143048 0.053438444 0.06787021 0.0083193295 0.5412964 0.20354025 0.4124943 0.8752825 0.46278 0.3225065 0.9810579 0.35065845 0.19240223 0.4574304 0.19366986 0.33354962 -0.15437774 -0.73699445 -0.06464751 0.338716 1.0913512 0.7533016 0.8874411 0.16907112 -0.25640452 -1.4603417 -0.4838865 0.65047324 0.81270164 -0.58553696 -0.7632063 0.213031 0.5014866 0.32381335 0.10858065 0.5189596 -0.28927305 -0.80400795 -0.2095787 0.14756662 0.5356398 0.62122184 0.66338176 0.47931823
AGA -0.49586588 0.61537874 -0.3216839 -0.10770907 0.28116956 -0.63088447 0.1670185 1.37342 0.46338362 -0.5953699 0.6083913 -1.0545073 0.19534948 0.43896195 0.2730241 0.11897011 0.30644038 0.25421545 0.048900764 0.11499201 0.24068388 -0.54720414 0.040079817 1.1491666 -0.57675624 0.87520266 0.5514057 0.19336571 0.31132978 -0.0904366 0.47537348 -0.40330285 -0.4409158 -0.05762901 0.1938282 -0.05323153 1.0335895 -0.24638742 -0.7087875 0.45810768 -0.1546134 -0.04579863 0.44386986 -0.0901867 -0.17899382 -0.14550938 0.19413534 -0.3500075 -0.17884447 0.041004248 0.4466602 -0.31192213 -1.0945129 -0.45699418 0.19947596 0.0933202 0.65019804 -0.031059803 0.5665257 0.068408385 -0.2722247 0.6739163 0.65588254 0.29853833 -0.08183432 -0.6605189 0.30295995 1.0035769 0.42003632 -0.6583048 1.0650504 -0.8415503 -0.1676549 0.98485 -0.15814936 -0.55502576 -0.6107977 0.2881604 -0.48274103 -0.21217857 -0.20988505 0.24323927 0.6004457 0.07257172 0.4087685 -0.10546324 -0.016576048 0.29546613 -0.16343445 -0.63730603 -0.33832204 0.038389433 0.10971676 0.07501086 0.29412 0.7463768 0.7011403 -0.5014279 -0.32612166 0.25047234
UGU 0.30298954 -0.10406446 -0.40112233 -0.53880847 -0.39100605 0.88761866 0.47296295 -0.27356058 0.3178662 0.8915235 -0.7854073 0.35570967 -0.14417459 -0.5532302 -0.964143 -0.26246366 -0.22789672 1.1056726 -0.07766358 -0.3712416 0.04255546 -0.08127216 0.24419504 0.4117457 0.6782339 0.2544109 0.20931216 0.4271554 -0.8288199 0.4988576 -0.8134155 1.0248151 0.5568607 -1.1196886 0.20459613 -0.3016735 -0.4659177 -0.105074756 -0.4497148 0.12461915 -0.21498108 -0.30950022 -0.4394248 0.2479406 0.45641863 -1.2391703 0.19967145 0.40433037 0.12808166 -0.19480409 0.44065148 0.58796966 0.5866108 -0.66397035 -0.6459904 -0.8427415 -0.7654723 -0.5085636 0.1196973 0.0062761595 0.74506146 -0.74440366 0.18937598 4.2297914e-05 0.15803093 0.26980346 0.6671529 0.420966 -0.7646167 0.5709844 -0.450212 0.7726115 -0.65112704 -0.15510198 0.16562569 0.5323419 0.44515413 -0.21972932 0.33194813 -0.17027973 -0.84400475 -0.4595737 -0.2695366 -0.60487324 -0.49403024 -1.0126295 1.1564704 0.81540924 -0.9593103 0.36679834 -0.14129198 -0.28996903 0.26567152 -0.5496282 0.7185026 -1.3392576 0.7352308 0.36967954 0.633714 0.18558782
CAG -0.56733304 0.016369354 0.5941956 -0.7141424 -0.10520762 0.51632565 -0.16529757 -0.27904433 -1.1393589 -0.92948043 -0.43132544 -0.24627352 -0.47596642 -0.47256282 0.46888793 -0.5924401 -0.37306362 -1.036593 -0.37918013 -0.32341492 -0.17683648 0.3462766 1.0499439 0.13134903 -0.6195561 0.50775695 -0.27294478 -0.62497777 0.7405338 0.65007126 -0.42859924 -1.1090677 -0.9714009 -0.56911635 0.13274513 0.83689713 -0.13965626 0.7646672 0.8671545 -0.17741416 0.3836595 -0.5266162 0.01981538 0.3321408 0.53623927 -0.03425492 0.075993925 0.9763761 -0.7247101 -0.38421503 -0.053396847 0.28913078 0.56823367 0.62883985 -1.0528401 -0.02716613 0.5636859 -0.36400878 0.115521885 -1.5688419 -0.023854855 -0.2790217 0.47239128 0.19484743 0.16099288 0.2940913 0.21784815 0.5630916 -0.40643552 -0.4000326 0.15561977 0.2295424 0.30934808 0.5151268 -0.9307618 0.5355711 -0.67980707 0.5580486 0.338803 0.31829718 -0.021511562 -1.2769823 0.8498724 -0.98371124 0.63876504 0.28925836 -0.39150622 0.45768756 -0.3340293 0.03054424 0.018009763 0.31749976 -0.21048087 -0.35061154 0.70071995 1.312242 -0.44356394 -0.6591986 0.31416196 -0.121465795
UCU 0.8811246 -0.22509535 -0.023000423 0.8206537 0.12831774 0.33972192 0.23947807 -0.15559644 -0.6995893 0.83171374 0.8911827 0.5442643 -0.04842301 0.879076 -0.68046135 -0.39071196 0.756369 0.009381796 -0.2352849 -0.47838485 -0.18944047 -0.19246452 0.14843945 0.63056475 -0.6473603 -0.6656862 -0.5996398 0.54488343 -0.46618277 0.06323601 0.25478896 0.33390293 -0.2209154 0.120065324 -0.3946524 0.2969515 -0.4134663 -0.2891433 -0.6177658 -0.7019465 -0.11165874 -0.86955684 0.015819758 -0.18425065 -0.12314057 0.6598615 0.24378863 -0.2207279 0.43910924 0.46519592 0.11186942 -0.60263336 -0.3461236 0.67075044 -0.43692252 -0.49428168 -0.35574892 -0.70451146 -0.62619865 -1.3274692 -0.022222573 -0.30802166 0.8121338 -0.33446765 -0.8163543 1.0877768 0.45864835 -0.6611425 -1.2207756 -0.2558625 -0.0033915718 0.50708133 -0.9647496 -0.44168645 -0.1285095 -0.15781489 -0.40508813 1.0582255 -0.18448137 0.6375256 0.20051208 0.24865465 -0.4196481 0.33707058 0.07930657 -0.6554971 -0.34070882 -0.15865064 0.5680967 0.7721532 -0.515036 -0.41266298 -0.6335102 -0.3862662 0.19311026 -0.5987467 0.19799362 -0.110589445 -0.84732825 0.47602466
UGG 0.76025844 -0.81966585 0.6533128 -0.3452855 0.33657572 0.0886824 -0.37169543 0.61608934 0.19620149 -1.0064044 0.32666492 0.092219904 -0.5039873 0.08975894 -0.87828386 0.24739102 0.019240795 0.54511124 0.09827905 -0.9866081 -0.0039598574 0.23415112 0.9144138 -0.33038083 -0.35565072 0.8297497 0.4396227 1.247696 -0.20319773 1.399368 -0.81746453 -0.62923545 -0.4682445 -0.6096803 0.017883195 -0.8046156 -0.5490179 -0.91527456 -0.047434058 -0.12861402 0.7704745 -0.4006613 -0.59144247 0.27203658 0.8840692 -0.7773651 -0.528866 -0.2037943 0.5875785 0.077198796 -0.4533966 -0.23199502 1.1408411 -0.4652762 -0.56610316 0.3817361 -1.0641097 -0.092492156 -0.45218998 -0.052761037 0.033039436 -0.12707311 -0.1054275 0.6312633 -0.061970092 0.3885736 0.16487017 0.99204767 0.2591427 -0.46574217 0.590895 0.5198201 0.2316479 -0.32657006 -0.72303665 0.2704941 1.1358303 -0.77141035 0.27904314 -0.30819905 -0.20188387 -0.50719 -0.34368992 -0.1409423 0.016831102 0.010154961 -0.17496447 -0.09430223 -0.3658371 0.39627033 0.13809785 -0.024463829 0.17578925 -0.46934173 0.0031697836 -0.12743296 0.40294638 -0.21827042 0.6773181 0.09623271
AAG -0.6540351 0.7994639 1.3834804 0.18322954 0.9793462 0.5061142 0.6034607 -0.46639517 0.12054704 -0.28534767 0.61342317 -0.24495515 0.22838305 -0.6781561 0.19484346 1.1019913 -0.19589563 0.7346848 -1.108778 -1.1235644 -0.33184075 0.046685863 0.5973051 -0.58050644 -0.2757135 -0.099427626 -0.3568962 -0.23207033 0.38450044 -0.24916194 0.27967617 -0.30388656 0.11664641 -0.05787899 0.13741256 0.043713044 0.85957515 0.3835912 0.5292119 0.28238523 0.5424266 -0.44446895 -0.55457604 0.060508106 0.44287342 0.035788566 0.94045305 0.8080652 -0.23378761 0.13968748 0.66400254 0.019339731 0.585294 0.33012018 -0.73103255 0.54467714 0.7237398 0.40853572 0.30114824 -0.32321644 -0.6465165 0.00987277 0.46413484 -0.54041666 -0.5472343 0.09738018 0.40758115 0.27729455 0.59887105 -0.3638635 -0.50258404 -0.8685358 0.85951054 1.3885839 -1.5868729 -0.7250176 -0.46903133 -0.15701984 0.15671846 0.31063417 -0.34218392 -0.13255984 0.9071192 -0.39731076 0.97547734 0.29979876 -0.13069025 -0.34139276 -0.08981519 0.16675457 0.26415142 0.11925275 0.30174053 -0.48087752 1.1360295 0.47786576 0.5319045 -0.09704729 -0.24441335 -0.14770623
CUU -0.3207961 -0.91878736 -0.39307803 -0.07720558 0.0075413785 -0.27813092 -0.9016839 0.2204126 -0.17924339 0.67353076 -0.31489933 0.59383255 -0.89330196 0.15196994 -0.14594264 1.0021023 0.009325085 -0.35812557 0.36313552 0.4670007 -0.36423096 0.3308311 -0.4060484 -0.036839314 0.9319834 0.082711816 -0.2595086 1.1308984 0.12048644 -0.13816075 -0.18705662 0.69653094 -0.489477 0.6005781 -1.1175807 0.60076356 0.6083858 0.1276611 -1.0329622 1.2579844 0.22322986 0.43640774 -0.34323978 -0.5399556 0.8237199 0.46546713 -0.22756864 -0.0066113737 0.31706578 0.76642555 0.78144366 0.8508343 0.13904952 0.6244671 -0.35627788 -1.0968468 -0.17636539 -0.21822722 0.49115568 0.17867161 0.16839851 -0.15981115 1.5025632 0.16159752 0.3595258 0.14003046 -0.17155863 -0.56939083 -0.65922993 0.53872234 -0.18834326 0.81359506 -0.44337428 -1.2907027 -0.024760883 -0.10012721 0.40146372 0.24831833 0.49224967 0.7150242 0.009307415 -0.3977161 -0.7572255 0.7185232 0.38301444 -0.9153634 -0.050688542 0.40183213 0.8587476 0.9645914 -0.14247844 0.5260823 -0.29451358 -0.8686606 1.526719 -0.018271323 0.121900834 0.4749497 0.6226804 0.363026
GAA 0.6307898 0.037356425 0.20291932 -0.5511677 0.21376011 -0.3397856 0.23345691 0.8749797 0.7683785 -0.7110885 0.21205947 -0.26732713 0.0042850873 0.19999577 0.026730869 0.97522295 0.5983747 -0.5473194 0.3468558 0.5160796 0.7701913 0.25026917 0.59239995 0.07244485 0.35090342 -0.14674641 0.65728617 -0.66737384 0.34368187 0.750473 0.07156708 -0.40273935 1.1116807 -0.68818754 -0.4329931 1.195242 0.68864566 1.2293658 -0.07269407 0.77659005 0.027904835 0.11825367 -0.48421198 0.28721532 0.055704705 1.01235 -0.28887272 -0.63870287 -0.27885026 0.28467187 -0.37468153 -0.38893086 -0.53291607 -1.0721718 0.3009799 -0.010456458 -0.30908293 0.5063585 0.19969705 0.8678335 -1.2137638 -0.776388 -0.3738459 -0.3644073 -0.18446998 -0.31362525 -0.3578645 -0.9780873 0.8171016 0.111721694 0.6251636 -0.50066006 -0.06598086 1.0531871 0.7587066 -0.4080855 0.41557533 -0.9384155 -0.13284382 0.9864519 0.41981217 0.03737788 0.8975879 -0.4998753 -0.37873366 0.18438388 0.38971874 -0.41173294 0.10021718 -0.33209956 0.9629319 0.040519502 1.406236 0.02824361 -1.5592383 0.20304249 0.6793306 -0.2672752 0.23182133 0.41321167
CCU 1.1215384 0.37592325 -0.09575622 0.6638778 -0.7819298 -0.38062063 -0.53961915 0.9701767 -0.7929234 0.032867327 -0.29728106 0.10930291 -0.9344005 0.41805702 -0.22045286 -0.59183794 -1.0085655 0.4508182 0.1379095 -0.44522193 0.36822867 -0.45555878 0.11901002 -0.93891513 -0.9375198 -0.66210383 -0.66739964 0.35904685 0.6002051 -0.18511538 -0.21564278 -0.6142809 -0.1940932 0.9731408 0.3917661 1.3001161 0.5793029 -0.29427266 -1.4068027 -0.42196938 -0.88554114 -0.5308827 0.215853 0.42701384 0.12216739 0.4776408 0.16706574 -0.9312753 -0.09280827 -0.59873253 0.020345837 -0.31840923 0.4902736 0.7033036 -0.74785036 -0.29161665 -0.43203905 -0.06342206 -0.5423659 -0.7739306 0.31527725 -0.07286864 0.033553675 -0.6127638 -0.26286396 0.29153314 1.1004429 0.30653462 -0.45818153 0.5339144 -0.8245027 0.23266625 -0.7346681 0.19869371 0.48702478 1.1340293 -0.18016611 1.1675369 0.050648626 0.2489501 -0.18460096 0.18526563 -0.44337955 -0.20796148 -0.37408248 0.31743008 -0.6951517 -0.7647699 0.5662313 1.13046 -0.60376936 -0.40044072 -1.1383222 -0.23748827 -0.292541 -0.12677328 -0.6816756 -0.020070832 -0.62407 0.5996582
UGA -0.18017872 -0.6677269 0.53387815 -0.3970149 0.31129614 -0.42285725 -0.25255746 0.896631 0.6771795 -0.659075 -0.052971832 -0.042907704 -0.14160435 0.3732743 -0.12606002 -0.4077571 0.333161 0.6522508 0.43303135 0.20583375 -0.17376432 0.1071225 0.42614177 1.0651824 -0.08056662 0.8320201 -0.2759932 1.5217333 -0.086839676 1.3338447 -0.39380294 0.47212347 -0.37162387 -0.6121464 -0.18671893 -0.46893805 -0.4843616 -0.7594213 0.01629655 0.12059145 0.36672896 -0.085536 0.011668245 0.24201393 0.08008187 -0.3805491 0.3941887 -0.06449016 -0.26746023 -0.44397998 0.8571929 0.049554802 0.3166151 -1.246292 -0.29895627 0.29581165 -0.47153366 0.1308511 1.2046796 0.51138496 -0.057521347 -0.08714588 0.87802184 0.52314544 -0.054638457 -0.013422694 0.89205456 0.8191266 -0.5996226 -0.038453992 0.5651063 -0.42508844 -0.13044612 0.30100682 -0.1061455 0.4531848 -0.5105122 0.045034066 -0.8207859 -0.45431328 -0.6265698 0.5789747 0.40622118 0.50425506 0.35486394 -0.01516605 1.149287 0.37581468 -0.3709504 -0.45105368 0.7173647 -0.7607109 -0.3114808 -0.5549593 0.3254923 -0.28444275 0.6755017 -0.32570872 0.36752433 0.6042071
UUG -0.0055169463 0.9199223 -0.29112327 0.22935823 -0.48864093 1.1543813 -1.289829 -1.1774182 0.41167364 0.8429591 0.6949553 1.2641933 0.28957072 -0.16522153 0.11768509 0.16173041 1.0467496 0.8494375 -0.9711367 -0.35130495 -0.37444645 -0.12247698 -0.7643836 0.8007399 0.5903416 0.23980671 0.35881454 -0.35651717 -0.3940236 0.5102032 -0.071722895 -0.8873078 0.76079637 -1.0455606 0.0021498897 -0.47861078 -0.47114012 -0.012223889 0.12141037 -0.5376345 -0.436746 -0.30112112 -0.04528427 0.49072766 -0.29925784 -0.9325079 -0.5122672 -0.12062711 0.6829893 0.34046724 -0.8486755 -0.48675385 -0.85414445 0.25524005 -0.086170204 0.17938721 0.6437572 -0.40022293 -0.88186264 0.07842177 0.4709027 0.35982603 0.4262401 0.5418335 -0.13557634 1.3167154 0.81734574 0.5748967 0.2730954 -0.025819987 1.0778495 0.31257817 -0.09549339 -0.024878245 0.9349256 1.1338643 0.6682175 0.7998522 0.092636935 -0.3748038 -0.6261385 -0.9338795 0.15665305 0.64686334 0.3443963 0.37296352 0.45484906 0.3308299 0.0101849055 0.5638156 0.62974954 0.68034357 0.6248099 -0.07401544 -0.35608488 -0.33757734 0.23693328 -0.08502337 -0.4476702 0.8643416
GAG 1.0065154 0.4300895 0.8233786 -1.036828 0.58245313 0.44417784 -0.11925101 0.18403077 0.4145467 -0.5237381 0.8216912 0.24106242 -0.13928287 -1.1690174 0.11311348 0.5413773 0.17518845 -0.71824974 -0.15004365 -0.19026057 0.5724421 0.4432906 1.0213335 -0.6407295 -0.59996426 -0.10795621 -0.3510657 -0.5832001 1.1201786 0.37623507 -0.40442175 -0.9624661 0.41749552 -0.3485134 -0.20133375 0.46361694 0.7034032 1.1255505 0.22229362 0.18150611 0.44904304 0.15350772 0.1571645 0.6250901 -0.0027042786 0.5209638 -0.07956557 0.57034636 -0.4914601 0.039615545 -0.60324687 -0.34900662 0.2937402 -0.5916077 -0.86728835 -0.23758519 0.04257703 0.9777478 0.534534 -0.3960327 -0.46096525 -0.5370458 0.74382406 0.029209241 -0.37357223 0.41020957 0.077397384 0.44072324 0.0918617 -0.595908 -0.11269257 0.080472 0.32894266 0.46728304 -0.75748336 -0.2811982 0.218677 -0.37472215 0.12507388 1.005559 0.23616716 -0.54397595 0.515373 -0.5847052 0.19311845 0.3892508 -0.015214864 -0.034766056 -0.61511505 -0.28939062 0.7632035 0.2758522 0.79953235 0.30452815 -0.11465227 0.15988743 0.6740252 0.67747426 -0.14278688 -0.21937943
CCA -0.7057808 0.36294028 -0.4599069 0.30693096 0.24951768 -0.25833404 -0.1895805 0.45713612 -0.41801795 0.78282154 -1.0687321 -0.43794766 -0.43652612 -0.41172466 -0.1679242 -1.0191243 -1.1940678 0.09411975 1.0064706 0.036852136 0.77743447 -0.43469793 0.007600181 -1.09266 -0.71574503 -0.47293764 -0.23776445 0.557213 0.61446893 -0.5116446 -0.3486724 -0.6731272 -0.03127229 1.4617769 -0.0053085596 1.3607194 0.16030994 0.011755293 -0.87301254 0.74458075 0.48230988 -0.27274844 -0.09206538 0.55374986 -0.14733204 0.103889816 -0.20754585 -1.3336234 0.10039321 -0.86882114 0.4015827 0.015473722 1.3451033 0.94533086 -0.17852917 0.6429151 0.8926729 0.21530293 0.0361844 0.22457251 -0.21108963 -0.6597202 -0.5562789 -0.59445626 0.16952553 -0.46834284 0.3404009 1.168355 0.33817708 0.73630846 -0.7331156 -0.376991 0.40314946 0.025776211 0.17602864 0.35696462 0.45704588 0.7275024 0.24195786 -0.08339752 -1.0779369 0.8903858 0.18421964 0.2524567 0.0748586 0.6822289 -0.7364939 -0.2766936 0.5484018 0.19740066 0.26216194 -0.2481411 -0.6880899 -1.0804001 -0.6236307 0.65762526 0.16896035 0.05289459 0.58109766 0.39789867
AGG 0.4039097 0.2198411 0.03861444 -0.31509468 0.4040856 -0.22268373 0.27086425 0.97351396 0.17352784 -0.9920767 1.0608981 -0.7422435 -0.1472249 0.045720346 -0.52036345 0.7624981 0.029591408 -0.11395528 -0.050818726 -0.7981478 0.4212322 -0.40336514 0.64898485 -0.16644308 -0.96892697 1.0413241 1.1428187 -0.15443584 0.13808103 0.12835479 -0.01799423 -1.1973101 -0.43830705 0.03149629 0.41617084 -0.3445054 0.6227735 -0.3690989 -0.5873092 0.03546542 0.31641147 -0.08729978 -0.2320469 0.12378837 0.64425844 -0.47548416 -0.4390714 -0.33609307 0.7172459 0.38206288 -1.1652255 -0.54272765 -0.22933203 -0.059780713 0.09111427 0.30071488 -0.28086463 -0.0171277 -0.62378925 -0.55728483 -0.20739485 0.40625963 -0.19660714 0.5336753 0.09121926 -0.23075144 -0.7356255 1.3501532 1.1376158 -1.2685143 1.2007651 0.25158685 0.40640575 0.446339 -0.7621293 -0.587304 0.96886647 -0.6538241 0.62246495 -0.12374847 0.22124746 -0.93794596 -0.024083475 -0.630613 0.15276404 -0.18642396 -0.8324118 -0.2790262 -0.2216145 -0.42766586 -0.70735747 0.76112825 0.66454965 0.47302216 -0.13758336 0.93178296 0.38616696 -0.17872128 -0.029455937 -0.41104743
ACA -0.7647797 0.6887463 0.6279412 -0.22030298 0.6814139 -0.58617926 0.14461967 -0.8693593 -0.32750723 0.33359355 -0.27976155 0.5569272 1.0621048 0.34827897 -0.21072322 -0.22495505 -0.48237944 0.43119082 0.3141723 -0.019146219 0.90027905 -0.33719358 0.07518014 -0.024340427 -0.433862 -0.08658219 1.1366186 0.92939866 -0.009260026 -0.16189834 0.20249523 0.3838507 -0.39001274 0.5994863 0.41319665 0.07404308 -0.5275184 0.11141652 0.24741676 0.42924517 1.1674733 0.22745307 -0.36443996 -0.14398652 0.2113442 -0.29367486 0.23647742 -0.63382834 0.18041998 0.032981757 0.8270161 1.6244766 -0.10933701 -0.58327067 1.1717145 0.6143587 0.7515048 0.11514334 -0.3149263 -0.47441235 -0.7764735 -0.23337747 -1.1414807 -0.33715704 0.5542673 -0.35090417 -0.24112833 0.042251468 0.6382364 0.032174397 -0.5528595 -1.0850177 1.1348482 1.3099209 0.11179926 0.44131437 0.9575211 -0.25893804 -0.15784633 0.84419984 -1.0733224 1.1458014 0.18164492 0.43196175 0.13162927 -0.28816143 0.9882742 -0.071508914 0.7006607 0.07254014 0.8283228 0.02038495 0.38210243 -1.1107846 0.27851233 0.49725327 0.15290745 0.15132669 0.30027512 -0.79029685
GGA 0.20528108 -0.79259837 -0.6484653 -0.43231633 0.7976261 -0.07305878 -0.3742876 1.2018882 0.12428201 -0.58853143 -0.2879301 -0.27036908 -0.17464997 -0.35821578 1.0409005 0.05773243 0.28594816 -0.34160775 1.272875 0.6781417 -0.11106221 -0.39844266 0.12141483 -0.08129987 0.2632379 0.09549692 -0.62575966 0.1790377 0.8054269 0.15911902 0.36677006 -0.1937561 -0.42497084 0.3455325 0.003191128 0.12933844 -0.2007493 -0.22374843 0.563009 -0.37828368 -0.24175419 -0.13604912 0.7424064 0.59067976 -0.34799737 0.14592162 0.13564754 -0.29437092 -0.2793489 -0.24000308 0.36796567 -0.76127183 -0.78421336 -0.07254635 0.34766495 0.25306952 0.38885152 1.185187 1.2517126 0.31203535 -0.612547 1.0776385 0.92711437 0.51135033 0.1124305 0.24689054 0.6896329 0.70427614 -0.24044134 -0.7171944 0.8406647 -0.5957492 0.18709704 0.41282615 0.48275653 -0.6472485 -0.800622 0.28057367 -1.2165686 -0.31447014 -0.21922955 0.120252796 0.3852675 0.42781547 1.0394979 0.5037373 0.741806 0.7781321 -0.53211796 -0.9517673 -0.024858836 -0.013101917 0.26893967 1.1189638 0.34419486 0.85166717 1.431763 0.1710449 0.8999866 0.14419891
GUG -0.14289229 0.46946353 0.5783261 0.036951054 -0.7952746 0.4089978 0.6612945 -0.38091582 -0.023178387 -0.20173842 -0.008565059 0.5218039 0.6667662 -0.8158677 0.774773 0.56231254 1.0497772 -0.1271808 -0.365815 -0.5624767 -0.3309994 0.060823206 -0.47901282 -0.67705655 -0.4612208 1.1125913 -0.47882074 -1.0004404 0.16096775 0.91366935 0.106923595 -0.14133589 0.690243 -0.18362843 -0.055545025 -0.16562434 -1.1283242 -0.49617046 -0.007819547 -0.41084316 0.48374102 0.7563958 0.26897323 1.0495204 0.07073152 -0.541297 0.4431514 -0.20519386 0.5672405 -0.26967537 -0.9384077 -0.17651325 -1.0297301 0.22257827 -0.6762588 0.685438 -0.34550348 -0.0082223555 0.76022136 -0.44723535 0.06876627 0.47148836 -0.6043535 0.5342876 0.5830479 1.0209737 -0.03279695 0.3968848 -0.47296914 -0.60871756 0.038987175 0.8077924 0.67088777 -0.44538012 0.1632959 0.5139753 0.9236047 0.57250893 0.21105203 0.04522471 -0.47865227 -0.679302 0.2932468 0.20240514 0.2585739 -0.1194359 0.15468171 -0.23410057 -0.32744858 -1.6132166 0.4186066 0.45768234 0.30621922 0.92152894 -0.68742377 -0.48828977 0.09882405 1.136007 0.16364434 0.69413126
UUC 0.30001253 -0.71148825 0.08359819 1.1224523 -0.9438035 0.4187096 -1.1686027 -0.95594954 0.53332263 0.4337866 0.07125249 0.22096048 -0.17420168 0.10520973 -0.013961916 -0.3198186 -0.13200735 0.46215767 -0.42411 0.4988225 0.28683046 1.1445266 -0.3982176 0.4225209 -0.1536458 0.07427688 -0.2501202 0.21153696 -0.39319453 -0.7691079 0.020060077 -0.54691947 0.6392474 -0.6390471 -0.2326289 -0.5847054 0.40030193 0.9269938 0.09548673 -0.72711545 0.052579004 -0.021079352 -0.1865133 -0.24711256 -0.6869857 -1.072675 -1.1689732 0.3666933 0.26615041 0.030515514 0.10324443 -0.6194914 0.4426601 0.4407925 -0.11364071 0.8923429 0.6432773 -0.590133 -0.37809354 -0.36697719 0.42913854 0.4981652 0.3293955 -0.29721317 -1.0976039 0.80244154 0.22483523 -0.575454 0.34784442 0.025025574 0.10289596 -0.24842909 -0.6361856 -0.05428575 1.4012372 1.444617 0.49062127 0.16606209 -0.8658776 -0.33399224 -0.458274 0.5309169 0.06428238 0.27315488 -1.6090358 0.75734854 0.18779187 0.22354555 -1.0108979 1.0947565 -0.506685 0.21833767 -0.06913934 0.89141566 0.6304803 0.09364698 -0.46298936 0.30355367 -1.2703412 0.4726609
AUG -0.1252493 1.6951923 0.027978985 0.7604495 -0.57832676 0.4351552 0.0063242335 -0.4774748 -0.6325891 -0.34243208 0.049775805 -0.17995083 1.577495 0.20984706 0.4478566 0.43095756 0.5533554 0.5607714 -0.55874926 -0.8224139 -0.029723886 -0.25072274 -0.6112238 -0.15001062 1.1518695 0.71531355 0.1464298 -0.26177883 0.6172758 0.61311156 0.19743696 -0.2140643 0.4303803 -1.2151518 0.27262747 -0.34389296 -0.5262735 -0.5855722 -0.15191865 -0.73652774 -0.2880069 0.068955414 0.10938985 -0.1944829 -0.5750514 -0.8430504 0.24075502 -0.55725247 -0.4544526 0.109977625 0.2737693 0.19927779 -1.8473704 0.0072184564 0.1913846 -0.49166662 0.33893567 -0.44564173 -0.85930336 0.14131121 -0.20796071 0.5396829 -0.63619846 0.8195018 0.09062362 0.047731604 0.58188415 0.34462127 -0.40106347 0.8568795 0.10818771 0.06864733 0.4682753 0.106078416 -0.4187809 -0.19981255 0.3029772 0.14881629 0.18119128 0.34420675 -0.08262794 -0.42400503 0.6332047 -0.59731674 0.27736184 -0.25205338 -0.053045243 -0.04406137 0.071997136 0.17757241 0.6420918 -0.05459349 -0.15456975 0.016342087 -0.63481206 -0.59689766 -0.050077934 0.2825984 0.6342857 0.16500176
AUU 0.043465346 0.18352525 0.6761871 1.1876155 0.20795217 -0.21852858 -0.06146381 -0.12738642 -0.21930169 -0.18868436 0.53169584 0.39764443 0.6144623 0.46792006 -0.6069253 1.4469807 -0.5668113 0.662719 -0.42796245 0.3851505 -0.58229303 0.53955674 -0.8167065 0.8614678 1.8636209 0.55259806 0.60338116 1.3099025 0.4186187 -0.35539618 -1.1153979 0.48975876 0.41467252 -1.0757872 -0.625198 1.0087515 0.8626706 -1.0056279 -1.16781 -0.069096364 -0.034584705 0.24519376 -0.8097756 -1.229765 -0.1997623 -0.369714 0.08316008 -0.19019252 -0.3702587 0.5699726 1.1959593 0.22903346 -1.4443467 0.53144175 0.45088407 -0.9136443 -0.05168729 -0.63210464 -0.5328893 0.15260339 -0.66521376 0.08276388 0.64346683 0.21239899 -0.22442338 -0.09603033 -0.9577949 -0.43689293 -1.2435371 0.8806291 -0.25493488 0.56474406 0.22170064 -0.4812872 -0.75180227 -0.8165847 -0.45885372 -0.33519825 -0.23267561 0.9922447 0.23882623 0.9568925 0.45423678 -0.5532218 -0.30810228 -0.20846951 0.34706613 -0.032370046 0.36687446 0.79786456 0.26351452 -0.02201292 -0.24361114 0.04898176 1.1469415 -0.70462203 -0.6138759 -0.041205708 0.3071048 -0.16498831
CUC -0.011438841 -1.0202793 -0.40294194 0.23612027 -0.71621376 -0.35664207 -0.9163796 0.07012168 -0.36370414 -0.18823455 -0.80375296 -0.9195275 -0.61213195 0.2046762 0.6860695 -0.42344147 0.012636764 -0.97051007 0.60300106 0.01317505 0.5060511 1.0029161 0.060693737 -0.91756374 -0.4741645 0.018582014 -0.9093348 0.5447791 0.2180449 -0.62192476 1.0992539 -0.08339704 -0.77099 0.57957304 -0.4764097 -0.7915177 0.69948053 1.2376621 -0.035237785 0.45496687 0.33502665 0.0718737 0.36359626 -0.31047532 0.031613506 -0.081798755 -1.1534996 0.26491135 -0.22233175 0.21993162 0.79699045 0.37073767 1.0119047 0.17304976 -0.318845 0.09476239 0.35891226 -0.10195218 0.009469816 -0.32418704 0.30873364 0.39773026 0.35127553 0.043281037 -0.42451453 -0.12588124 0.5931841 -0.8896674 0.2213808 0.30469847 -0.4637521 -0.111350864 -0.6749872 -0.7331581 0.66637284 0.58643055 0.8868469 -0.08007636 -0.20695272 0.21270657 0.15913758 -0.2505016 -0.6993152 0.48968628 -0.73241097 -0.086441666 -0.8675693 0.41665593 -0.27377424 1.2934524 -0.5900547 0.15311444 -0.63118595 0.23804559 0.8085016 0.670222 0.070756 0.8567895 -0.124922656 -0.039906792
AAU -0.9341225 0.06654741 0.2976657 -0.4350626 0.7354135 -0.4093639 0.9915392 -0.3311418 0.21312407 0.42127535 0.4776607 0.4820465 0.16958885 0.4533847 -0.432316 0.7140792 0.6869008 1.3634068 -1.2942921 -0.7962039 -1.1715101 -0.34208292 -0.21838506 0.010551828 0.49629653 -0.3110569 0.7659047 0.39322776 -0.8564065 -1.0100905 1.0041258 0.7927596 0.96013755 0.15541944 0.8251418 0.2180833 1.084418 -1.0136373 0.08260525 0.8837898 -0.9404304 -0.12200064 -0.031992726 -0.32703662 0.6738314 -0.2656808 0.48294485 0.89895463 0.35766846 -0.11090797 0.93954736 0.76694256 -0.026313864 0.41041476 0.26647162 0.68312705 1.3382138 0.5918627 0.548181 0.47756255 0.10928998 -1.1762954 0.16544084 0.084255606 -0.16318385 0.4989285 -0.64451754 -1.1826276 -0.17418313 0.8206295 -0.32378292 -0.3859983 -0.07507806 1.029103 -0.22210026 -0.5350422 0.66873354 -0.09911873 0.1683124 -0.21243246 -0.87187374 0.49724084 0.03529166 0.22365147 0.47732058 0.6016774 0.4614177 -0.64548105 0.4986259 0.31937814 -0.46538475 0.0654126 0.1882671 -0.283908 0.5268868 -0.73674685 0.6033089 -1.0714799 -0.5388234 -0.52366126
GCU 1.0012859 0.570915 0.08540318 -0.42366728 -0.6797542 -0.6991361 -0.2839249 0.88061684 -0.06920908 -0.8496398 -0.40295294 0.6368138 -0.95485187 -0.09012243 -0.38372886 -0.38156092 0.094368644 0.17619291 -0.14011478 -0.40468368 -0.47516653 0.18001755 0.13872522 -1.2521423 -0.22220504 0.24346882 -0.92466515 0.09367268 -0.31369042 0.49485672 0.17098545 -0.33871683 -1.278376 -0.0679206 -0.0039811246 0.7794478 0.569179 0.065717675 -0.20675986 -0.94512886 -0.7377575 -0.24622773 0.103042774 -0.16681415 -0.50555414 -0.66580254 -0.1700618 -0.30082124 -0.06876396 -0.6422932 -0.19112343 -1.0111803 -0.64393234 -0.17348534 -0.29671526 0.14064886 -1.1074461 -0.4883788 -0.91360277 -0.9922267 0.2869531 0.20880342 -0.06311659 -0.14837514 0.13054395 0.9020369 0.23042788 -0.2612259 0.31273955 -0.5780116 -0.47778404 0.53198236 -0.533448 0.28823292 0.37120295 -0.074501805 -1.3422036 0.18434466 0.26183736 0.014791355 0.76132107 0.29479048 -0.62886506 0.4141856 -0.21581973 0.0541034 -0.037982706 0.52737427 -0.733403 0.0076064738 -0.010950062 0.2943465 0.9409765 -0.0066638654 -0.42838413 -0.43554878 -0.75000453 0.789142 -1.4316573 -0.118743606
UCA -0.85772234 0.0560177 -0.60652006 0.017068828 1.0577254 0.33767202 0.58712554 -0.6838431 -0.3920334 1.6905814 0.35953236 0.26020902 0.44986922 0.2875678 -0.94613826 -0.87939316 0.8936489 -0.38262296 0.47728828 0.02011999 0.3918462 -0.27313966 0.25502592 0.6612201 -0.707789 -0.43771976 0.12305756 0.5921517 -0.4449673 0.104647085 0.11694186 0.24422282 -0.1867788 0.52508956 -0.79840004 0.30568692 -1.0137858 0.2969323 -0.08781181 0.43827152 1.4868115 -0.52470833 -0.2867339 -0.08671855 -0.5658791 0.18280895 -0.1934512 -0.64506197 0.7391785 0.23845471 0.2647294 -0.2330817 0.31294015 0.6824733 0.25617033 0.28932822 1.0031123 -0.76174545 -0.12345017 -0.6311903 -0.5500507 -1.1547266 0.12616926 -0.27153847 -0.43473586 0.537858 -0.28330863 0.039751787 -0.28868946 -0.24587637 0.17141207 -0.19258378 -0.013074603 -0.5226437 -0.57361954 -1.0347006 0.2672199 0.5943366 0.090904124 0.5270698 -0.5627276 1.1453617 0.21062972 0.81252205 0.5566208 -0.55943245 -0.42147392 0.55811656 0.49823004 -0.15239806 0.44996315 -0.20230156 0.088840276 -1.7633477 -0.4688898 -0.0037766553 1.0892668 -0.055914108 0.23467574 0.3860545
UCC -0.5733618 -0.45286652 -0.8009755 0.9556216 0.46078447 0.40033352 0.5149618 -1.0453238 -0.3104469 0.69544625 0.4488565 -0.030415928 -0.11693006 0.84543246 -0.7999706 -0.9761349 0.6599213 -0.92526436 0.26689813 0.13849881 0.07445545 0.27096596 0.37035057 0.42419326 -0.34288803 -0.6745859 -1.1411713 -0.17824128 -0.63230824 -0.17671493 0.8322373 0.3967838 0.10675622 0.3769772 -1.2360601 -0.33900732 -1.4664377 1.1283065 0.54780924 -1.0554229 0.5756445 -0.1101332 -0.6488063 -0.9218196 -0.045774862 0.4669329 -0.5112901 -0.5254667 0.879544 0.6427812 -0.6434508 -0.6765989 0.21981336 -0.16279237 0.081722654 -0.08401942 -0.036514536 -0.80034924 -0.376454 -0.8031437 0.42790347 -0.7437647 1.0849606 -0.09627813 -0.7645203 -0.19035074 -0.5752294 0.3268913 -0.9172481 0.19409634 0.41063738 0.8282353 -0.35264674 -1.0626056 -0.5383506 -0.36279246 -0.13066372 0.3410035 -0.0032828436 -0.10530005 0.7980852 -1.2611325 0.2634959 0.95168155 0.37201798 -1.1688358 -0.13173874 -0.7771497 0.21165408 -0.3084073 -0.22776258 -0.17193417 -0.9615021 0.036286894 -0.46378636 0.74306494 -0.13200842 0.3057582 -0.8386843 0.4910826
UAA 0.21538313 -0.348839 0.19808345 0.7584382 -0.015334364 -0.17836776 0.19891669 -0.081766404 0.06627681 0.21210207 -0.07001452 0.60585254 0.30427366 1.0288157 -0.20979884 1.433786 0.38023075 0.9405177 -0.47240025 0.50429034 0.11518274 -0.46122935 0.46483654 0.8679354 1.3506677 -0.24815428 0.54818237 0.018663855 -0.2970788 1.1006533 0.26141295 -0.00207584 1.1048001 -1.3482419 -0.07303886 0.94535047 -0.17623751 0.61850685 0.6296989 0.13282536 0.12065672 0.15698391 -0.24540456 -0.4101347 0.18502456 0.029575603 0.04571123 0.028238537 0.031077227 1.1080471 -0.046626765 0.40310884 -0.94556206 0.47554186 -0.039168254 0.53711265 0.3154546 -0.2930852 0.45617944 1.4252677 -0.37210682 -0.11125247 -0.37584743 0.064489074 -0.59974664 0.56175673 -0.95066535 -1.1322963 0.91553086 0.91248935 0.06146417 -0.9910779 0.07366746 0.6073629 0.7971141 -0.6864923 -1.0139751 -0.010631713 0.39268756 -0.22360045 -0.3216651 0.8594923 -0.22476354 0.29832667 -1.0647069 -0.23646568 0.5063702 -0.6854883 0.6521326 -0.532248 -0.59283906 -0.3474367 0.1344292 -1.4759989 -0.22313267 -0.5402482 -0.77264965 -2.0235746 0.4678148 0.49346098
CAU -0.75949 -0.7406734 -0.6446326 -1.3623171 -0.28126636 -0.5740723 0.105874345 -0.05620263 -0.95794624 -0.19534537 -0.55163723 0.4239613 -0.422897 0.63065064 -0.17429915 -1.2075729 0.42979974 -0.4011411 -0.38515377 0.055410497 -0.88999104 -0.10022954 0.13613729 0.6190528 0.031926364 0.2190973 0.84807515 0.18167457 -0.5562947 -0.35223383 0.30477694 0.1082458 -0.25248426 -0.14275077 0.87386954 0.6792923 0.12518306 -0.821153 0.3093957 0.44026375 -1.1122642 -0.08476827 0.7217446 -0.08708507 0.6379654 -0.36317202 -0.44408008 0.97231007 -0.08863553 -0.7088717 0.2545839 1.1247815 0.047309935 0.57942575 0.16595359 0.048721794 1.1133804 -0.01204683 0.33344054 -0.6400382 0.8764288 -1.2921761 0.097915314 0.85681814 0.63297087 0.4912755 -0.8799887 -0.808691 -1.1779327 0.62981796 0.24275659 0.65140355 -0.6000609 0.05128926 0.49315265 0.69388634 0.48334742 0.5432398 0.19462332 -0.30349383 -0.5874417 -0.36740005 -0.29628927 -0.19840322 -0.0010605007 0.6157446 0.2268216 0.21154545 0.26396945 0.20914617 -0.76316243 0.24716413 -0.38124782 0.028556343 0.2084405 -0.00079761044 -0.43344495 -1.4279827 -0.08501302 -0.7105453
AGC 0.06364761 0.45154497 0.082234405 0.99338907 0.2792031 0.08914131 0.44541663 0.50116426 0.22821446 0.12735507 0.49479246 -1.5049653 1.3572803 -0.65181077 0.39515653 -0.6832925 0.39786753 -1.1634828 0.63071704 -0.54872966 0.883307 -0.65349907 0.013205623 0.35117793 -1.0245208 0.22217679 -0.40442875 -0.18960997 -0.53245866 -0.86594415 0.63547033 -0.48531252 -0.051624186 -0.46924746 0.055702776 -0.4805287 0.8443604 -0.06827555 -0.99184203 0.8276079 -0.32059255 -0.3187503 0.55291027 0.40157846 0.06509719 0.6663134 0.6467909 -0.23261946 -0.018137373 0.3653556 -0.4189555 0.27733812 0.031553634 0.40079775 -0.5514546 -0.21562608 -0.31905785 0.5565956 -0.6960047 0.25727823 0.2869299 0.53573275 -0.042658098 0.090815835 0.3459792 -1.2329687 -0.50173974 0.56291986 0.7585559 -1.1142397 0.7876812 -0.07799284 0.17853183 0.203572 0.021126028 -0.11957038 -0.02450246 0.49123827 0.8661035 0.15913334 -0.32047048 -0.45476273 -0.40839466 -0.7102397 -0.9852988 -0.53046423 -0.8162225 -0.40814942 1.0515393 -0.39751306 -0.39554933 0.099321745 -0.13069025 0.6946208 0.5579619 0.15634386 -0.2693171 -0.10840854 -0.60688907 -1.0557164
UGC 0.038165763 -0.47177184 0.7612996 0.72601867 0.18914473 0.4553077 -0.04165038 -0.1605174 0.19084673 0.13730094 -0.42432472 -0.6848558 1.2132101 -0.846763 0.088618405 -1.4666771 0.63593835 -0.7298351 0.7797371 -0.8584873 0.18597311 0.12130314 0.23057987 -0.22626147 -0.24330811 0.048040364 -1.4459162 0.88657576 -0.9872463 0.51577455 -0.19484803 0.26197097 -0.024045426 -1.2184274 -0.35041454 -0.8902614 -0.6789633 -0.7510573 -0.13211645 0.48652115 0.16347405 -0.63990706 0.13244691 0.6628788 0.034360964 0.28188518 0.78613496 0.043832775 -0.2204057 -0.3897372 0.21416095 0.40000182 1.6290025 0.15077929 -1.1297843 0.043487705 -1.0907961 0.46267968 -0.504127 0.8226084 0.5388683 -0.37432754 -0.14374715 0.3258515 0.3205215 -0.4110994 0.24319889 0.074018784 -0.25651067 -0.13742872 0.117324404 0.2809926 0.3165817 -0.6266107 -0.10298496 0.605496 0.019622052 0.30841282 0.67925304 -0.14947572 -0.704699 0.09327377 -0.5560079 -0.39276809 -0.8718556 -0.121124916 -0.19096631 -0.03164842 0.8642132 0.2670746 1.0123304 -0.6890424 -0.51888156 -0.28199926 0.30987537 -1.1010861 -0.3473183 0.027801992 0.16117884 -0.63813835
GGG 1.0096241 -0.74675256 -0.24774913 -0.50737184 0.7133694 0.4691413 -0.10571546 0.69714785 0.01965854 -0.8334101 0.37493038 -0.1093116 -0.40993622 -0.681374 0.103748575 0.61730325 0.06481239 -0.32595813 0.65945655 -0.54359907 -0.09940406 -0.21468908 0.58646774 -1.1476802 -0.030044783 0.17058448 -0.06914514 -0.30210033 0.37848738 0.22033505 -0.12474739 -0.77878135 -0.11802565 0.10145005 0.28589198 -0.29381177 -0.38841343 -0.42024907 0.4969529 -0.9088268 -0.024027744 -0.3609952 -0.031483077 0.60397613 0.32377422 -0.35657185 -0.30589974 -0.109376326 0.4993436 0.09122984 -1.0843354 -1.1836313 0.06460068 0.2081602 0.15380828 0.2704175 -0.5505465 0.9229225 -0.16150497 -0.2356109 -0.3571785 0.6592513 0.17751431 0.60030496 -0.004541085 0.68025804 -0.1012432 1.026261 0.33073682 -1.0308716 0.8695176 0.50624174 0.57470006 -0.043005895 -0.27285013 -0.7022255 0.56021154 -0.6905397 -0.08951945 -0.34935686 0.3323599 -1.0261438 -0.19836268 -0.36324325 0.7672517 0.3692106 -0.11552872 0.21973193 -0.7047983 -0.41393852 -0.34767714 0.5190302 0.7351725 1.3779316 -0.109318115 0.70559746 1.0571977 0.44083777 0.833715 -0.4583019
CAA -1.0625224 -0.3159459 -0.3288222 -0.11513193 -0.51337755 -0.31080398 0.24356405 0.25138092 -1.0760193 -0.7952835 -1.1798277 -0.7207897 -0.63420206 1.0440675 0.48490447 -0.10713555 -0.04916395 -0.6677872 0.11576765 0.36992905 -0.32202992 -0.078176916 0.31387722 0.88167065 0.6903603 0.23520468 0.59004587 -0.6118229 -0.12630463 0.9315315 0.22609703 -0.31847998 -0.11005942 -0.80822814 -0.03944425 1.695813 -0.002913206 0.8706153 0.5365169 0.50393164 -0.29917222 -0.6941009 -0.5443754 0.15836574 0.57808805 0.37152264 -0.11840555 -0.16414474 -0.51823527 -0.09274929 0.33044443 0.46722102 -0.111656584 0.36967948 0.28678247 0.09834781 0.44738534 -0.83962697 -0.16766235 0.13113013 -0.595855 -0.54048795 -0.64843756 -0.13297956 0.3833023 -0.3655151 -0.028093254 -0.9636371 0.16014016 0.61939806 0.525547 -0.40612298 -0.15319197 0.8932256 0.8110191 0.2280393 -0.86209404 0.289738 0.198382 -0.025329193 0.10302827 -0.56488603 0.96367943 -0.6318439 0.24076822 0.18806262 0.038524907 0.11086402 0.77176344 0.14622372 0.064551435 0.08264375 0.07583744 -0.8782751 -0.55433923 1.1023175 -0.65265083 -1.7474283 0.89515865 0.5721441
UUA -0.94878185 -0.20522037 -0.027770082 -0.45901164 -0.1958597 0.36718026 -1.0316311 -0.24609569 1.6672659 0.6256598 0.30124116 0.9507252 0.40360633 0.41720292 -0.3283099 -0.23780257 -0.029053465 1.0323406 -1.5563483 0.6784745 0.0023962955 0.47978747 -0.41160786 1.3312421 0.5367126 -0.91694754 1.4671584 -1.0792702 -0.8160686 -0.5930012 -1.1762571 0.1738535 0.6683493 -0.5424636 -0.06836398 -0.013431787 -0.65165687 -0.7736061 0.26124164 0.12663117 -0.16992912 0.10970201 -0.2364399 -1.2323589 0.15942255 0.26610732 0.26398423 0.07907406 0.61009324 0.18099032 0.28384125 -0.9127814 -0.33456922 0.1747079 0.26022696 0.16108866 0.93839425 -0.6526401 0.009658447 0.21536155 0.2742675 -0.29794633 0.60468894 -0.7422663 -0.2757919 0.83265203 -0.62808025 -0.5259603 -0.28266186 0.8116063 1.5209836 -0.4822455 0.21872966 0.56433904 0.8485769 1.0174984 0.54393387 -0.33051264 -1.0297914 -0.1361002 -0.5277831 0.71717674 -0.037643366 0.16963342 0.21779658 0.31890985 0.6536978 0.6511892 -0.29224238 1.0352465 0.98109585 -0.30301732 0.7781589 -0.52990377 -0.16482818 0.36191982 -0.03736442 -1.4120637 -1.0868648 0.6080966
ACU 1.0772307 0.34122166 1.1446977 0.13289694 -0.20920335 -0.43929136 -0.22238344 -0.2917047 -0.7829029 -0.20456426 0.08335627 1.0177362 0.5440225 0.8640902 0.08742734 -0.0055572363 -0.310515 0.5468148 -0.18907851 -0.58763385 0.53152907 -0.4202218 0.2391188 0.10066068 -0.600519 -0.43636176 0.53364784 0.958652 -0.18425453 0.12499221 0.4363461 0.41840896 -0.73088276 0.24836336 0.9797389 0.40950808 -0.078017704 -0.3301075 -0.16237037 -0.58094114 -0.4434145 -0.52983403 0.06656021 0.15080956 0.5388476 0.28054076 0.76477796 -0.08836568 -0.21548235 0.18460631 0.6333598 1.1714437 -0.90422505 -0.545866 0.5114106 -0.074698284 -0.60129195 0.18915673 -0.85877675 -1.5602741 -0.555956 0.4253984 -0.55060685 -0.4674915 0.15929909 0.70779556 0.7874274 -0.7878451 -0.039359253 -0.18707182 -0.51267403 -0.5434856 -0.10776599 1.619315 0.76044315 1.3089961 0.13148206 0.35744426 -0.33605248 1.0953695 -0.4250036 0.44049165 -0.5186447 -0.017616678 -0.13531883 -0.33942667 1.047813 -0.27289778 0.7613444 0.9361468 -0.097918704 -0.28954196 0.15117452 -0.18829443 0.57744026 -0.07944192 -0.22983794 -0.064320795 -0.56551075 -0.8018128
AGU 0.2568954 0.95300287 -0.8898856 -0.40875018 -0.2999023 0.42324874 0.9636933 0.53236586 0.36597452 0.7665116 -0.0009790019 -0.5477055 0.048577152 -0.420991 -0.5923668 0.56970125 -0.4992876 0.63997364 -0.227338 -0.18501526 0.63145477 -0.7877658 -0.05341458 0.7611998 0.033422943 0.43919548 1.2463233 -0.6509292 -0.3738604 -0.7390142 -0.13423628 0.3394388 0.3323456 -0.33973578 0.5595363 0.29233214 1.0825784 0.36651847 -1.3403383 0.5578615 -0.6491345 -0.08044382 -0.08520739 -0.060744334 0.4552027 -0.75098515 0.21471694 0.0783934 0.21812838 0.4592031 -0.04745759 0.35763946 -0.9972659 -0.35879013 -0.0423828 -1.1279441 -0.14121944 -0.4782011 -0.19256525 -0.512344 0.3107792 0.12938842 0.09642363 -0.30682418 0.3259681 -0.50398344 -0.046004944 0.7696408 0.28385472 -0.29669085 0.15149301 0.3934353 -0.6564855 0.662778 0.19102955 -0.35481572 0.26339737 -0.1641285 0.6259904 0.24849468 -0.32150802 -0.782998 -0.17604832 -0.97669834 -0.40438145 -1.3568277 0.3533876 0.60247517 -0.64848745 -0.1474281 -1.2247142 0.44183114 0.7857541 0.1534693 0.81232315 -0.12875916 0.7801413 0.28386506 -0.01494623 -0.29241344
GUU 0.11127676 -1.2423025 1.0343487 0.6270753 -0.31085932 -0.36655343 0.6510733 0.08732627 0.3137855 0.0775877 0.40798503 0.9330039 -0.18727404 -0.40861866 -0.087922476 1.5435351 0.3020182 -0.10475348 -0.021896485 0.609349 -0.8774509 0.6690939 -0.7680242 -0.017044634 0.14887266 0.903755 -0.38325632 0.25471625 -0.19244747 0.026763653 -0.9100834 0.82665396 0.98577523 0.12802216 -0.91228306 1.0022829 -0.08007666 -0.95357585 -1.068961 0.14617077 0.5093926 1.017025 -0.57865745 0.34585482 0.37778667 0.1639631 0.62870526 -0.009725344 0.7838755 -0.0030266999 -0.26675862 -0.22126915 -0.5288707 0.8982498 -0.35913348 0.31232074 -1.0111886 -0.051783253 1.285848 -0.16283342 -0.3017792 0.095268935 0.45523858 -0.019487457 0.34263247 0.93187815 -1.338743 -0.75750047 -1.1416471 -0.67523813 -0.21693207 1.1665616 0.3341506 -1.0170106 0.20106103 0.019284314 0.27802616 0.22027719 -0.18877204 0.5000935 -0.18006538 0.65508115 0.084566 0.14119607 -0.3619759 -0.08707339 0.5467785 -0.4200697 0.20169748 -1.1123719 -0.045899317 0.49446565 0.13872528 1.2020541 0.76982075 -0.7776171 -0.43418065 0.982052 -0.16703343 0.568727
CCC -0.3268316 -0.12945935 -0.5344911 1.0233984 -0.12062595 -0.20518148 -0.22811893 -0.08212688 -0.35810235 0.09168586 -0.627159 -0.3567978 -0.7461983 0.30855936 -0.20177382 -0.83921367 -1.0472894 -0.2462705 0.60017127 0.124462426 0.40040985 -0.043212976 0.2137067 -0.9514785 -0.23078795 -0.78015554 -1.2319382 0.06788188 0.28337854 -0.74070555 0.48305762 -0.19955029 0.2109473 1.0378141 -0.34019694 0.65123534 -0.11540383 0.81608987 -0.18832871 -0.56873864 -0.38297138 0.039480988 -0.38429567 -0.34016743 0.272584 0.36067364 -0.27647415 -0.8497917 0.20994268 -0.26274052 -0.20913982 -0.11829713 1.0112903 0.118596226 -0.2117102 0.13314481 0.012529295 0.18639253 -0.18912968 -0.05542109 0.6096638 -0.3799587 0.5725182 -0.37778035 -0.2819867 -0.8420084 0.06424297 0.9190746 -0.24024889 0.98869205 -0.51074696 0.3236026 -0.054280464 -0.1861298 0.10223074 0.7186428 -0.104155116 0.48704696 0.1455439 -0.40816447 0.14119394 -1.0202868 0.13668534 0.37519786 -0.0767659 -0.07387719 -0.18191123 -1.3165437 0.3940912 0.23031019 -0.4305573 -0.22558132 -1.4488431 0.31281507 -0.2379215 0.98355746 -0.81319946 0.2022292 -0.54844886 0.27373135
CAC -0.63492435 -0.0073515344 -1.166086 -0.70950305 -1.0676454 -0.8506308 -0.19805421 0.1193723 -1.6106255 -0.4757228 -0.24384491 -1.1018625 -0.5538735 0.7086011 0.22699943 -1.3506426 0.077226266 -1.1917647 0.57192 0.3047798 -0.24184111 -0.18921436 0.18157767 0.21025948 -0.6026971 0.40267724 -0.4194042 -0.84026873 0.26156464 0.23511684 -0.06876362 0.1496302 -0.33848062 -0.34323403 0.27086857 -0.032668296 -0.3102176 0.5709238 0.080827706 -0.4445643 0.013089172 -0.09832312 0.13235086 0.7186524 -0.6993168 -0.27653992 0.11964984 0.4485302 -0.3565588 -1.0219072 -0.5711179 0.2560258 1.141095 0.54959303 0.8486235 -0.54077756 0.3058729 -0.8229449 0.038744 -0.122855514 0.61220497 -0.40112987 -0.2681697 0.6553096 0.34487477 -0.28525013 0.106425025 -0.2910969 -0.38411233 -0.38616294 0.061472256 -0.21177533 0.1784962 -0.15385447 0.048009627 0.2875787 -0.9676548 0.4130551 0.07101528 -0.6501092 0.4066621 0.097988196 0.2952573 -1.0323144 0.12531422 0.21117629 -0.38753211 0.9348445 0.548093 0.43999928 0.24413499 0.41017786 -0.9057729 -0.0630834 0.095958814 0.23401672 -1.319979 -0.16460492 0.5240204 -0.10507162
GCA -0.8723696 0.85340214 -0.42083156 -0.9275237 0.14921997 -0.7946338 0.12489354 0.15157028 0.12703651 -0.023799539 -1.060629 0.25395098 -0.2529471 -0.7222746 -0.48065975 -0.6833006 -0.16220282 0.039962616 0.48256925 0.06628187 0.044168115 0.124981396 0.040194046 -1.5636953 0.030174773 0.4259361 -0.32664904 0.13359137 -0.14977771 0.10023958 0.03403536 -0.07304527 -1.0995586 0.46716774 -0.23050919 0.5428978 -0.033236057 0.39147082 0.3236203 0.045344796 0.76941216 0.35162482 -0.16996999 -0.28561214 -0.8689944 -1.2676531 -0.3808917 -0.59981275 0.1556801 -0.88906235 0.2408738 -0.3494093 0.05480884 -0.016625468 0.4961103 0.84368646 0.32474968 -0.40010476 -0.27879596 -0.12522568 -0.088743486 -0.37530673 -0.7890319 -0.06473155 0.56559503 0.16217135 -0.59323925 0.46786046 1.0395164 -0.2157899 -0.6979444 -0.18164062 0.73888606 0.1573549 -0.20221014 -0.92198145 -0.60630673 -0.3855646 0.46530238 -0.2213471 -0.08924331 1.2154006 -0.11485873 0.7662746 0.24236357 0.121323004 -0.001224926 1.0626774 -0.80743533 -0.80697984 0.8334359 0.46555546 1.2625276 -1.0633527 -0.6092286 0.08845606 -0.1128603 1.0183704 -0.25345454 -0.4244825
AUA -0.9362856 0.77264076 0.31368575 0.1530114 -0.15740234 -0.0958024 0.071653135 0.28279534 0.57211804 -0.3051717 -0.17042485 -0.38029978 1.5697844 0.583445 -0.15422596 0.09016771 -0.46477094 0.7466003 -1.2468482 0.04849632 0.19256777 0.23583975 -0.26847795 0.5577985 1.1795673 -0.4092936 1.1759479 -0.7916269 -0.006696376 -0.60392135 -0.9010562 0.6575922 0.100293644 -1.0037842 0.20502236 0.27561104 -0.23766379 -1.2241861 -0.2093229 0.015124503 -0.25372222 0.12251143 -0.15277949 -1.9087089 -0.17436114 0.23146203 1.0552784 -0.16187441 -0.55464506 0.07115254 1.4283016 -0.25672644 -1.3185312 0.21781783 0.30211496 -0.6709014 0.6422033 -0.8158719 -0.41102627 0.12936571 -0.32026792 -0.10699418 -0.13794065 -0.4735526 -0.12929948 -0.31002015 -0.7870673 -0.7017001 -0.74440336 1.4930823 0.656331 -0.6808426 0.5949464 0.81673354 -0.581879 -0.41183993 -0.17525332 -0.751048 -0.62095654 0.6210292 0.008144021 1.1533 0.3200562 -1.1594821 0.07208401 -0.35236925 -0.01537033 0.49784702 -0.10562279 0.9688721 0.8906866 -0.8520383 0.17560013 -0.6642787 -0.043853167 -0.0043851556 -0.34998307 -1.1799289 -0.24683021 -0.27312133
UAU 0.48667964 -0.57504064 0.06345993 -0.30712184 0.18687399 -0.3713043 0.29334736 -0.3570596 0.061016325 0.83698255 0.3384842 1.4014591 0.38827813 0.5695835 -0.6279555 0.582614 0.33274484 1.1848257 -0.8004019 0.27591294 -0.17557845 -0.4910331 0.32622012 0.6020036 0.8584055 -0.40646943 0.7989835 0.7084562 -0.38451052 -0.034631062 0.20188135 0.4929028 1.074318 -0.6337931 0.808582 0.3618347 -0.019342035 -0.6718096 0.35645995 0.053513706 -0.4119423 0.5939976 0.8352704 -0.5173794 0.1800531 -0.6231171 -0.15609966 1.0481304 0.13696578 0.65852374 0.106753364 0.9787755 -0.8025221 0.49279866 -0.07178649 0.44831866 0.93378526 0.44618008 1.0459042 0.7880322 0.6389989 -0.73266935 0.16718046 0.7761963 -0.46904147 1.2657981 -1.4885988 -0.68431914 -0.31308538 1.2346777 -0.5396904 -0.17126864 -0.19781384 -0.13782923 0.47961667 -0.44165826 0.019023173 0.09035493 0.3883359 -0.41466752 -0.8565034 1.2259625 -1.3140935 0.61274976 -1.0953598 0.13237266 0.6582746 -0.5011432 0.12343346 -0.5546729 -1.2312528 -0.45936427 -0.38206092 -0.84356195 0.38719094 -1.3783578 -0.41179726 -1.6350386 -0.043399572 -0.7388081
AAC -0.9167278 0.382023 -0.31451377 0.38554278 -0.35670313 -1.025015 0.52666 0.004334115 -0.27643743 0.03289253 1.0084882 -1.419037 -0.11008077 1.1197072 -0.09953068 0.6541208 0.087456286 0.7464323 -0.40976822 -0.37800825 -0.49175227 -0.29567957 -0.3291309 -0.23673478 -0.22983974 -0.24934462 -0.27248293 -0.698562 -0.13597678 -0.8195018 0.5713881 1.2769192 1.0991133 0.2502 0.33841348 -0.8998856 0.665022 0.22597753 -0.31758803 -0.20342727 0.0728332 -0.022609709 -0.9096467 0.27055967 -0.7035756 -0.077037014 1.1551826 0.46559218 0.19727935 -0.5255449 0.09210751 -0.34137934 1.4107533 0.25204217 1.5216632 0.078136876 0.42217505 -0.35108307 0.4025877 1.1703726 -0.16084158 -0.25479656 -0.09692375 -0.27161223 -0.75749475 -0.45513228 0.3664703 -0.88303155 0.6556239 -0.030191027 -0.22034584 -1.5285194 0.6640267 0.9796029 -0.5166193 -0.6432482 -0.5586854 -0.6569304 -0.38917315 -0.88227355 0.34081808 1.1932184 0.6917084 -0.83421916 0.5977398 0.28354996 -0.09332054 -0.027342865 0.8369675 1.0383534 0.43340734 0.12371006 -0.67069656 0.03510013 0.4231231 -0.23591302 -0.45039603 0.08441055 -0.04998021 0.19918959
GCC -0.45036402 0.14254017 -0.49735704 -0.000894791 -0.37410706 -0.8878138 -0.073616706 0.10134461 0.31393155 -0.85446584 -0.9395781 -0.20288427 -0.79128814 -0.12705317 -0.34051648 -0.79705244 -0.22459672 -0.67431283 0.60551935 0.17275149 -0.17943268 0.50009227 0.22938004 -1.6975067 0.30402675 0.20990582 -1.7738695 -0.11351446 -0.5258409 -0.28712612 0.9988993 0.32751554 -1.103099 0.39523333 -0.58192563 0.0063580615 -0.0034084402 1.1729902 0.6103371 -1.121426 -0.39882028 0.51181453 -0.42759255 -0.9960936 -0.40647152 -0.83042157 -0.41216144 -0.31790265 0.12712002 -0.50714886 -0.451157 -0.7249079 0.07426305 -0.87545 0.28639737 0.39693785 -0.962183 -0.23011838 -0.4806987 -0.23019797 0.8054186 -0.10344807 0.5070217 0.15541764 0.14041893 -0.5839674 -0.76445764 0.592409 0.7322045 0.13623838 -0.30357477 0.6033245 0.104175694 -0.123288706 -0.056786742 -0.30174586 -1.2612778 -0.6085228 0.5923657 -0.80694854 1.2457978 -0.90774256 -0.31223688 0.8329002 -0.064370744 -0.582285 0.2729883 -0.11401195 -0.81584275 -0.80584043 0.024478888 0.36633077 0.24004883 0.56004405 -0.42443028 0.7283546 -1.1306522 1.2834406 -1.3892561 -0.6686172
GAU 0.84057146 0.054662652 -0.31843218 -1.6426913 0.41812852 -0.613308 0.06989659 0.42063722 0.33926988 0.09564224 0.8354122 0.7245371 -0.0770324 -0.039742284 -0.56047493 -0.10522931 0.949568 -0.29036334 -0.1130882 0.019792011 0.046713237 0.0023611016 0.35224205 -0.26654893 -0.14675209 -0.26445577 0.6894956 0.25716925 0.13869993 -0.46608683 0.39682707 -0.1256179 0.88960046 0.078217715 0.4974396 0.48801163 1.1396142 -0.10471596 -0.42210242 0.76239187 -0.9027031 0.46593872 0.7373021 0.211031 -0.026022982 0.23504944 -0.66892624 0.51441336 -0.07711131 -0.29331812 -0.35445026 0.42997313 -0.2385394 -0.6577235 0.22551516 -0.25127462 0.6497666 1.1906521 0.458064 0.18068734 0.23936762 -1.6457092 0.39732608 0.6952541 -0.01173249 0.47526434 -0.8017541 -0.67538327 -0.42272198 0.39468214 -0.008761012 0.46507484 -0.60327154 0.14875923 0.23837747 -0.18271396 1.3435537 -0.38463107 0.23103128 0.6426939 -0.14233318 0.117387876 -0.2943597 -0.05468874 -0.30292177 0.6738472 0.26718077 -0.34237325 -0.019001711 0.0142258825 0.088466816 0.2547494 0.58548874 0.39925835 -0.8036775 -0.886222 0.7431993 -0.0002961436 -0.5234984 -0.82557166
GGC 0.7710377 -0.8479198 -0.30153358 0.6588637 0.9772883 0.8618746 -0.026073724 0.15718423 -0.22572906 0.09992802 -0.309704 -0.765306 1.1221651 -1.5070629 0.97736007 -0.82252556 0.46688512 -1.725514 1.7429868 -0.2328465 0.38955542 -0.33072868 0.13463767 -1.1017504 -0.08680672 -0.6819325 -1.5724894 -0.26146397 -0.059661902 -0.79436475 0.47699422 -0.3035611 -0.0057704058 -0.19798106 -0.15929215 -0.3285691 -0.41174358 -0.12958038 0.41364583 -0.2901004 -0.43056297 -0.6604499 0.6368861 0.903171 -0.24020797 0.862631 0.52058136 -0.20239472 -0.1379896 -0.047595903 -0.34761524 -0.47384503 0.36539838 0.89898646 -0.25280428 -0.09071349 -0.46595046 1.6938615 -0.3986939 0.19869722 -0.2481775 0.77599984 0.19848186 0.24416651 0.35635355 -0.18166062 -0.0455347 0.112915955 -0.062193118 -1.1634034 0.6212673 0.22223829 0.5479915 -0.25212374 0.3690263 -0.43744004 -0.067286596 0.28923488 -0.03005811 0.21726029 -0.19680707 -0.59472936 -0.33676258 -0.6136311 -0.14873607 0.23936035 -0.15788606 0.20844665 0.45148715 -0.33715668 0.07967981 0.08060755 0.19455858 1.931652 0.512936 0.27870864 0.72264206 0.7258023 0.58456117 -1.239023
GGU 0.92468935 -0.41129974 -1.4027419 -0.655349 0.43204257 1.188066 0.46852884 0.15794227 0.044738166 1.0008614 -0.6543839 0.3113398 -0.41256905 -1.304196 -0.15924263 0.3815857 -0.5356946 0.21019702 0.84124535 0.3259198 0.1035243 -0.58725286 0.0564847 -0.45904112 0.9126891 -0.5880115 -0.059074637 -0.69747484 0.059297886 -0.80733734 -0.38376307 0.5791606 0.6057575 0.002899991 0.2797502 0.4416439 -0.07015118 0.37054777 -0.09098373 -0.44079527 -0.8422882 -0.30787486 0.05216517 0.51352924 0.16799769 -0.5016476 0.14688233 0.17668016 0.18335366 0.06029485 -0.07755664 -0.30284128 -0.43086475 0.16820854 0.08354569 -1.0955678 -0.21199979 0.73807883 0.3670229 -0.3267102 0.0925197 0.28531033 0.6806047 -0.18734999 0.28799084 0.4471874 0.38479447 0.52751046 -0.62694776 -0.35016355 -0.1448946 0.7302069 -0.3814974 0.08228283 0.5628848 -0.61242056 0.011448094 -0.1320696 -0.24050243 0.114893325 -0.35408315 -0.9308877 -0.18105042 -0.71876025 0.3343566 -0.6273865 1.1520002 1.0619832 -1.1344695 -0.20797504 -0.9118859 0.4245832 0.85759944 1.3096162 1.0362653 -0.14354177 1.5954491 0.998194 0.988924 -0.33236775
ACC -0.43146667 0.23492147 0.5332401 0.54063004 0.15849783 -0.57111084 -0.15301931 -1.0914192 -0.41315275 -0.5071599 -0.1447804 0.08738889 0.5631069 0.8131279 0.14056903 -0.30355197 -0.64756656 -0.41786924 0.38904795 -0.037355162 0.7889131 -0.014333127 0.35964483 -0.32957688 -0.2537429 -0.4021214 -0.33368248 0.37548003 -0.06346456 -0.42418832 1.056744 0.6305298 -0.41737282 0.5914291 0.08447338 -0.5044343 -0.70669687 1.0769656 0.7220098 -0.84211606 0.23844138 0.3970541 -0.6340524 -0.6874336 0.59099907 0.21359037 0.2905917 -0.28665248 0.049039863 0.40939662 0.0068962807 1.3012936 0.016217398 -1.3268044 1.05288 0.070138 -0.37376398 0.2683899 -0.54919064 -0.6724061 0.031418074 0.16979809 0.040692396 -0.1346566 0.17999402 -1.0583932 -0.194863 0.29913798 0.35734245 0.31363884 -0.28397542 -0.40845284 0.7482963 0.99335885 -0.00620819 1.0648731 0.21576029 -0.4401319 -0.04968266 0.29442894 0.32053944 -1.0670387 0.12005152 0.41169503 0.13382404 -0.900063 1.1312497 -1.0860313 0.7313956 0.1383408 0.25600168 0.0041627134 -0.6580967 0.3675092 0.4572179 1.2783297 -0.92964834 0.52202004 -0.53085536 -0.96100366
CUA -1.2028537 -0.38831428 -0.49648103 -1.072552 -0.30154783 -0.34245235 -0.91677654 0.8959257 0.80507255 0.09830663 -0.8671415 -0.043279476 0.097331084 0.38472077 0.46148667 -0.05457359 -0.14293204 -0.21106376 -0.7117661 0.26828808 0.4895706 0.2639219 0.13483365 -0.50399566 0.3064153 -0.98478025 0.5932142 -1.0943271 0.14244547 -0.53025764 -0.18158075 0.57016075 -0.7206652 0.90889883 -0.2691071 0.00224849 -0.46417364 -0.41259333 -0.048895963 1.2517116 0.03075245 0.58888775 0.43049443 -1.5908309 0.9453883 1.3115879 0.49990484 -0.14427671 0.08661126 0.36316898 1.0260848 0.097201504 -0.11575623 0.28586957 -0.41508737 -0.6977168 0.6870341 -0.24117078 0.67942595 0.12907533 0.30860424 -0.19862139 0.7025843 -0.5517826 0.3751955 -0.03177408 -0.31215608 -0.81891704 -0.31818965 1.4230864 0.7736079 -0.40262982 0.10270412 -0.082688704 0.01767688 0.3212515 0.97160894 -0.4216822 -0.216741 0.51866925 -0.017317101 -0.13791889 -0.840952 0.2011166 0.8556958 -0.7233636 -0.559915 0.59597397 0.27598524 1.1288838 0.52951044 -0.42325482 0.018399728 -1.2818825 0.034651082 0.98755324 0.27081957 -0.8328964 -0.05097571 0.31852686
GAC 0.7305564 0.49239793 -0.7804221 -0.9876865 -0.60939896 -1.0699097 -0.23921275 0.43757144 -0.19518363 -0.16605552 1.4633588 -0.78424233 -0.12638886 0.3768108 -0.29963663 0.033847317 0.65633893 -1.0133514 0.5970145 0.5074416 0.6532349 0.081175275 0.26755238 -0.47818434 -0.69960153 0.032320607 -0.25812563 -0.9769889 0.93815625 -0.072161205 -0.11298932 0.25622427 1.2155709 -0.11372126 -0.048197668 -0.38645825 0.5793078 1.1657786 -0.66847795 -0.31822717 0.27320355 0.7649603 -0.09791476 0.8781789 -1.4629486 0.26204726 -0.008094613 0.23109075 -0.17884077 -0.68056023 -1.4226491 -0.5862787 0.86501 -0.6609451 1.3155104 -0.7476254 -0.12253535 0.2839712 0.46875125 0.79433393 -0.058118362 -0.96737033 0.16333337 0.57187307 -0.5246874 -0.1601157 -0.1985709 -0.38439202 0.2959848 -0.46240422 0.099060744 -0.44790542 0.27784157 -0.0317712 -0.21015832 -0.41645518 0.18774344 -0.8263905 -0.06424403 0.14864282 0.96874344 0.75357944 0.52150494 -1.1551142 -0.21878617 0.34898934 -0.18805055 0.25951076 0.24514163 0.30089578 1.109594 0.479124 -0.027688744 0.6408723 -1.0330518 -0.6137336 -0.30760342 1.1708251 0.061077148 -0.13696225
UAG 0.7101911 0.16212173 0.8419316 0.09117318 0.51571375 0.545116 -0.27031398 -0.49898964 -0.19519581 0.23319338 0.5540368 1.1055636 0.364894 -0.38850555 -0.26137424 1.0328414 -0.29079583 0.93907785 -0.8223497 -0.078709856 0.39517972 -0.46196565 1.2938639 0.06826915 0.21820752 -0.1419123 -0.17954776 0.07900922 0.82754874 0.91826344 -0.52351964 -0.73143333 0.31501916 -0.97567683 0.29520744 0.1681351 -0.4128255 0.51483583 0.96460205 -0.4823927 0.85692847 0.36470318 0.38626778 -0.14342766 0.12766072 -0.48668388 0.3847178 0.99946725 -0.2201662 0.8142918 -0.31727436 0.48290324 -0.18647997 0.78455436 -1.2044864 0.3073424 0.661296 0.28310627 0.9719254 0.124696404 0.2053936 0.2187663 0.61732686 0.40686908 -0.75620633 1.0886652 -0.5259005 0.63974035 0.5252749 0.075117804 -0.5573372 -0.74647087 0.6351614 0.35764503 -1.0064521 -0.59341633 -1.0845865 0.32844022 0.5673417 -0.07886334 -0.6430037 0.47185034 -0.37386653 -0.045507215 -0.5255375 -0.121949606 0.19268642 -0.31152093 -0.33433303 -0.69217634 -0.78255695 -0.22106536 -0.31461248 -1.4298627 1.1096585 -0.41081426 -0.5395354 -1.1687518 0.3180032 -0.13940184
AUC 0.48184443 -0.08136299 0.3295879 1.3476701 -0.7306828 -0.32461807 -0.13016537 -0.058885444 -0.49077874 -0.9213047 -0.4540644 -1.1950483 0.80486864 0.5793758 0.045174155 -0.07334825 -0.5805054 0.20988624 0.11337324 -0.007815811 0.535025 1.0390255 -0.07023381 -0.22585337 0.60749906 0.580806 -0.1592925 0.84910625 0.48428956 -0.45988795 0.17546482 -0.029758554 0.045939054 -1.1339941 0.044315312 -0.4559067 0.70737195 0.3096415 -0.17901368 -0.72901493 0.049874082 -0.015247987 -0.12394392 -0.94775164 -0.8857757 -1.0259445 -0.7276874 -0.022103772 -0.98149824 -0.12485748 1.3383207 0.07873458 -0.3680013 -0.08687485 0.29217204 0.04186091 0.18924503 -0.60217816 -0.74075866 -0.15529901 -0.366009 0.518373 -0.5911334 0.10965391 -0.91406524 -0.49223176 0.12458672 -0.8218823 -0.19344097 0.81211865 -0.63335764 -0.49765792 -0.27972466 0.1768076 0.056537524 -0.03674723 0.08007681 -0.7131404 -0.7711185 0.4145851 0.1988483 1.0570511 0.44252834 -0.95200473 -1.6521643 0.2469497 -0.29367825 0.09739906 -0.9487444 1.1145375 -0.38310647 -0.49151146 -0.54041755 0.7300507 0.43747398 -0.2455481 -0.50482863 0.38089138 -0.07573126 -0.37137738
GUC 0.08335714 -1.3550072 0.952851 0.84974504 -1.1278104 -0.452324 0.33266315 0.091440015 0.48248446 -0.6032921 -0.46698642 -0.49014455 0.078216456 -0.31644118 0.49927858 0.0952641 0.19026709 -0.51201916 0.18773772 0.26312798 0.30847618 1.3918262 -0.16175027 -0.93948036 -1.1326139 0.969481 -0.8213501 -0.1436669 -0.13369922 -0.23410133 0.21124661 0.008924141 0.4134621 0.26107797 -0.40581533 -0.26223883 -0.12696883 0.18998764 -0.19543134 -0.26773992 0.84566665 0.83150953 -0.0033121752 0.17730825 -0.23246624 -0.47284812 -0.36680982 0.04379441 0.32838762 -0.5301772 -0.06037152 -0.6214784 0.3599851 0.41724357 -0.63143295 1.563058 -0.47055578 -0.21646413 0.9320033 -0.60224986 -0.09756989 0.4512974 -0.60258055 -0.23613855 -0.38648567 0.6172851 -0.6519872 -0.8665911 0.058528982 -0.47098857 -0.25779206 0.16278234 0.0016124403 -0.4421372 0.8565524 0.92978966 1.0953876 -0.2349697 -0.61192936 0.018091403 -0.25953063 0.8202843 0.09265271 0.020690685 -1.5786071 0.45810926 -0.33649275 -0.32297933 -1.087717 -0.73754174 -0.44303373 0.01567149 -0.036359653 1.5600817 -0.16135457 0.075918354 -0.39439094 1.1805317 -0.8393999 0.41772535
GUA -1.0467657 -0.80679595 0.60681975 -0.3986355 -0.68676496 -0.22666006 0.5253022 0.68821955 1.0192254 -0.33636257 -0.5526256 0.22752823 0.82741374 -0.0011744342 0.31027016 0.061109543 0.28724623 0.043393567 -0.8747218 0.30262515 -0.047055826 0.4989094 -0.14109938 -0.15257686 -0.2791174 -0.016544174 0.51904595 -1.686048 -0.45507345 0.0589646 -1.0084984 0.8191668 0.37663537 0.16408075 -0.11085875 0.3843136 -1.6105778 -1.5467492 0.0067035467 0.13546851 0.38903716 0.8087883 -0.014844329 -0.7132742 0.5193975 0.7676012 1.3892022 -0.2689302 0.5667916 -0.51082206 0.17278954 -0.8728007 -0.68527955 0.6273337 -0.432883 0.5447484 -0.2728518 -0.5304958 1.2212727 -0.3571939 -0.14118996 -0.063754156 -0.34717235 -0.63573253 0.4632793 0.7786117 -1.1637472 -0.90859264 -0.91426396 0.3217474 1.0238668 0.025238758 0.69796294 0.14967543 0.26336348 0.59324974 0.7434369 -0.31065598 -0.79600304 0.2008057 -0.3718164 0.7525257 0.113074854 -0.47215432 0.22197287 -0.20626251 0.11297012 0.19103946 -0.34147108 -0.72184396 0.70568067 -0.53911436 0.47528368 0.27510458 -0.70150554 0.20937502 -0.14912757 -0.54275995 -0.41891247 0.7043062
UAC 0.4594742 0.0726891 -0.877479 0.031569097 -0.61781836 -0.87885946 -0.19856285 -0.06405094 -0.61094445 0.69956446 0.8186531 -0.14254223 0.3383407 0.7422801 -0.54803437 0.13126488 -0.17304593 0.4620188 0.14828348 0.7519802 0.6014725 -0.7290413 0.39520907 0.3244865 -0.007800852 -0.11223875 -0.027368518 -0.31489506 0.49595258 0.12597865 -0.43889868 0.52960795 0.98310345 -0.63189703 0.41492057 -0.7057207 -0.41615197 0.4178655 -0.07426661 -0.68807536 0.66055596 0.946371 0.43144166 0.09347586 -1.1927494 -0.69812506 0.2896412 0.65494233 0.037083786 0.105240256 -0.88057345 0.3569687 0.52759284 0.6517508 0.79728544 -0.32965776 0.4991946 -0.31709906 0.9364153 1.3081499 0.78872895 -0.0729254 -0.046866346 0.79688895 -0.65970683 0.30475533 -0.89364815 -0.027745139 0.41577885 0.17669368 -0.51822597 -1.0438548 0.54832554 -0.4275517 -0.15947582 -0.6791945 -1.0078182 -0.07760005 0.27324712 -0.9265141 -0.10870726 1.8384103 -0.7809372 -0.52810895 -1.1913149 -0.26443 0.0069087413 0.2532066 0.3612311 -0.17365533 -0.5606022 -0.12613216 -1.1530354 -0.8862677 0.5270864 -1.1735739 -1.4272188 -0.5624142 0.53398645 -0.27326787
CCG 0.999686 0.42846632 -1.5671327 0.15135619 0.9731256 -0.05251918 0.6265906 1.5885866 -0.3352642 -1.9019477 -0.58782434 -0.52998674 -1.7900717 -0.8713234 0.10284686 -1.024366 -1.4939425 0.5855783 0.32762966 -0.107068956 -0.57803977 -0.39314035 0.17305027 -1.3311589 -1.1559311 -1.164762 -0.4471428 -1.2745613 0.97895867 -0.038137864 -0.731695 -2.1492405 0.47909427 0.42455035 -0.67393214 -0.5885311 0.123032294 -0.008670571 0.2587262 0.39115608 0.29464686 0.050618034 0.6129772 0.4353871 1.2892128 0.75925547 -1.6342248 -2.2722464 0.84645706 -0.33706003 -0.13213733 0.024758805 1.8800131 -0.18475431 -1.2534052 -0.4185446 0.58367753 0.5212664 -0.53094244 1.0349002 1.2665142 1.0676502 -1.2569155 -0.9364706 1.1908102 -2.184709 0.66488624 0.79579586 -1.5289726 -1.4304066 -1.671837 0.5420489 0.6139435 -0.71376187 -0.00037010276 -0.41605738 0.23680808 0.9256418 -1.4551102 0.008346407 -0.44266468 -1.022313 -0.023849854 0.8093462 -0.3532115 0.62295663 -0.5362406 -1.2965504 -0.018206794 0.13224564 0.0011118618 0.56838936 -0.8737315 0.99800485 0.779559 0.05143019 -0.7339184 0.1828803 -0.13979176 1.5898814
CGG 0.39793926 -0.36102167 1.5581897 -0.14415002 -0.731653 0.20654216 0.2520112 -0.20231035 -0.29489776 -0.18567698 0.462556 -1.4679134 -1.4130739 -0.038605586 1.4001298 0.59101367 -1.5071428 -1.3497717 0.07574957 -1.3346894 0.36935058 0.7099044 -0.5673669 -0.17262739 -0.65722257 -0.1884619 0.38023135 0.14704844 0.07426061 -0.042178884 0.08270836 -0.1489846 -0.36970133 1.4893153 0.80917215 0.547995 0.5140122 -0.007475084 -0.34746888 -0.88064045 0.51107615 -1.4343648 -0.18476251 1.5654064 0.27574733 -0.11658662 -0.7975228 1.0694238 -0.18037143 1.1486522 -1.4522519 -1.6812336 0.8326549 -0.75102895 1.0163046 0.9027883 -1.3837501 0.10956848 -0.995096 -0.5264393 -0.93213123 0.61304307 -0.58956236 0.2073705 -0.8771465 1.2791535 0.38644698 2.3763945 0.48060763 0.8343383 -0.061788835 1.2788589 0.90629584 -1.5522829 0.6471447 0.18877083 0.6434457 -1.2110577 1.0364075 -1.1182356 1.7382064 -0.9062546 -2.1881747 0.8673991 1.5145993 0.6507719 -1.6065773 0.48178414 0.3343517 0.11910798 0.38543186 -0.54723674 -0.41716614 0.7083471 -1.465416 1.7062148 0.4162632 0.6418196 1.1950424 -1.4224565
GCG 0.8991249 0.7597856 -1.2498062 -0.79732674 0.7958656 -0.39589787 0.7195196 1.4957305 0.36346155 -2.5038793 -0.7067763 -0.093636446 -1.723197 -1.3636081 0.19587854 -0.541867 -0.49602616 0.48910412 -0.08379797 -0.21379146 -1.2360371 0.045077898 0.15073478 -1.7456381 -0.4901149 -0.3564516 -0.76367193 -1.570959 0.092228025 0.5547469 -0.19962332 -1.6869483 -0.65088344 -0.47767985 -0.83757526 -1.170649 0.30213544 0.41025376 1.2634358 -0.037726294 0.4071436 0.28834283 0.6281189 -4.7463174e-05 0.6616165 -0.35399386 -1.600961 -1.4141332 0.7966207 -0.2048862 -0.24586147 -0.54007345 0.7475195 -0.8941075 -0.8680911 0.0035223057 -0.13545175 0.12632489 -0.7972982 0.88868564 1.2318497 1.613182 -1.3309406 -0.54186296 1.4603766 -1.3906064 0.05880406 0.2220326 -0.3698664 -2.375026 -1.4429125 0.5190112 0.8590256 -0.43691 0.015937211 -1.4849712 -1.0363424 0.029068047 -1.0142304 -0.330017 0.39784232 -0.7268695 -0.5756105 1.3892452 -0.18678868 0.19937189 0.002988957 0.109695904 -1.0837533 -0.7654114 0.45685798 1.1640387 1.0730348 0.9304772 0.88695896 -0.3116406 -0.83068806 0.9445059 -0.85879576 0.77827626
CGC 0.031082636 -0.22271168 1.5526835 0.8865796 -0.6255308 0.35971734 0.3452533 -0.7043266 -0.1157773 0.48600197 -0.06486104 -1.798492 0.06555645 -0.72923505 2.0167627 -0.9029621 -0.929401 -2.3602 0.5877959 -0.9045489 0.5764805 0.6365055 -0.93909156 0.16426946 -0.54623663 -0.94097346 -1.1577027 -0.098702796 -0.6425848 -0.79243183 0.5686752 0.28961596 0.041189227 0.60955244 0.2565712 0.42010367 0.45461586 0.29814523 -0.25678074 -0.3305351 -0.034092933 -1.3574593 0.5212176 1.4872518 -0.30127156 0.91601264 0.062053 1.0790715 -0.7509454 0.9664221 -0.91616917 -0.9576672 1.0077035 -0.3274628 0.40211406 0.5695057 -1.2880633 0.6594258 -1.0489627 0.3573779 -0.27612475 0.5342345 -0.40882638 -0.05946736 -0.50662035 0.31338784 0.044708904 1.3885866 0.07546602 0.8328644 -0.2995929 0.9642147 0.89001197 -1.6766003 1.2549987 0.46464166 -0.4993927 -0.2025136 1.1612536 -0.86512214 1.2576389 -0.4291699 -2.347367 0.84982896 0.25971487 0.47084704 -1.3582425 0.24358444 1.3827162 -0.12801687 0.9195826 -0.9907273 -0.9187291 0.97914165 -0.8971254 0.9026692 -0.6200311 0.50536287 0.30108997 -2.0055096
CGA -0.6956743 -0.008212808 1.7083882 0.017768849 -0.6701016 -0.2711231 0.121547855 0.05860984 0.3927452 0.12738937 0.23634894 -1.5243232 -0.7248948 0.17774853 2.2118518 0.09608237 -1.1460174 -1.2398492 0.09135472 -0.103335395 0.31302398 0.7245796 -1.0038824 1.3745522 -0.29161704 -0.032908678 -0.22968176 0.45356518 0.33216432 -0.1464756 0.49349606 0.5102022 -0.35231614 1.271998 0.52158666 1.0637608 0.8330346 0.16190156 -0.24976031 -0.53823125 0.19776838 -0.98339736 0.5805019 1.1683694 -0.6490329 0.25023478 -0.017973123 1.3078915 -1.2003345 0.8072837 -0.08323382 -1.4859884 -0.4440642 -1.2776973 1.013313 1.0353333 -0.39624497 0.28287268 0.6680654 0.044687748 -1.0535612 0.7807725 0.56595767 0.19959608 -1.0618572 0.8974747 0.7386206 2.3765843 -0.06378736 1.406692 0.10905344 0.13786751 0.558627 -0.8997491 1.0077574 0.18302575 -1.2219205 -0.33105487 0.07845806 -1.241598 1.3494177 0.32438204 -1.3518506 1.6080544 1.6732845 0.81402373 -0.60539156 0.8747599 0.2131601 -0.92978805 0.8446972 -1.3144968 -0.84764725 0.41988748 -1.2166758 1.7593312 0.4843148 0.16041291 0.5810535 -0.95990086
CGU -0.062166657 0.40245438 0.86581635 -0.3391233 -1.356137 0.94512755 1.1875142 -1.169393 -0.15793335 1.6774096 -0.4622848 -1.1441389 -0.97377026 -0.7405785 1.3585341 0.17352791 -1.519943 -0.93998927 -0.23244518 -0.7318123 0.24663664 0.54323137 -1.2591138 0.95576775 0.35277867 -0.50422937 0.11165614 -0.40131322 -0.6405015 -0.64830166 0.06765531 1.4308333 0.55524254 0.6882352 0.818828 1.0972804 0.7953077 0.83631694 -0.71176684 -0.38203526 -0.2515101 -1.3330336 0.021910863 1.5748855 -0.2379114 -0.5813586 -0.08466021 1.9585514 -0.7867515 1.0388874 -0.49663252 -0.7037485 0.15960157 -0.9504786 0.7683136 -0.23622105 -1.0621982 -0.41556802 -0.3072642 -0.37001118 -0.28711092 -0.022217223 -0.2400877 -0.28130177 -0.6582566 1.2033677 0.73798794 1.6797882 -0.4846749 1.6549187 -1.1503156 1.4837542 -0.006343511 -1.5301293 1.3472611 0.19265713 -0.42484012 -0.56330943 1.2507237 -0.905774 1.1753712 -0.6210727 -2.1385093 0.6104104 0.90125847 -0.3357127 -0.3566345 1.4683673 -0.10857039 -0.13779931 0.17666502 -0.7898816 -0.24437112 0.31488168 -0.60130495 0.3244038 0.58184326 1.104733 1.094692 -1.437929
ACG 0.7799662 0.8273344 -0.42973325 -0.32694975 1.3549622 -0.3901721 1.1323419 0.08891025 -0.5117404 -2.2318125 -0.10270545 0.33146223 -0.4834027 -0.23384614 0.3451165 -0.4469968 -0.86471593 0.62810373 -0.24923056 -0.042104214 -0.5145754 -0.17830998 0.12938619 -0.13698111 -0.8849236 -0.8983601 0.82158256 -0.8703067 0.38056716 0.17260472 0.043327708 -1.2044177 0.17961673 -0.33430958 -0.27280065 -1.3894492 -0.202356 0.4823064 1.4796075 0.30945334 0.9072196 0.35180226 0.4362762 0.019232396 1.5306286 0.49729463 -1.3775675 -1.4547384 0.6510682 0.49443036 0.47554186 1.802781 0.46924853 -1.620145 0.117702655 -0.26699048 0.7414188 0.48187712 -0.8720341 0.3079407 0.53640145 1.3892145 -2.0512416 -0.8498552 1.6199 -2.112795 0.17719118 -0.5450854 -1.2572099 -2.0194128 -1.828092 -0.21434267 1.2094877 0.60014486 0.25780842 -0.3002751 0.45412624 0.19638254 -1.8338906 0.9990872 -0.48256788 -0.65198386 0.098728895 1.1406137 -0.36337802 -0.03224685 1.1439117 -1.0405996 0.2508083 -0.07215952 0.5700801 0.82513577 0.21750896 0.9452524 1.5946262 -0.012957323 -0.7700504 0.24095991 -0.38424528 0.34895623
UCG 1.119983 0.12530658 -1.6526115 0.024535391 1.6143031 0.41181982 1.2611189 0.59660244 -0.3131507 -1.2254951 0.6203651 0.05667205 -1.1230807 -0.05165366 -0.5189042 -0.86176693 0.27180415 0.2622695 -0.23984429 -0.19436395 -0.98626465 -0.06122241 0.32222658 0.08785712 -0.86181575 -1.3835608 -0.22181273 -1.1046642 0.032297187 0.49723953 -0.16866754 -1.2709224 0.30132094 -0.36797908 -1.4059308 -1.6621802 -0.8622105 0.24301407 1.1149579 -0.06475707 1.0705444 -0.22293012 0.54282916 -0.40564874 0.8613651 0.89464754 -1.9151195 -1.6192114 1.2782634 0.8870272 -0.11676123 -0.31982112 0.81784356 -0.6100124 -0.8139053 -0.7627156 0.56862766 -0.3596382 -0.8333603 0.45026654 0.9994009 0.74299014 -0.721662 -0.64517504 0.45667452 -1.2276527 0.15862547 -0.38514164 -2.2057755 -1.8620987 -1.0976751 0.77331525 0.13612862 -1.4699036 -0.54708064 -1.8030304 0.01411797 0.5941927 -1.6535509 0.49716663 0.31355456 -0.7518045 -0.36999518 1.5966159 -0.017244767 -0.47527725 -0.359441 -0.63988715 -0.12263419 0.061669793 0.11395295 0.3838957 -0.34045726 0.4052466 0.75625604 -0.63979673 0.012910469 0.09128143 -0.50261265 1.5145525
